701631.30463, 3,   0.452,  9.650, -2.218
701631.32450, 3,   0.452,  9.650, -2.218
701631.34437, 3,   0.608,  9.552, -2.917, 4,   0.013,  0.044,  0.089
701631.36423, 3,   0.495,  9.545, -2.807
701631.38410, 3,   0.419,  9.626, -2.642
701631.40397, 3,   0.514,  9.614, -2.601, 4,  -0.002, -0.000, -0.004, 5,  16.750,-44.612, 10.876
701631.42384, 3,   0.584,  9.617, -2.505
701631.44373, 3,   0.577,  9.667, -2.410
701631.46357, 3,   0.546,  9.638, -2.405, 4,  -0.004,  0.002, -0.009, 5,  15.961,-44.859, 11.551
701631.48344, 3,   0.495,  9.655, -2.457
701631.50330, 3,   0.502,  9.665, -2.453
701631.52317, 3,   0.550,  9.617, -2.352, 4,  -0.006, -0.009, -0.012
701631.54304, 3,   0.567,  9.679, -2.412
701631.56290, 3,   0.450,  9.633, -2.479
701631.58277, 3,   0.335,  9.610, -2.491, 4,  -0.007, -0.018, -0.016, 5,  16.586,-44.530, 11.964
701631.60264, 3,   0.364,  9.653, -2.503
701631.62250, 3,   0.380,  9.600, -2.570
701631.64237, 3,   0.416,  9.578, -2.601, 4,  -0.008, -0.032, -0.015
701631.66224, 3,   0.467,  9.600, -2.603
701631.68211, 3,   0.541,  9.598, -2.673
701631.70197, 3,   0.517,  9.586, -2.706, 4,  -0.007, -0.030, -0.015, 5,  16.818,-44.479, 12.123
701631.72187, 3,   0.388,  9.567, -2.553
701631.74171, 3,   0.275,  9.605, -2.582
701631.76157, 3,   0.285,  9.660, -2.685, 4,  -0.006, -0.009, -0.019, 5,  17.274,-45.476, 12.521
701631.78144, 3,   0.304,  9.657, -2.575
701631.80131, 3,   0.349,  9.574, -2.326
701631.82117, 3,   0.452,  9.624, -2.508, 4,  -0.007, -0.008, -0.017, 5,  16.414,-45.610, 11.816
701631.84104, 3,   0.543,  9.665, -2.637
701631.86091, 3,   0.692,  9.626, -2.515
701631.88078, 3,   0.711,  9.610, -2.520, 4,  -0.006,  0.001, -0.021, 5,  17.035,-45.007, 11.830
701631.90064, 3,   0.555,  9.576, -2.608
701631.92051, 3,   0.778,  9.801, -3.369
701631.94038, 3,   0.806,  9.578, -3.218, 4,  -0.012,  0.061, -0.042, 5,  17.709,-44.264, 11.514
701631.96024, 3,  -0.885,  9.940,  0.258
701631.98011, 3,   0.304,  9.569, -3.642
701631.99998, 3,  -0.089,  9.389, -3.596, 4,   0.007,  0.026, -0.046, 5,  18.158,-45.392, 13.362
701632.01984, 3,  -0.084,  9.894, -1.816
701632.03971, 3,   0.309,  9.701, -2.010
701632.05958, 3,   0.560,  9.490, -3.001, 4,  -0.011, -0.007, -0.023
701632.07944, 3,  -0.124,  9.765, -2.063
701632.09931, 3,  -0.196,  9.629, -2.003
701632.11918, 3,   0.026,  9.583, -2.534, 4,  -0.005,  0.096, -0.013, 5,  19.147,-45.715, 12.790
701632.13905, 3,   0.160,  9.794, -2.740
701632.15891, 3,   0.670,  9.526, -3.103
701632.17878, 3,   0.964,  9.521, -3.096, 4,  -0.013,  0.054,  0.003
701632.19865, 3,   0.778,  9.631, -2.658
701632.21851, 3,   0.507,  9.500, -2.644
701632.23838, 3,   0.424,  9.500, -2.768, 4,  -0.022,  0.134, -0.016, 5,  17.914,-46.722, 13.445
701632.25825, 3,   0.383,  9.490, -2.804
701632.27811, 3,   0.189,  9.626, -2.656
701632.29798, 3,   0.134,  9.677, -2.697, 4,  -0.006,  0.013, -0.036, 5,  18.713,-45.985, 14.229
701632.31785, 3,   0.187,  9.574, -2.582
701632.33771, 3,   0.390,  9.672, -2.338
701632.35758, 3,   0.524,  9.669, -2.177, 4,   0.000, -0.035, -0.034, 5,  17.308,-44.466, 11.938
701632.37745, 3,   0.519,  9.679, -2.254
701632.39732, 3,   0.507,  9.717, -2.417
701632.41718, 3,   0.438,  9.765, -2.400, 4,   0.009, -0.019, -0.040, 5,  19.614,-44.943, 13.565
701632.43705, 3,   0.500,  9.701, -2.149
701632.45692, 3,   0.467,  9.677, -1.981
701632.47678, 3,   0.237,  9.768, -1.720, 4,  -0.009,  0.024, -0.049, 5,  18.274,-44.815, 11.957
701632.49665, 3,  -0.022,  9.827, -1.735
701632.51652, 3,  -0.321,  9.779, -1.864
701632.53638, 3,  -0.335,  9.660, -2.072, 4,  -0.001, -0.042, -0.043
701632.55625, 3,  -0.019,  9.827, -1.816
701632.57612, 3,   0.404,  9.705, -1.005
701632.59599, 3,   0.936,  9.880, -2.426, 4,   0.016, -0.101, -0.020, 5,  21.782,-47.806, 14.198
701632.61585, 3,   0.316,  9.602, -3.898
701632.63572, 3,  -0.124,  9.882, -3.525
701632.65559, 3,   0.091,  9.763, -2.565, 4,   0.010, -0.018, -0.023, 5,  18.604,-45.888, 14.125
701632.67545, 3,   0.313,  9.437, -2.417
701632.69532, 3,   0.292,  9.698, -2.230
701632.71519, 3,   0.074,  9.689, -2.201, 4,  -0.039, -0.080, -0.018
701632.73505, 3,  -0.373,  9.610, -2.625
701632.75492, 3,  -0.330,  9.748, -2.986
701632.77479, 3,  -0.275,  9.514, -2.692, 4,   0.001, -0.065, -0.017, 5,  18.350,-44.864, 12.648
701632.79465, 3,  -0.321,  9.478, -2.187
701632.81452, 3,   0.321,  9.739, -2.017
701632.83439, 3,   0.313,  9.686, -2.118, 4,  -0.028, -0.129,  0.012, 5,  17.502,-43.851, 11.502
701632.85426, 3,  -0.268,  9.578, -2.077
701632.87412, 3,  -0.378,  9.739, -2.276
701632.89399, 3,  -0.022,  8.959, -2.625, 4,   0.005, -0.046,  0.014, 5,  18.021,-45.702, 12.740
701632.91386, 3,  -1.036,  9.744, -2.764
701632.93372, 3,  -1.761, 11.277, -3.718
701632.95359, 3,  -1.673,  8.516, -2.051, 4,   0.011,  0.015,  0.044, 5,  18.910,-45.178, 12.968
701632.97346, 3,  -0.995,  9.366, -2.089
701632.99332, 3,  -1.010,  9.602, -2.302
701633.01319, 3,  -0.677,  9.210, -3.350, 4,   0.028, -0.047,  0.125, 5,  18.808,-45.125, 12.172
701633.03306, 3,  -0.203,  9.717, -4.338
701633.05292, 3,  -0.299,  9.576, -3.711
701633.07218, 3,  -0.282,  9.454, -2.955, 4,   0.051, -0.046,  0.176
701633.09266, 3,   0.591,  9.387, -3.405
701633.11250, 3,   1.469,  9.181, -4.147
701633.13236, 3,   1.208,  9.416, -3.221, 4,   0.010, -0.116,  0.180, 5,  17.650,-47.075, 12.514
701633.15226, 3,   0.924,  9.260, -3.546
701633.17213, 3,   0.359,  9.267, -3.441
701633.19199, 3,   0.380,  9.437, -4.269, 4,   0.022, -0.080,  0.136, 5,  15.569,-45.930, 10.524
701633.21186, 3,   0.517,  9.334, -3.809
701633.23173, 3,   0.206,  9.157, -3.960
701633.25159, 3,   0.653,  8.844, -4.515, 4,   0.024, -0.269,  0.117
701633.27146, 3,   1.290,  9.095, -5.200
701633.29133, 3,   2.627,  9.105, -5.465
701633.31120, 3,   2.323,  8.956, -4.833, 4,  -0.017, -0.485,  0.082, 5,  16.785,-45.784, 12.122
701633.33106, 3,   2.027,  9.397, -4.477
701633.35093, 3,   1.694,  9.387, -5.293
701633.37080, 3,   0.713,  8.341, -5.092, 4,  -0.039, -0.281, -0.022, 5,  15.300,-44.521, 10.463
701633.39066, 3,   0.495,  8.913, -6.099
701633.41050, 3,   0.182,  8.569, -5.812
701633.43040, 3,   0.270,  9.181, -5.006, 4,  -0.075, -0.344, -0.076, 5,  17.410,-46.234, 10.471
701633.45026, 3,   0.160,  8.786, -4.465
701633.47013, 3,   0.254,  8.602, -4.355
701633.49000, 3,  -0.036,  8.121, -4.664, 4,  -0.092, -0.551, -0.093, 5,  17.651,-45.575, 10.783
701633.50986, 3,  -0.213,  9.540, -5.044
701633.52973, 3,  -0.957,  9.050, -4.939
701633.54960, 3,  -0.550,  9.330, -3.173, 4,  -0.075, -0.716, -0.077, 5,  17.804,-45.160,  8.444
701633.56947, 3,  -1.005,  9.571, -0.790
701633.58933, 3,  -1.318,  8.382, -0.141
701633.60920, 3,  -0.792,  8.023, -2.790, 4,  -0.021, -0.648, -0.017, 5,  18.564,-43.793,  6.958
701633.62907, 3,  -0.627,  9.217, -3.848
701633.64893, 3,  -1.984, 11.112, -5.338
701633.66880, 3,  -3.010, 10.162, -3.580, 4,   0.135, -0.275,  0.075, 5,  17.070,-44.716,  8.054
701633.68864, 3,  -0.639, 10.390, -2.886
701633.70850, 3,   1.359,  8.978, -2.321
701633.72840, 3,   1.869,  9.121, -3.360, 4,   0.052,  0.053,  0.158
701633.74827, 3,   2.065,  9.220, -3.706
701633.76813, 3,  -0.172,  9.497, -2.802
701633.78800, 3,  -2.187,  9.935, -2.103, 4,   0.044,  0.543,  0.105, 5,  17.653,-45.877,  9.315
701633.80787, 3,  -1.110, 11.203, -2.584
701633.82774, 3,  -0.105,  9.610, -2.115
701633.84760, 3,   0.258,  9.581, -2.443, 4,  -0.022,  0.256,  0.115, 5,  15.860,-45.209,  9.282
701633.86747, 3,  -0.287,  8.887, -2.338
701633.88734, 3,  -0.826,  9.543, -3.450
701633.90720, 3,  -0.636,  9.294, -4.022, 4,   0.010, -0.013,  0.103
701633.92707, 3,  -0.218,  9.961, -5.843
701633.94694, 3,   1.072,  8.026, -4.226
701633.96677, 3,   2.697,  7.810, -4.348, 4,  -0.044, -0.523,  0.137, 5,  15.381,-45.375,  8.125
701633.98664, 3,   2.032,  7.717, -6.760
701634.00654, 3,   5.020, 12.175, -5.573
701634.02641, 3,   6.197, 10.768, -4.501, 4,  -0.058, -1.037,  0.052, 5,  13.910,-46.454,  7.541
701634.04627, 3,   2.785,  6.049, -4.271
701634.06614, 3,   2.893,  5.477, -6.071
701634.08601, 3,   1.017,  7.966, -9.710, 4,  -0.028, -1.352, -0.112, 5,  14.743,-45.776,  5.995
701634.10587, 3,   1.161,  9.440, -6.398
701634.12574, 3,   2.429,  8.980, -3.989
701634.14561, 3,   3.044,  8.224, -2.924, 4,  -0.197, -1.191, -0.092, 5,  16.080,-44.342,  4.066
701634.16547, 3,   1.560, 10.091, -3.939
701634.18534, 3,  -0.424, 10.983, -2.946
701634.20521, 3,  -0.876,  9.705, -1.570, 4,  -0.159, -0.614, -0.154, 5,  16.632,-43.813,  3.075
701634.22507, 3,  -2.295,  7.750, -2.699
701634.24491, 3,  -3.221,  7.858, -3.312
701634.26478, 3,  -2.768,  8.789, -2.498, 4,  -0.101, -1.088, -0.103
701634.28468, 3,  -0.361,  9.849, -1.737
701634.30454, 3,  -0.971, 11.766, -3.041
701634.32441, 3,  -0.017,  8.047, -0.067, 4,  -0.030, -1.607,  0.101, 5,  14.659,-42.366,  0.813
701634.34428, 3,   1.153,  9.490, -2.142
701634.36414, 3,   2.338, 10.258, -2.264
701634.38401, 3,  -0.964, 10.820, -3.013, 4,   0.159, -1.079,  0.203, 5,  12.927,-44.514,  0.481
701634.40388, 3,  -2.072, 11.055, -1.783
701634.42374, 3,  -0.562,  9.246,  0.869
701634.44361, 3,  -0.373,  9.595,  0.167, 4,   0.103, -0.272,  0.279
701634.46348, 3,  -1.201, 10.710, -0.249
701634.48334, 3,  -2.524,  7.686, -2.278
701634.50321, 3,  -3.539, 10.902, -2.201, 4,   0.178,  0.031,  0.343, 5,  13.620,-44.835,  1.054
701634.52305, 3,  -4.410, 12.881, -4.135
701634.54292, 3,  -2.539, 12.462, -4.130
701634.56278, 3,   3.245,  5.803,  0.759, 4,   0.122,  0.121,  0.484, 5,  11.511,-46.414, -0.240
701634.58268, 3,   1.775,  7.076, -3.252
701634.60255, 3,   0.397, 10.457, -6.879
701634.62241, 3,   1.204,  9.806, -6.276, 4,   0.152,  0.226,  0.415, 5,   9.459,-44.670,  0.453
701634.64228, 3,   2.594,  8.073, -5.649
701634.66215, 3,   3.386,  8.439, -5.767
701634.68201, 3,   4.386,  9.251, -7.399, 4,   0.059, -0.215,  0.283, 5,   9.021,-45.102,  1.012
701634.70188, 3,   5.035,  8.947, -5.458
701634.72175, 3,   4.400,  7.044, -4.314
701634.74161, 3,   3.599,  7.829, -7.564, 4,   0.002, -0.555,  0.080, 5,   9.070,-46.652,  1.704
701634.76148, 3,   2.680, 10.110, -8.037
701634.78135, 3,   3.967,  8.722, -5.901
701634.80119, 3,   3.876,  8.528, -4.599, 4,  -0.096, -0.763, -0.089
701634.82105, 3,   2.630,  6.633, -3.448
701634.84092, 3,   1.455,  9.562, -3.898
701634.86082, 3,  -0.115, 12.361, -2.501, 4,  -0.169, -0.745, -0.192, 5,   7.968,-46.715, -0.349
701634.88068, 3,   0.409, 11.337,  0.309
701634.90055, 3,  -0.998,  8.229,  0.426
701634.92042, 3,  -2.228,  8.629, -0.802, 4,  -0.115, -1.108, -0.166
701634.94028, 3,  -1.015, 10.521, -1.627
701634.96015, 3,   2.008,  8.652, -1.311
701634.98002, 3,   0.514,  7.662, -2.802, 4,  -0.001, -1.374,  0.058, 5,   7.153,-44.402, -2.342
701634.99989, 3,  -0.256, 16.889, -3.838
701635.01975, 3,   2.048, 18.281,  2.091
701635.03962, 3,   4.850,  2.780,  2.036, 4,  -0.091, -0.861,  0.187, 5,   7.484,-44.936, -2.803
701635.05949, 3,   0.699,  5.755, -0.316
701635.07932, 3,  -4.053, 12.179, -3.773
701635.09919, 3,  -5.066, 11.029, -3.199, 4,   0.147,  0.167,  0.082, 5,   6.511,-46.065, -2.676
701635.11906, 3,  -3.649,  6.322, -3.159
701635.13892, 3,  -2.850,  8.490, -1.426
701635.15882, 3,   0.108, 14.517, -1.431, 4,   0.021, -0.163,  0.243, 5,   6.448,-45.404, -3.935
701635.17869, 3,   0.787, 10.052, -0.928
701635.19855, 3,  -1.278,  7.377, -3.127
701635.21842, 3,   0.483,  7.791, -6.039, 4,   0.188, -0.136,  0.303, 5,   3.964,-45.468, -2.896
701635.23829, 3,   0.414,  8.827, -9.287
701635.25816, 3,   1.742, 11.117, -8.191
701635.27802, 3,   4.101, 10.576, -7.238, 4,   0.084, -0.463,  0.278, 5,   3.253,-44.972, -1.176
701635.29789, 3,   6.205,  7.628, -2.012
701635.31776, 3,   6.360,  4.020, -2.553
701635.33762, 3,   5.288,  6.815, -5.590, 4,  -0.039, -0.921,  0.139
701635.35746, 3,   0.668, 10.820, -6.221
701635.37733, 3,  -3.214, 23.232,-19.717
701635.39719, 3,   5.243,  2.661,  4.020, 4,   0.058, -0.790, -0.033, 5,   2.715,-46.030, -2.087
701635.41706, 3,   7.231,  0.572, -1.397
701635.43696, 3,  -1.610,  4.173,  4.226
701635.45682, 3,  -7.750, 19.942, -3.534, 4,  -0.182, -0.226, -0.179
701635.47669, 3,  -5.257, 16.807, -1.766
701635.49656, 3,   3.876,  2.122,  1.775
701635.51641, 3,   0.804,  0.830,  0.931, 4,   0.050,  0.012, -0.015, 5,   3.259,-45.857, -3.699
701635.53628, 3,  -8.499, 18.403, -5.525
701635.55615, 3,  -7.829, 15.242, -3.606
701635.57602, 3,  -3.410,  5.365,  0.584, 4,   0.111, -0.973,  0.079, 5,   1.291,-44.817, -4.042
701635.59588, 3,  -0.213,  7.174, -0.981
701635.61575, 3,   0.749, 12.199, -5.910
701635.63562, 3,   2.395, 12.285, -8.234, 4,   0.143, -1.858,  0.474
701635.65545, 3,   2.891,  4.453, -6.690
701635.67532, 3,   2.276,  9.019, -5.547
701635.69519, 3,   3.625, 13.242, -2.577, 4,   0.218,  0.485,  0.581, 5,  -1.225,-45.116, -1.675
701635.71508, 3,   4.664,  9.023, -2.771
701635.73495, 3,   2.362,  9.648, -4.238
701635.75482, 3,  -0.036,  5.951, -5.896, 4,   0.222,  1.980,  0.201, 5,  -0.755,-46.759, -1.308
701635.77468, 3,   1.802,  8.085, -7.915
701635.79455, 3,   2.946,  9.423, -4.187
701635.81442, 3,  -1.697,  9.198, -2.032, 4,   0.014,  0.835, -0.206, 5,   3.853,-47.816, -0.237
701635.83429, 3,  -2.764,  9.811, -2.173
701635.85415, 3,  -0.098,  9.172, -2.596
701635.87341, 3,   0.440,  7.391, -5.219, 4,  -0.022, -0.591, -0.250, 5,  -0.108,-46.106, -2.084
701635.89389, 3,  -0.854,  7.896, -6.272
701635.91372, 3,   0.735, 11.569, -5.439
701635.93359, 3,   1.417, 10.856, -1.926, 4,  -0.086, -0.431, -0.108, 5,   0.146,-46.274, -2.348
701635.95346, 3,  -1.352,  6.908, -1.651
701635.97332, 3,  -1.591,  9.648, -7.143
701635.99319, 3,  -1.084,  8.629, -8.238, 4,   0.046,  0.401, -0.109
701636.01309, 3,   0.340,  7.851, -5.537
701636.03296, 3,  -0.586, 10.217, -1.962
701636.05282, 3,  -3.127,  8.724, -0.251, 4,  -0.128,  0.641, -0.190, 5,   3.014,-45.496, -0.948
701636.07269, 3,  -2.646,  7.011, -2.012
701636.09256, 3,  -1.297,  8.643, -8.827
701636.11242, 3,  -3.226, 13.048, -8.351, 4,   0.049,  0.259, -0.247, 5,   0.877,-45.488, -3.246
701636.13229, 3,  -3.307,  7.100,  1.510
701636.15216, 3,  -2.960,  6.066,  2.144
701636.17202, 3,  -1.895, 13.304, -3.558, 4,  -0.146, -0.446, -0.140, 5,   4.567,-45.900, -1.308
701636.19186, 3,  -1.835, 10.203, -4.434
701636.21173, 3,  -0.352,  7.573, -4.558
701636.23159, 3,   1.412, 11.019, -7.133, 4,   0.007, -1.221,  0.098, 5,   2.820,-45.435, -2.359
701636.25146, 3,   3.709,  8.696, -5.200
701636.27133, 3,   7.183,  3.991, -5.915
701636.29123, 3,   3.618, 31.329, -8.406, 4,  -0.039, -0.107,  0.176, 5,   2.550,-46.536, -1.778
701636.31109, 3,  -1.503,  4.740,  8.540
701636.33096, 3,   0.766,  3.716,  1.589
701636.35083, 3,   3.472,  7.257,-13.440, 4,   0.126,  0.844, -0.165, 5,   2.550,-46.927, -3.325
701636.37069, 3,  -0.639,  7.884,-12.828
701636.39056, 3,  -4.802,  7.312, -5.075
701636.41043, 3,  -3.438, 11.694, -0.072, 4,   0.080,  0.300, -0.387, 5,   3.876,-46.899, -1.523
701636.43029, 3,  -4.891,  6.664,  2.355
701636.45016, 3,  -3.900, 12.043, -3.278
701636.47003, 3,  -1.874, 11.572, -2.634, 4,   0.102, -0.622, -0.273, 5,   4.564,-46.103, -0.790
701636.48986, 3,  -2.453,  6.855, -0.069
701636.50973, 3,  -4.910, 11.423,-12.019
701636.52960, 3,  -3.211, 17.109, -9.933, 4,   0.194, -0.837,  0.011
701636.54947, 3,   1.768,  4.912,  4.527
701636.56933, 3,   3.092,  8.361,  2.271
701636.58923, 3,   2.613,  7.616, -3.620, 4,  -0.140, -0.648,  0.235, 5,   3.932,-46.230,  0.240
701636.60910, 3,   1.661,  9.117, -8.081
701636.62896, 3,   1.266, 11.323, -8.837
701636.64883, 3,   2.307,  7.028, -3.604, 4,   0.107,  0.551,  0.150
701636.66870, 3,   1.062,  9.401, -3.884
701636.68856, 3,   2.343,  9.794, -1.539
701636.70843, 3,  -0.653,  6.724, -2.323, 4,  -0.045,  1.280, -0.255, 5,   3.470,-45.735, -1.430
701636.72830, 3,  -6.173, 10.265, -5.197
701636.74817, 3,  -7.394,  3.398, -4.802
701636.76800, 3,  -7.935,  2.319, -4.745, 4,  -0.052,  0.537, -0.512, 5,   6.956,-46.248,  0.124
701636.78787, 3,  -6.200, 15.293, -4.300
701636.80774, 3,  -7.207,  9.760,  2.778
701636.82760, 3,  -4.573, 10.947,  0.031, 4,  -0.336, -1.349, -0.205, 5,   8.194,-46.080, -1.993
701636.84747, 3,  -2.221, 14.448, -2.225
701636.86737, 3,  -2.237,  6.903, -3.278
701636.88723, 3,   0.091, 11.876, -6.171, 4,  -0.000, -1.881,  0.368, 5,   5.350,-44.270, -3.902
701636.90710, 3,   5.420,  4.085, -7.147
701636.92697, 3,   8.136, 12.627, -9.107
701636.94683, 3,   8.767, 11.165, -3.553, 4,   0.077, -1.172,  0.612, 5,   2.283,-45.073, -3.238
701636.96670, 3,   8.755,  2.568,  5.066
701636.98657, 3,   1.668, 11.754, -8.617
701637.00644, 3,   0.988, 12.694,-12.270, 4,   0.278,  0.237,  0.247, 5,   1.006,-46.500, -2.129
701637.02630, 3,  -2.084,  5.233, -3.647
701637.04614, 3,  -3.534, 11.225, -4.032
701637.06601, 3,  -0.957,  9.842,  0.694, 4,   0.010,  0.267,  0.074
701637.08587, 3,   0.768, 13.586,  1.656
701637.10574, 3,   0.761,  5.738,  0.380
701637.12561, 3,  -0.201,  8.124, -7.009, 4,   0.152,  0.206,  0.061, 5,   2.274,-46.230,  0.415
701637.14550, 3,  -1.440, 11.706, -9.232
701637.16537, 3,  -0.971,  6.123, -2.201
701637.18524, 3,  -1.658, 11.225, -1.096, 4,   0.005,  0.186, -0.021
701637.20510, 3,  -1.192, 10.193, -0.878
701637.22497, 3,   0.029, 13.512, -2.106
701637.24484, 3,   0.677,  6.879, -1.335, 4,  -0.029,  0.162, -0.027, 5,   2.565,-45.830, -2.629
701637.26471, 3,  -0.682,  7.183, -4.771
701637.28457, 3,  -2.189,  9.825, -7.542
701637.30444, 3,  -1.208,  7.686, -2.800, 4,   0.054,  1.147, -0.152, 5,   2.364,-46.617, -0.974
701637.32428, 3,  -2.469, 10.548, -1.773
701637.34414, 3,  -6.970,  7.454, -0.861
701637.36401, 3,  -9.052, 17.032, -3.505, 4,  -0.046,  1.003, -0.449, 5,   4.561,-46.164, -1.184
701637.38388, 3,  -5.949,  4.987, -0.426
701637.40374, 3,  -2.285,  8.753, -5.202
701637.42361, 3,  -1.668, 10.634, -6.855, 4,  -0.096, -1.117, -0.323, 5,   5.580,-44.901, -2.626
701637.44351, 3,  -0.330,  9.155, -3.544
701637.46337, 3,   2.395, 10.574, -3.211
701637.48324, 3,   3.742,  5.420, -2.539, 4,  -0.169, -1.532,  0.059, 5,   3.247,-45.110, -3.389
701637.50311, 3,   3.503, 14.094, -5.798
701637.52298, 3,   4.702,  8.018, -2.180
701637.54284, 3,   0.945,  7.825, -5.582, 4,   0.064, -0.193,  0.154, 5,   3.201,-47.179, -2.353
701637.56271, 3,  -0.967,  9.890, -4.477
701637.58258, 3,  -1.271,  7.985, -2.316
701637.60241, 3,  -0.780,  6.604, -2.113, 4,   0.007,  0.096, -0.062, 5,   4.497,-45.453, -3.394
701637.62228, 3,  -1.067, 12.287, -3.714
701637.64215, 3,  -1.017, 11.703, -1.732
701637.66201, 3,  -1.373,  8.650,  1.046, 4,  -0.063, -0.821, -0.037, 5,   1.891,-45.999, -3.610
701637.68188, 3,  -1.845,  7.109, -1.464
701637.70175, 3,  -2.079,  7.686, -6.470
701637.72165, 3,  -0.105, 14.422, -8.097, 4,   0.124, -1.070,  0.173
701637.74151, 3,   0.581,  6.879, -2.505
701637.76138, 3,  -0.380, 16.137, -2.953
701637.78125, 3,  -1.555,  8.684,  1.677, 4,   0.040, -0.174,  0.374, 5,   1.793,-43.674, -2.931
701637.80111, 3,  -2.752,  6.231, -0.775
701637.82098, 3,  -1.957, 10.780, -7.301
701637.84085, 3,  -3.403,  5.910, -8.150, 4,   0.288,  0.146,  0.358, 5,  -0.224,-46.893, -2.736
701637.86068, 3,  -1.558,  7.650, -5.836
701637.88055, 3,   0.778,  9.806, -2.539
701637.90042, 3,   1.493, 10.574, -2.132, 4,   0.051,  0.579,  0.394, 5,  -0.780,-46.297, -2.086
701637.92028, 3,  -1.505, 10.490, -1.417
701637.94015, 3,  -2.757,  9.894, -4.152
701637.96002, 3,  -2.764,  9.849, -5.023, 4,   0.136,  0.675,  0.109, 5,  -1.476,-47.461, -2.190
701637.97988, 3,  -3.996,  6.628, -7.537
701637.99975, 3,  -2.706, 14.206, -1.555
701638.01965, 3,  -1.682,  7.178,  1.555, 4,  -0.058,  0.257,  0.092, 5,   0.371,-44.391, -1.445
701638.03952, 3,   0.012, 11.081,  1.335
701638.05938, 3,   0.507,  7.143, -3.364
701638.07925, 3,   1.105, 10.232, -7.901, 4,   0.130,  0.240,  0.050, 5,  -2.028,-46.428, -2.534
701638.09912, 3,  -0.203,  8.155, -6.518
701638.11898, 3,  -0.608, 10.569, -3.996
701638.13885, 3,   0.567, 10.174,  0.022, 4,  -0.091,  0.509, -0.086, 5,  -0.223,-45.413, -1.181
701638.15872, 3,  -0.333,  9.299,  1.024
701638.17855, 3,  -1.457, 11.091, -2.113
701638.19842, 3,  -0.593,  7.267, -4.936, 4,  -0.038,  0.182, -0.306, 5,   1.947,-46.169, -2.959
701638.21829, 3,   0.050,  8.822, -4.987
701638.23816, 3,  -3.288,  4.798, -7.133
701638.25802, 3,  -2.816, 16.692, -4.573, 4,  -0.085, -0.197, -0.291
701638.27789, 3,  -0.684,  5.087,  3.395
701638.29779, 3,  -0.077, 16.599, -0.318
701638.31765, 3,   2.010,  8.289, -2.450, 4,  -0.186, -0.766, -0.182, 5,   1.544,-45.013, -2.309
701638.33752, 3,   0.770,  9.777, -6.430
701638.35739, 3,   0.749,  8.557, -6.860
701638.37725, 3,   0.574, 13.261, -3.671, 4,   0.012, -0.539, -0.019, 5,   1.869,-46.938, -3.339
701638.39712, 3,   2.127,  6.394,  2.496
701638.41699, 3,   0.244, 12.309, -0.653
701638.43686, 3,   0.311, 12.402, -1.728, 4,  -0.016, -0.069, -0.049, 5,   2.408,-45.161, -2.443
701638.45669, 3,  -0.816,  8.853, -3.635
701638.47656, 3,  -0.244, 10.942, -4.606
701638.49643, 3,  -1.622, 10.615, -3.924, 4,   0.067, -0.299, -0.047, 5,   0.552,-46.298, -2.251
701638.51629, 3,   0.041,  6.729, -0.770
701638.53616, 3,  -1.976, 11.780, -3.151
701638.55603, 3,  -0.450,  8.710, -4.939, 4,   0.039, -0.676,  0.067, 5,  -0.095,-45.418, -2.211
701638.57592, 3,   0.053,  6.257, -4.250
701638.59579, 3,   2.855, 22.476, -1.888
701638.61566, 3,   5.372,  0.756,  2.524, 4,   0.012, -0.423,  0.243, 5,  -0.745,-46.211, -4.045
701638.63552, 3,   0.641, 12.079, -6.523
701638.65539, 3,   0.100, 10.775, -8.408
701638.67465, 3,   0.440,  5.544, -3.860, 4,   0.217,  0.066,  0.176, 5,   0.990,-46.994, -0.662
701638.69513, 3,   1.156,  5.154, -3.070
701638.71499, 3,  -1.972, 13.417, -4.427
701638.73483, 3,  -3.876, 10.904, -5.470, 4,   0.037,  0.439,  0.056, 5,  -0.346,-45.869, -1.180
701638.75470, 3,  -2.563, 15.025,  0.840
701638.77456, 3,  -2.776,  6.114,  1.826
701638.79443, 3,  -3.474, 11.742, -3.434, 4,  -0.026,  0.048, -0.009
701638.81430, 3,  -3.149,  9.349, -5.415
701638.83416, 3,  -3.154,  9.590, -3.048
701638.85403, 3,   0.100,  5.891, -1.517, 4,   0.070,  0.117,  0.156, 5,  -0.343,-45.580, -0.725
701638.87393, 3,   1.302,  9.042, -6.501
701638.89379, 3,   2.788, 11.560, -2.670
701638.91366, 3,   2.955,  8.140, -1.761, 4,  -0.056,  0.304,  0.055
701638.93353, 3,   1.675, 12.529, -0.689
701638.95340, 3,   1.199, 11.280, -0.050
701638.97326, 3,  -0.983,  8.081, -2.914, 4,  -0.087,  0.109, -0.209, 5,   1.590,-47.983, -0.322
701638.99313, 3,  -2.204,  8.767, -5.310
701639.01297, 3,  -4.637, 10.890, -2.953
701639.03283, 3,  -4.190,  4.388, -3.549, 4,  -0.027, -0.513, -0.165, 5,   3.407,-46.669,  0.259
701639.05270, 3,  -3.190, 14.201, -4.877
701639.07257, 3,   0.084,  9.069,  0.220
701639.09243, 3,   0.163,  9.839, -2.288, 4,  -0.039, -0.775,  0.175, 5,   0.470,-44.801, -1.822
701639.11230, 3,  -0.505,  9.937, -4.355
701639.13217, 3,  -0.036,  7.944, -4.506
701639.15207, 3,   1.108, 12.361, -7.013, 4,   0.142, -0.492,  0.350, 5,  -1.956,-45.326, -1.035
701639.17193, 3,   4.269, 10.433, -2.709
701639.19180, 3,   2.816,  8.858, -2.091
701639.21167, 3,   1.943,  6.609, -3.757, 4,   0.119,  0.265,  0.367, 5,  -1.068,-45.595, -1.183
701639.23153, 3,  -0.653, 12.029, -6.963
701639.25140, 3,   0.172,  7.834, -4.341
701639.27127, 3,   1.228, 13.290, -0.500, 4,   0.045,  0.348,  0.108, 5,  -2.922,-44.215, -0.232
701639.29110, 3,   0.754,  6.934,  2.067
701639.31097, 3,  -4.092,  9.210, -3.462
701639.33084, 3,  -5.075,  6.245, -3.111, 4,   0.018,  0.075, -0.043
701639.35070, 3,  -4.745,  6.456, -3.412
701639.37057, 3,  -3.223, 12.146, -3.314
701639.39044, 3,   0.720, 12.153,  0.502, 4,  -0.040, -0.215,  0.161, 5,  -4.405,-44.777, -1.750
701639.41030, 3,  -0.170,  5.769,  1.242
701639.43017, 3,  -0.809,  9.717, -6.698
701639.45007, 3,   0.132,  9.303, -7.707, 4,   0.137,  0.347,  0.237
701639.46994, 3,   0.656,  8.916, -3.738
701639.48980, 3,   2.010, 12.112, -1.898
701639.50967, 3,   1.239,  8.341,  3.046, 4,  -0.130,  0.663,  0.098, 5,  -4.085,-44.952, -1.917
701639.52954, 3,  -0.775,  9.631, -1.737
701639.54940, 3,  -2.099, 13.574, -4.609
701639.56924, 3,  -1.132,  5.599, -2.737, 4,  -0.001,  0.279, -0.218, 5,  -4.446,-44.247, -2.644
701639.58911, 3,  -2.012, 10.574, -4.228
701639.60897, 3,  -3.125, 15.379, -1.697
701639.62884, 3,  -2.343,  6.669,  1.534, 4,  -0.136, -0.198, -0.152, 5,  -3.403,-44.225, -1.959
701639.64871, 3,  -4.147,  9.358, -3.103
701639.66858, 3,  -3.077,  7.635, -4.982
701639.68844, 3,  -0.546, 11.880, -3.369, 4,   0.027, -0.711,  0.072, 5,  -4.283,-44.012, -1.428
701639.70831, 3,   2.601,  7.193, -1.163
701639.72821, 3,   2.015, 10.138, -1.967
701639.74807, 3,   1.110,  8.200, -5.439, 4,   0.074, -0.168,  0.287, 5,  -3.691,-44.817, -1.447
701639.76794, 3,   1.630, 10.607, -6.465
701639.78781, 3,   2.065,  9.791, -2.154
701639.80767, 3,   2.780, 13.091, -1.976, 4,   0.045,  0.378,  0.169, 5,  -4.521,-43.338,  0.154
701639.82754, 3,   1.199,  9.610,  1.180
701639.84741, 3,   0.153,  8.248, -0.902
701639.86724, 3,  -2.577,  8.224, -7.695, 4,   0.106,  0.159, -0.077, 5,  -2.797,-43.323, -0.465
701639.88711, 3,  -2.008, 15.312, -8.236
701639.90698, 3,  -0.617,  0.821, -2.895
701639.92685, 3,  -1.953, 12.811, -7.810, 4,   0.061, -0.128,  0.024, 5,  -2.451,-43.213, -0.182
701639.94671, 3,   1.180, 10.311, -1.472
701639.96658, 3,   0.931, 12.481,  1.491
701639.98645, 3,   0.756, 10.284, -0.864, 4,  -0.088,  0.200,  0.100
701640.00634, 3,   0.244, 13.445, -2.946
701640.02621, 3,   1.539,  8.248, -2.122
701640.04608, 3,   1.070,  6.446, -0.134, 4,   0.037,  0.318, -0.046, 5,  -3.581,-42.778, -3.104
701640.06594, 3,  -1.015, 10.339, -4.070
701640.08581, 3,  -1.328, 11.414, -5.274
701640.10568, 3,  -1.036,  6.834, -0.242, 4,  -0.005,  0.000, -0.139, 5,  -2.649,-43.495, -0.464
701640.12551, 3,  -1.814,  9.701, -1.244
701640.14538, 3,  -1.988, 11.306, -2.943
701640.16525, 3,  -1.945,  9.916, -0.687, 4,  -0.040, -0.244, -0.060, 5,  -2.975,-43.497, -2.773
701640.18512, 3,  -1.644,  4.953, -0.931
701640.20498, 3,  -2.144, 14.958, -5.425
701640.22485, 3,  -0.869,  6.755, -1.438, 4,   0.009, -0.040,  0.091, 5,  -3.868,-43.198, -2.251
701640.24472, 3,   0.268, 11.462, -1.565
701640.26458, 3,   0.507,  4.967, -0.060
701640.28445, 3,  -0.653,  4.489, -2.467, 4,   0.006,  0.254,  0.056, 5,  -5.481,-42.958, -2.443
701640.30435, 3,  -1.620, 14.443,-10.150
701640.32421, 3,  -0.024,  6.659, -2.886
701640.34408, 3,   0.019,  9.263, -0.751, 4,  -0.015,  0.187,  0.003, 5,  -4.716,-42.830, -3.365
701640.36395, 3,   0.711, 10.892, -0.469
701640.38382, 3,  -0.586,  5.640, -2.249
701640.40368, 3,  -2.211, 11.926, -5.432, 4,  -0.002,  0.074, -0.043, 5,  -5.081,-44.080, -1.921
701640.42352, 3,   0.589,  9.586, -1.098
701640.44339, 3,   0.689,  7.602,  0.215
701640.46325, 3,  -0.124, 11.392, -4.046, 4,  -0.038,  0.062, -0.006, 5,  -4.712,-43.187, -2.286
701640.48312, 3,  -0.292,  6.870, -3.029
701640.50299, 3,  -1.012, 11.648, -3.285
701640.52285, 3,   2.247, 14.914, -3.793, 4,  -0.024,  0.055, -0.010
701640.54272, 3,   1.158,  4.668,  3.032
701640.56259, 3,  -0.175,  8.571, -4.077
701640.58248, 3,  -1.122, 13.771, -6.508, 4,  -0.011,  0.003, -0.064, 5,  -4.164,-42.906, -1.149
701640.60235, 3,  -0.766,  8.703, -3.032
701640.62222, 3,   0.641, 14.625, -2.508
701640.64209, 3,   0.292,  5.013,  2.730, 4,  -0.077, -0.138, -0.003
701640.66195, 3,   0.569, 16.448, -3.695
701640.68182, 3,  -0.479,  8.372, -1.670
701640.70169, 3,  -0.495,  9.715, -3.931, 4,   0.107, -0.106, -0.002, 5,  -4.465,-41.879, -1.186
701640.72152, 3,   0.060, 11.404, -3.661
701640.74139, 3,   1.211,  8.509, -0.792
701640.76126, 3,   1.065,  7.815, -3.393, 4,   0.034, -0.000,  0.066, 5,  -5.344,-43.141, -0.731
701640.78112, 3,  -0.766, 10.062, -4.740
701640.80099, 3,  -0.524, 13.799, -5.578
701640.82086, 3,   0.179,  8.717,  0.677, 4,  -0.030,  0.135,  0.039, 5,  -3.587,-43.816, -2.434
701640.84072, 3,  -0.818,  7.858,  0.251
701640.86059, 3,  -1.541, 10.612, -2.711
701640.88049, 3,  -1.601,  8.052, -2.091, 4,  -0.016,  0.165, -0.003, 5,  -6.458,-42.694, -2.472
701640.90036, 3,  -0.622, 11.842, -4.496
701640.92022, 3,  -0.249, 11.440,  0.400
701640.94009, 3,  -0.220,  7.035,  1.089, 4,  -0.040,  0.216, -0.001, 5,  -4.041,-42.812, -2.365
701640.95993, 3,  -0.751, 10.414, -2.036
701640.97979, 3,  -2.620,  8.904, -5.075
701640.99966, 3,  -2.833,  8.406, -6.408, 4,   0.123,  0.092, -0.097, 5,  -2.718,-43.494, -1.437
701641.01953, 3,  -1.991,  9.444, -2.642
701641.03939, 3,  -0.967,  8.511, -0.347
701641.05926, 3,  -0.802, 12.486, -3.331, 4,  -0.063, -0.129,  0.021
701641.07913, 3,  -0.622, 12.242, -1.713
701641.09899, 3,   0.074,  3.745,  1.993
701641.11886, 3,   0.416, 14.843, -4.441, 4,   0.005,  0.081,  0.068, 5,  -1.801,-39.607,  0.842
701641.13873, 3,   0.955,  8.466, -0.280
701641.15863, 3,  -0.005,  7.659, -2.333
701641.17849, 3,   0.426, 11.136, -4.197, 4,   0.101,  0.309, -0.040
701641.19836, 3,   0.187,  3.309, -3.058
701641.21823, 3,  -0.675, 18.994, -8.322
701641.23809, 3,  -0.804, -1.914,  1.527, 4,   0.030,  0.153, -0.174, 5,  -2.017,-41.989, -1.526
701641.25793, 3,  -2.986,  5.834, -5.726
701641.27780, 3,  -3.781, 16.288,-10.737
701641.29766, 3,   0.074,  4.420,  1.172, 4,  -0.153, -0.283, -0.135, 5,  -0.549,-44.357,  0.592
701641.31753, 3,   0.869, 14.630,  0.861
701641.33740, 3,   1.297,  8.791,  4.439
701641.35727, 3,  -0.232, 12.067, -0.907, 4,  -0.167, -0.189,  0.034, 5,  -2.043,-42.778, -2.632
701641.37713, 3,   0.105, 11.029, -1.991
701641.39700, 3,  -0.818,  2.422, -0.995
701641.41687, 3,  -1.637, 13.933, -6.822, 4,   0.063, -0.007,  0.075, 5,  -2.254,-44.724, -2.266
701641.43676, 3,   0.921,  8.825, -3.450
701641.45663, 3,   1.493,  8.796, -0.357
701641.47589, 3,   0.656, 10.423, -1.153, 4,  -0.037,  0.133,  0.117, 5,  -3.059,-43.861, -2.284
701641.49636, 3,   0.098,  7.358, -1.256
701641.51623, 3,  -1.113, 14.544, -4.226
701641.53610, 3,   0.110,  9.179, -1.273, 4,  -0.003,  0.131,  0.020, 5,  -0.502,-44.559, -3.365
701641.55593, 3,  -1.299,  9.734, -0.847
701641.57580, 3,  -1.364,  8.729, -3.228
701641.59567, 3,  -1.563,  8.485, -5.712, 4,   0.084, -0.009,  0.015, 5,  -3.914,-42.857, -1.331
701641.61554, 3,  -1.005,  9.356, -4.752
701641.63540, 3,   2.450, 12.589, -2.331
701641.65527, 3,   2.103,  9.033,  0.651, 4,  -0.035,  0.174,  0.129, 5,  -1.805,-42.281, -1.190
701641.67514, 3,   2.027,  9.449, -0.459
701641.69500, 3,   0.471, 13.232, -3.027
701641.71487, 3,  -1.412,  9.645, -3.498, 4,   0.085,  0.316, -0.054
701641.73477, 3,   1.053, 14.682, -3.448
701641.75463, 3,   0.931,  1.998,  1.823
701641.77450, 3,  -0.773,  9.294, -4.855, 4,   0.100,  0.162, -0.143, 5,  -2.734,-44.208, -1.746
701641.79437, 3,  -1.539, 10.055, -9.028
701641.81424, 3,  -0.818,  8.248, -3.924
701641.83407, 3,   0.971, 14.225, -2.474, 4,  -0.045,  0.136, -0.148, 5,  -0.732,-44.157, -2.428
701641.85394, 3,   3.405, 13.072,  2.950
701641.87381, 3,  -1.460, -4.360,  8.329
701641.89367, 3,  -2.082, 13.802, -6.664, 4,  -0.045, -0.097, -0.228, 5,  -1.320,-44.170, -3.734
701641.91354, 3,  -4.757, 13.007, -9.502
701641.93341, 3,  -0.632,  6.430, -5.468
701641.95327, 3,   1.041,  8.700, -0.952, 4,   0.073, -0.277, -0.012, 5,  -0.838,-42.300, -1.917
701641.97314, 3,   0.041,  9.215, -6.470
701641.99301, 3,   0.213, 12.699, -5.444
701642.01290, 3,   0.790,  8.980,  1.249, 4,  -0.108,  0.134,  0.092, 5,  -1.627,-43.930, -3.844
701642.03277, 3,   1.259, 12.993,  0.400
701642.05264, 3,   0.321,  9.301,  0.483
701642.07251, 3,   0.223,  9.433, -4.089, 4,  -0.028,  0.136, -0.033
701642.09237, 3,   0.091,  9.007, -4.132
701642.11221, 3,  -0.060, 12.747, -4.482
701642.13208, 3,   1.912,  8.205, -1.768, 4,   0.018,  0.026, -0.028, 5,   0.070,-45.015, -4.675
701642.15194, 3,   0.567, 10.035, -1.141
701642.17181, 3,   1.079, 11.440, -3.094
701642.19168, 3,  -0.306,  0.239, -2.268, 4,   0.017, -0.064, -0.083, 5,  -1.541,-45.213, -3.882
701642.21154, 3,  -2.355, 12.885,-10.617
701642.23141, 3,   1.328, 11.215, -4.006
701642.25128, 3,   1.720,  7.162,  1.792, 4,  -0.139, -0.086, -0.023
701642.27114, 3,   1.907,  7.944,  0.560
701642.29101, 3,  -0.479, 14.556, -3.156
701642.31091, 3,  -0.199, 12.005, -2.259, 4,  -0.091, -0.054, -0.084, 5,  -3.775,-44.151, -4.620
701642.33078, 3,   1.036, 10.698, -2.029
701642.35064, 3,  -0.206,  6.406, -0.723
701642.37051, 3,  -0.830,  7.035, -4.932, 4,   0.070, -0.068, -0.068, 5,  -3.389,-43.518, -4.083
701642.39038, 3,  -2.036, 10.220, -6.408
701642.41021, 3,  -1.957, 10.959, -3.606
701642.43008, 3,   0.074, 12.775, -2.273, 4,   0.041, -0.031, -0.020, 5,  -3.395,-43.878, -1.564
701642.44995, 3,   0.725,  9.464,  1.577
701642.46981, 3,   0.569, 14.072, -0.677
701642.48968, 3,  -1.117,  8.329, -0.541, 4,  -0.005,  0.026,  0.004, 5,  -4.720,-43.542, -1.906
701642.50955, 3,  -1.819, 12.632, -3.781
701642.52941, 3,   0.368,  8.624, -3.020
701642.54928, 3,   0.706, 10.349, -3.154, 4,   0.117,  0.138,  0.025, 5,  -2.713,-43.344, -0.465
701642.56915, 3,   1.507,  6.872, -4.317
701642.58905, 3,  -1.649, 10.722, -5.783
701642.60891, 3,   0.352, 10.856, -2.974, 4,   0.014,  0.168, -0.036, 5,  -2.074,-42.770,  0.217
701642.62878, 3,   3.070, 11.840, -0.699
701642.64865, 3,   0.613,  7.066, -0.488
701642.66851, 3,  -0.115,  8.265, -4.204, 4,  -0.057,  0.089, -0.147, 5,  -2.715,-43.483,  0.026
701642.68835, 3,  -1.117, 17.575, -6.367
701642.70822, 3,   0.048, 10.354, -1.697
701642.72808, 3,   1.192, 10.799, -0.861, 4,  -0.055, -0.165, -0.169, 5,  -1.245,-43.886, -0.031
701642.74795, 3,  -0.431,  6.135, -0.730
701642.76782, 3,  -0.189,  9.143, -5.104
701642.78769, 3,  -0.770, 13.869, -5.429, 4,   0.073, -0.362, -0.105
701642.80755, 3,   0.495,  7.513, -0.601
701642.82742, 3,   0.802, 12.086, -2.072
701642.84729, 3,   0.366, 10.828, -0.833, 4,  -0.026, -0.174,  0.040, 5,   1.303,-42.775, -0.369
701642.86718, 3,   0.744,  9.519, -1.589
701642.88705, 3,   0.208, 13.493, -2.304
701642.90692, 3,   0.223,  6.604, -3.154, 4,   0.085,  0.030,  0.048
701642.92678, 3,   0.964, 17.276, -6.848
701642.94665, 3,   1.630,  8.961, -1.862
701642.96649, 3,   1.658, 12.775, -2.221, 4,   0.034,  0.094,  0.023, 5,   0.609,-44.133,  1.118
701642.98635, 3,  -1.177,  6.657,  0.486
701643.00622, 3,  -0.577, 14.635, -5.336
701643.02609, 3,   0.534, 12.163, -2.101, 4,  -0.011, -0.136, -0.051, 5,  -0.066,-43.436,  0.949
701643.04596, 3,   0.383,  4.283,  3.060
701643.06582, 3,   0.019, 16.929, -5.446
701643.08569, 3,  -2.816, 10.957, -8.454, 4,   0.044, -0.445,  0.024, 5,   0.548,-42.046, -1.077
701643.10556, 3,  -2.256, 14.804, -6.642
701643.12542, 3,   0.986,  7.918, -0.739
701643.14529, 3,   1.440, 11.816,  1.500, 4,  -0.010, -0.337,  0.238, 5,  -1.253,-43.323, -2.090
701643.16519, 3,   0.481,  8.033, -0.912
701643.18505, 3,  -0.840, 13.620, -5.719
701643.20492, 3,   0.452,  8.408, -3.618, 4,   0.167,  0.155,  0.232, 5,  -2.412,-43.488, -1.189
701643.22479, 3,   1.685, 13.847, -3.230
701643.24466, 3,   1.692, -0.550,  0.928
701643.26449, 3,   0.835, 14.185, -6.523, 4,   0.090,  0.604,  0.116
701643.28436, 3,   0.144,  9.255, -3.996
701643.30423, 3,  -1.737,  7.892, -4.647
701643.32409, 3,  -3.022, 15.539, -4.137, 4,  -0.017,  0.447, -0.149, 5,   0.237,-44.142,  0.995
701643.34396, 3,  -2.051,  8.085,  2.902
701643.36383, 3,  -2.883,  9.509,  0.495
701643.38369, 3,  -3.771,  8.660,  0.787, 4,  -0.112, -0.093, -0.203, 5,  -0.377,-43.623, -0.461
701643.40356, 3,  -4.324, 10.047, -5.037
701643.42343, 3,  -0.589, 10.205, -2.699
701643.44332, 3,   0.196,  8.296, -2.615, 4,   0.022, -0.248,  0.027
701643.46319, 3,   0.627,  9.263, -2.218
701643.48306, 3,  -0.337, 11.945, -1.898
701643.50293, 3,   0.940,  9.835, -2.984, 4,  -0.004,  0.191,  0.062, 5,  -0.677,-42.383, -1.530
701643.52279, 3,   0.747, 12.744, -2.256
701643.54263, 3,   0.589,  5.771,  1.737
701643.56250, 3,  -0.371, 11.174, -1.424, 4,  -0.033,  0.254, -0.097, 5,  -1.260,-44.328, -1.186
701643.58236, 3,  -1.137, 10.040, -3.013
701643.60223, 3,  -1.641,  5.838, -4.159
701643.62210, 3,  -3.156, 21.971, -6.578, 4,   0.075, -0.104, -0.214, 5,  -0.073,-42.847, -1.187
701643.64196, 3,   0.802,  2.955,  2.448
701643.66183, 3,  -1.735,  7.530, -3.561
701643.68170, 3,  -0.713, 12.928, -5.444, 4,  -0.052, -0.324, -0.116, 5,   1.057,-43.881, -2.890
701643.70156, 3,  -1.060,  3.283, -2.747
701643.72143, 3,  -0.826, 14.273, -3.706
701643.74133, 3,   1.050, 12.354,  0.797, 4,  -0.130, -0.350,  0.021, 5,   1.564,-43.262, -1.649
701643.76120, 3,  -1.510,  9.887, -2.984
701643.78106, 3,  -0.156, 13.058, -1.299
701643.80093, 3,  -0.536, -1.161,  2.103, 4,  -0.037, -0.472,  0.085
701643.82077, 3,  -0.873, 15.644, -8.023
701643.84063, 3,   0.775,  9.392, -3.773
701643.86050, 3,   1.677,  6.841, -1.775, 4,   0.103, -0.288,  0.217, 5,  -0.714,-43.445, -1.733
701643.88037, 3,   0.835, 11.646, -3.479
701643.90023, 3,   1.507,  6.032, -1.350
701643.92010, 3,  -0.297, 14.611, -4.757, 4,   0.025,  0.126,  0.195, 5,  -0.706,-43.169, -0.615
701643.93997, 3,   1.443,  8.116,  1.572
701643.95983, 3,  -0.022,  8.081, -1.017
701643.97970, 3,  -0.938,  7.042, -5.489, 4,   0.059,  0.160,  0.078
701643.99957, 3,  -2.417,  6.712, -4.948
701644.01947, 3,  -1.775,  6.248, -1.713
701644.03933, 3,  -0.950, 15.764, -4.987, 4,   0.017,  0.120,  0.074, 5,   0.139,-44.632,  1.015
701644.05920, 3,  -0.005,  7.992,  0.636
701644.07907, 3,  -0.203,  7.152, -0.572
701644.09890, 3,  -0.785, 11.545, -4.429, 4,  -0.028,  0.224,  0.087, 5,  -1.317,-42.802, -1.805
701644.11877, 3,  -2.087,  2.445, -3.360
701644.13864, 3,   0.814, 15.147, -5.286
701644.15850, 3,   0.742,  4.458,  2.096, 4,  -0.007,  0.502,  0.042, 5,  -1.294,-45.197, -0.459
701644.17837, 3,  -0.502, 11.957, -2.242
701644.19824, 3,  -0.778, 11.715, -3.611
701644.21811, 3,  -0.998, 10.043, -1.426, 4,   0.011,  0.314, -0.120, 5,  -0.047,-43.430, -1.517
701644.23797, 3,   0.672, 12.684, -2.378
701644.25784, 3,   1.137,  7.389,  0.208
701644.27771, 3,   0.390,  8.042, -2.998, 4,  -0.013,  0.024, -0.174, 5,   0.597,-44.446, -1.910
701644.29760, 3,  -1.431, 12.278, -6.293
701644.31747, 3,  -0.732, 10.129, -3.352
701644.33734, 3,   0.715,  8.136, -1.627, 4,  -0.030, -0.052, -0.180
701644.35720, 3,   1.713, 20.037, -2.591
701644.37704, 3,   2.378,  0.668,  1.362
701644.39691, 3,  -1.790, 14.369, -6.678, 4,  -0.033, -0.183, -0.192, 5,   2.122,-42.665, -1.372
701644.41677, 3,  -1.105, 10.457, -3.984
701644.43664, 3,  -0.139,  9.686, -0.802
701644.45651, 3,   0.246,  8.808, -0.558, 4,  -0.080, -0.407, -0.104
701644.47638, 3,   1.019,  9.899, -0.802
701644.49624, 3,   0.337, 16.441, -4.128
701644.51611, 3,   0.234,  7.286, -1.821, 4,   0.048, -0.534,  0.004, 5,  -0.375,-43.419, -2.267
701644.53598, 3,  -0.347, 14.118, -3.170
701644.55584, 3,   1.050,  2.378,  1.390
701644.57571, 3,   0.122,  5.451, -6.106, 4,   0.055, -0.251,  0.159, 5,   0.606,-44.084, -1.183
701644.59561, 3,   0.316, 16.470, -9.739
701644.61547, 3,   2.213,  8.794, -1.615
701644.63534, 3,   1.756, 13.206,  0.124, 4,  -0.075,  0.011,  0.177
701644.65521, 3,   2.156,  7.363,  4.640
701644.67504, 3,  -0.914,  9.684, -1.828
701644.69491, 3,  -2.130, 13.400, -4.132, 4,   0.030, -0.109, -0.005, 5,  -0.266,-42.722, -1.917
701644.71478, 3,  -2.350,  2.371,  0.105
701644.73465, 3,  -2.802, 11.710, -7.021
701644.75451, 3,  -2.292,  6.480, -4.381, 4,   0.110, -0.358,  0.112, 5,  -0.302,-42.560, -1.189
701644.77438, 3,  -1.933,  9.555, -4.891
701644.79425, 3,  -0.431, 15.271, -2.352
701644.81411, 3,   0.569,  6.293,  4.429, 4,  -0.087, -0.126,  0.297, 5,  -2.736,-44.205, -2.745
701644.83398, 3,  -1.094, 13.491, -0.495
701644.85385, 3,  -0.833,  7.205, -2.271
701644.87374, 3,  -2.522,  7.820, -3.931, 4,   0.132,  0.385,  0.271, 5,  -2.136,-43.568, -1.457
701644.89361, 3,  -1.522,  9.858, -6.013
701644.91348, 3,   0.086,  4.817, -3.307
701644.93335, 3,  -0.146, 13.500, -5.111, 4,   0.097,  0.639,  0.142, 5,  -2.052,-43.475, -2.199
701644.95318, 3,  -0.270, 10.438, -0.304
701644.97305, 3,  -0.278,  6.477,  2.462
701644.99292, 3,  -2.400, 12.246, -3.374, 4,  -0.057,  0.347, -0.061
701645.01278, 3,  -3.374,  2.524, -2.955
701645.03265, 3,  -4.537, 13.302, -6.987
701645.05252, 3,  -1.799, 10.050, -2.091, 4,   0.002, -0.196, -0.044, 5,  -0.470,-42.728, -1.418
701645.07238, 3,  -0.756,  6.231,  1.395
701645.09225, 3,  -1.881, 11.414, -2.771
701645.11212, 3,  -0.313,  7.250, -1.402, 4,  -0.026,  0.169,  0.132, 5,  -2.348,-44.054, -3.952
701645.13198, 3,  -0.474,  7.892, -2.122
701645.15185, 3,   0.952, 17.252, -3.611
701645.17175, 3,   1.802,  3.458,  1.917, 4,   0.004,  0.700,  0.036
701645.19159, 3,   0.476, 10.215, -4.020
701645.21148, 3,   1.366,  7.892, -4.159
701645.23132, 3,  -0.065,  2.668, -3.881, 4,   0.033,  0.604, -0.284, 5,   0.679,-43.204, -2.184
701645.25119, 3,  -0.316,  1.287, -8.609
701645.27105, 3,  -2.335, 22.172, -3.793
701645.29092, 3,   5.724, 18.528,  1.082, 4,  -0.328,  0.035, -0.418, 5,   0.816,-42.688, -5.020
701645.31079, 3,   4.633, -1.230, 14.845
701645.33065, 3,  -1.749, 18.934, -2.067
701645.35052, 3,  -2.472,  9.957, -5.006, 4,  -0.093, -0.914, -0.452, 5,   3.288,-44.066, -6.242
701645.37039, 3,  -3.551,  6.473,  1.022
701645.39025, 3,   0.589,  2.376,  5.441
701645.41012, 3,  -2.541, 17.499,-11.045, 4,   0.242, -1.211,  0.047, 5,   1.305,-43.941, -3.548
701645.42999, 3,   3.671, 12.287, -9.753
701645.44989, 3,   6.604,  6.609, -3.635
701645.46975, 3,   2.017, 10.184, -4.671, 4,   0.226, -0.132,  0.412, 5,   0.307,-44.479, -2.657
701645.48962, 3,   0.730,  8.940, -1.706
701645.50946, 3,   1.436,  6.102, -0.479
701645.52934, 3,   0.792, 16.515, -6.004, 4,  -0.012,  0.386,  0.163
701645.54921, 3,   3.343, 10.040, -0.136
701645.56908, 3,   1.098,  8.231,  1.082
701645.58894, 3,   0.108, 11.421, -2.847, 4,  -0.009,  0.070,  0.001, 5,  -1.338,-44.926, -2.724
701645.60881, 3,  -1.062,  2.436, -2.010
701645.62868, 3,  -3.161, 10.818, -8.004
701645.64854, 3,  -0.869,  9.303, -4.400, 4,   0.066, -0.250,  0.016
701645.66841, 3,  -1.613, 11.935, -1.452
701645.68828, 3,   0.696,  8.935, -0.474
701645.70814, 3,  -1.429, 11.447, -2.146, 4,  -0.107, -0.184,  0.203, 5,  -0.766,-45.581, -3.378
701645.72804, 3,  -1.627, 12.840, -2.094
701645.74791, 3,   1.876, 11.201,  0.459
701645.76778, 3,   1.412,  5.760,  1.350, 4,  -0.026,  0.093,  0.282, 5,  -1.598,-46.025, -2.635
701645.78764, 3,   1.433, 12.089, -3.376
701645.80748, 3,   0.225,  8.947, -4.221
701645.82735, 3,   0.328, 10.418, -3.407, 4,   0.150,  0.424,  0.186, 5,  -2.026,-46.429, -3.258
701645.84721, 3,   1.445, 16.477, -5.245
701645.86708, 3,   1.649,  4.642,  2.981
701645.88695, 3,  -0.232,  9.310, -2.594, 4,  -0.000,  0.494, -0.016, 5,  -3.239,-47.693, -3.906
701645.90681, 3,  -2.185, 14.161, -7.107
701645.92668, 3,  -2.242,  6.547, -1.431
701645.94655, 3,  -2.163, 14.627, -4.633, 4,   0.010,  0.267, -0.141, 5,  -3.249,-48.775, -2.470
701645.96641, 3,  -1.974,  8.069,  1.804
701645.98628, 3,  -1.888,  8.882, -1.510
701646.00615, 3,  -2.544,  8.906, -6.078, 4,  -0.010, -0.047, -0.069, 5,  -1.280,-47.957, -3.357
701646.02605, 3,  -1.189,  7.810, -3.008
701646.04591, 3,  -0.335, 11.005, -3.144
701646.06578, 3,   1.826,  6.389,  0.337, 4,  -0.036, -0.048,  0.104
701646.08562, 3,   1.814,  9.507, -4.757
701646.10548, 3,   1.809, 14.761, -6.051
701646.12535, 3,   3.309,  8.626,  0.682, 4,  -0.041,  0.391,  0.027, 5,  -0.706,-48.570, -2.176
701646.14522, 3,   2.642, 15.113,  1.534
701646.16508, 3,   0.759,  8.279,  2.283
701646.18495, 3,  -0.821,  5.180, -1.149, 4,  -0.062,  0.512, -0.299
701646.20482, 3,  -2.166, 12.409, -6.745
701646.22469, 3,  -2.565,  6.652, -6.633
701646.24455, 3,  -2.601,  9.315, -5.082, 4,   0.084, -0.233, -0.412, 5,   0.571,-48.080, -1.173
701646.26442, 3,  -1.699,  6.681, -2.819
701646.28429, 3,  -1.646, 12.636, -3.228
701646.30418, 3,  -0.636, 16.489, -0.830, 4,  -0.212, -0.805, -0.150, 5,   1.762,-48.824, -1.167
701646.32405, 3,  -0.514,  7.686,  4.838
701646.34392, 3,  -1.730, 11.974,  3.192
701646.36375, 3,  -0.301,  7.250,  0.778, 4,  -0.016, -0.762,  0.144, 5,  -0.159,-48.418, -1.172
701646.38362, 3,   0.213,  7.293, -5.664
701646.40349, 3,   1.641,  5.872, -6.255
701646.42335, 3,   1.574,  8.617,-10.043, 4,   0.336,  0.002,  0.333, 5,  -0.960,-47.552,  0.443
701646.44322, 3,   1.747, 12.675, -5.102
701646.46309, 3,   3.477,  8.784,  2.252
701646.48296, 3,   1.589, 12.948,  0.433, 4,  -0.129,  0.637,  0.168, 5,  -1.823,-47.774, -0.452
701646.50282, 3,  -1.292, 11.849, -1.646
701646.52269, 3,  -1.965,  4.924, -1.972
701646.54256, 3,  -2.283, 12.936, -4.769, 4,   0.011, -0.053, -0.123, 5,  -1.994,-47.353,  0.845
701646.56242, 3,  -1.697,  9.095, -0.799
701646.58229, 3,  -2.388,  5.190,  0.593
701646.60219, 3,  -2.630, 13.883, -5.953, 4,   0.072, -0.430,  0.078, 5,  -2.119,-48.480,  2.324
701646.62205, 3,  -0.916,  3.879, -3.520
701646.64189, 3,   0.036, 11.344, -6.422
701646.66176, 3,   2.773, 12.402, -1.974, 4,   0.060, -0.048,  0.319, 5,  -2.144,-47.765,  1.254
701646.68162, 3,   2.582,  7.980,  1.988
701646.70149, 3,   2.201, 14.783, -1.689
701646.72136, 3,   0.725,  4.721, -0.854, 4,   0.024,  0.652,  0.149
701646.74123, 3,  -1.759,  9.282, -5.702
701646.76109, 3,  -0.699, 12.266, -3.214
701646.78096, 3,  -1.397,  7.195,  1.866, 4,  -0.015,  0.675, -0.107, 5,  -2.550,-48.195,  0.572
701646.80083, 3,  -2.252,  6.575, -2.022
701646.82069, 3,  -2.819, 12.050, -8.219
701646.84056, 3,  -2.565, 13.354, -4.240, 4,   0.027,  0.145, -0.246, 5,  -0.186,-45.367, -0.972
701646.86043, 3,  -1.598,  4.400,  3.360
701646.88032, 3,  -2.445, 10.184, -0.500
701646.90019, 3,  -4.056, 10.713, -6.705, 4,  -0.072, -0.139, -0.185, 5,  -0.172,-45.401,  0.908
701646.92003, 3,  -2.230,  7.789, -4.187
701646.93989, 3,  -0.321, 10.892, -1.665
701646.95976, 3,   0.608,  6.023, -1.280, 4,  -0.036, -0.093,  0.005, 5,  -0.659,-47.447, -0.735
701646.97963, 3,   0.313,  9.562, -3.005
701646.99950, 3,   0.050,  9.354, -2.931
701647.01936, 3,   1.122,  8.566, -2.489, 4,  -0.015,  0.107, -0.048, 5,  -0.111,-46.266, -0.700
701647.03923, 3,   1.476, 13.627, -2.110
701647.05910, 3,   1.084,  7.219,  1.383
701647.07896, 3,   0.352, 10.928, -1.976, 4,  -0.070, -0.018, -0.150, 5,  -0.200,-45.627, -1.797
701647.09883, 3,   0.060,  8.815, -1.852
701647.11870, 3,   0.091,  7.241, -4.374
701647.13856, 3,  -1.146, 12.897, -4.924, 4,   0.019, -0.299, -0.207, 5,   0.174,-46.278, -0.453
701647.15846, 3,  -0.495, 10.040, -0.072
701647.17833, 3,   0.352, 10.679,  0.385
701647.19820, 3,   0.373,  8.061, -0.297, 4,  -0.027, -0.506, -0.093, 5,   0.282,-44.914,  0.002
701647.21803, 3,  -0.787,-10.158, -4.723
701647.23790, 3,  -3.936, 20.468,-18.504
701647.25777, 3,   3.395, 12.242, -2.015, 4,   0.035, -0.122,  0.050
701647.27702, 3,   3.534,  1.385,  9.368
701647.29750, 3,   1.290, 16.448,  0.010
701647.31737, 3,  -3.254,  6.977, -0.258, 4,  -0.235,  0.313, -0.039, 5,   1.068,-44.829, -1.303
701647.33723, 3,  -4.580, 15.951, -2.845
701647.35710, 3,  -2.773, -0.988,  7.676
701647.37697, 3,  -5.178,  8.940, -4.654, 4,  -0.002, -0.288, -0.083, 5,   0.565,-45.547, -1.891
701647.39683, 3,  -3.869, 14.280, -8.148
701647.41670, 3,   0.548,  2.180,  1.340
701647.43657, 3,  -0.569, 16.137, -5.336, 4,   0.101, -0.705,  0.216, 5,   1.399,-45.355,  0.089
701647.45647, 3,   0.584,  9.744, -1.519
701647.47633, 3,   0.692,  7.860,  0.055
701647.49617, 3,  -0.112, 11.024, -4.613, 4,   0.133,  0.039,  0.381, 5,  -1.064,-45.969,  0.301
701647.51604, 3,   0.165,  5.314, -1.933
701647.53590, 3,  -1.105, 12.842, -4.400
701647.55577, 3,   0.723,  5.362, -0.330, 4,   0.134,  0.533,  0.268, 5,  -0.714,-43.600,  0.841
701647.57564, 3,   0.529,  7.616, -3.864
701647.59550, 3,  -0.218, 13.074, -7.336
701647.61537, 3,  -0.266,  5.310, -1.649, 4,   0.066,  0.527,  0.030, 5,  -1.344,-43.507,  0.264
701647.63524, 3,  -2.556, 14.606, -1.778
701647.65510, 3,  -2.067,  9.997,  1.223
701647.67497, 3,  -0.840, -4.132,  2.455, 4,  -0.087,  0.302, -0.129, 5,  -1.613,-44.186,  0.758
701647.69484, 3,  -5.190, 16.793,-11.301
701647.71471, 3,  -3.099,  0.785, -1.558
701647.73460, 3,  -2.615,  9.992, -3.254, 4,   0.015, -0.149, -0.087, 5,  -2.057,-43.773, -0.333
701647.75447, 3,  -0.230, 13.862, -3.221
701647.77434, 3,   0.751,  8.617,  0.464
701647.79417, 3,   0.299, 11.526, -2.833, 4,  -0.060,  0.042,  0.069
701647.81404, 3,  -0.782, -0.749, -1.986
701647.83391, 3,   1.038, 15.747, -6.745
701647.85377, 3,   1.742,  6.836,  0.371, 4,  -0.018,  0.658, -0.055, 5,  -0.314,-44.240, -1.094
701647.87364, 3,   1.914,  6.250,  0.653
701647.89351, 3,   0.115, 12.098, -6.664
701647.91338, 3,  -2.230,  8.227, -4.044, 4,  -0.023,  0.770, -0.428
701647.93324, 3,  -2.352, 12.249,  0.481
701647.95311, 3,  -2.919,  6.051,  0.919
701647.97298, 3,  -3.876, 14.898, -4.319, 4,  -0.196, -0.399, -0.595, 5,  -0.151,-43.001, -0.746
701647.99284, 3,  -1.601, 11.330, -2.295
701648.01271, 3,  -3.427,  4.266, -0.077
701648.03261, 3,  -2.692, 13.127, -3.092, 4,  -0.097, -1.275, -0.236, 5,   2.209,-42.171, -2.159
701648.05244, 3,   0.074, 12.857, -2.510
701648.07231, 3,   3.113,  5.673,  0.148
701648.09218, 3,   3.070, 15.730, -6.465, 4,   0.164, -1.026,  0.189, 5,  -1.231,-43.399, -3.423
701648.11204, 3,   3.068,  2.742, -4.238
701648.13191, 3,   3.154, 12.991, -9.071
701648.15178, 3,   3.625, 12.471, -3.005, 4,   0.186,  0.313,  0.247, 5,  -1.013,-43.892, -2.916
701648.17165, 3,   1.440,  9.016,  2.713
701648.19151, 3,  -0.763, 14.448, -0.696
701648.21138, 3,  -2.955,  4.443,  2.438, 4,  -0.032,  0.606, -0.159, 5,   0.278,-44.843, -3.693
701648.23125, 3,  -3.857, 16.386, -3.522
701648.25111, 3,  -1.036,  6.185,  2.388
701648.27098, 3,  -3.529,  7.102, -1.522, 4,  -0.017, -0.476, -0.183, 5,   0.710,-44.316, -3.363
701648.29085, 3,  -4.374, 17.451, -7.540
701648.31074, 3,  -0.747, 10.313, -0.881
701648.33061, 3,   0.421,  8.853,  0.306, 4,   0.070, -0.765,  0.162
701648.35045, 3,   0.668,  8.609, -1.725
701648.37031, 3,  -0.440,  6.485, -5.362
701648.39018, 3,   1.000, 13.175, -7.006, 4,   0.221, -0.150,  0.362, 5,  -1.573,-45.074, -2.098
701648.41005, 3,   3.647,  6.982, -3.178
701648.42992, 3,   1.764, 13.417, -4.089
701648.44978, 3,   1.153,  9.282,  0.864, 4,   0.049,  0.636,  0.268
701648.46965, 3,  -0.577,  3.891,  2.170
701648.48952, 3,  -2.740, 14.979, -6.432
701648.50938, 3,  -2.405,  2.728, -3.503, 4,   0.075,  0.581, -0.108, 5,  -0.722,-43.817, -0.838
701648.52925, 3,  -3.508, 13.168, -6.075
701648.54912, 3,  -1.120, 11.201,  0.184
701648.56898, 3,  -1.864,  6.573,  2.802, 4,  -0.131,  0.189, -0.124, 5,   1.978,-46.910, -0.029
701648.58888, 3,  -2.290, 14.644, -3.769
701648.60875, 3,  -3.687,  5.176, -5.685
701648.62859, 3,  -1.452, 13.926, -3.946, 4,  -0.014, -0.486, -0.044, 5,  -1.340,-44.844, -2.553
701648.64845, 3,   2.974,  6.434,  1.644
701648.66832, 3,   2.496,  7.975, -0.723
701648.68819, 3,   0.974, 12.048, -5.760, 4,   0.013, -0.482,  0.108, 5,  -0.742,-44.640, -1.419
701648.70805, 3,   2.941, 10.500, -5.195
701648.72792, 3,   3.173, 10.684, -1.852
701648.74779, 3,   2.450,  7.892,  0.759, 4,   0.028,  0.145,  0.065, 5,  -0.493,-45.581, -1.317
701648.76765, 3,   0.486, 10.447, -1.608
701648.78752, 3,  -1.366, 10.569, -3.714
701648.80739, 3,  -2.036,  9.607, -2.486, 4,   0.075,  0.303, -0.198, 5,   0.835,-46.469, -0.035
701648.82725, 3,  -2.113, 11.330, -1.732
701648.84712, 3,  -2.477, 10.143, -0.778
701648.86699, 3,  -2.161,  9.023, -1.584, 4,  -0.057, -0.285, -0.183, 5,   0.348,-44.576, -0.636
701648.88689, 3,  -3.360, 10.902, -3.094
701648.90675, 3,  -2.771,  7.056, -5.532
701648.92659, 3,  -1.828,  8.246, -6.963, 4,   0.044, -0.678,  0.071, 5,   0.296,-46.277,  0.273
701648.94646, 3,   0.852, 10.423, -1.603
701648.96632, 3,   2.288, 11.385,  0.380
701648.98619, 3,   1.180, 12.727,  1.385, 4,  -0.074,  0.003,  0.316
701649.00606, 3,  -0.936,  6.686, -1.213
701649.02592, 3,  -1.354, 13.799, -4.455
701649.04579, 3,  -0.569,  5.468, -2.467, 4,   0.098,  0.513,  0.159, 5,  -0.786,-46.521, -2.383
701649.06566, 3,  -1.869, 10.225, -3.647
701649.08552, 3,  -2.125,  9.054, -3.127
701649.10539, 3,  -1.799, 10.586, -2.072, 4,   0.052,  0.355, -0.012, 5,  -0.778,-46.246, -1.070
701649.12526, 3,  -2.268,  9.098, -1.261
701649.14513, 3,  -3.386, 10.844, -2.991
701649.16502, 3,  -3.805,  8.030, -2.010, 4,  -0.041, -0.138, -0.024, 5,   0.320,-45.566,  0.861
701649.18489, 3,  -2.728, 10.770, -2.055
701649.20473, 3,  -1.960,  7.659, -2.773
701649.22459, 3,  -0.857, 13.201, -3.821, 4,   0.005, -0.377,  0.188, 5,   0.639,-45.171,  0.665
701649.24446, 3,   1.622,  7.346, -0.811
701649.26433, 3,   2.163,  2.055, -1.807
701649.28419, 3,   1.335, 12.029, -8.471, 4,   0.081,  0.067,  0.280, 5,  -1.892,-44.785,  1.118
701649.30406, 3,   3.226,  4.441, -2.024
701649.32393, 3,   2.010, 12.522, -3.242
701649.34380, 3,   1.967,  7.207, -1.302, 4,  -0.061,  0.592,  0.081, 5,  -2.058,-44.196,  0.252
701649.36366, 3,   0.132, 13.354, -1.653
701649.38353, 3,  -1.251, 11.375,  0.495
701649.40340, 3,  -2.716,  0.608,  1.883, 4,  -0.121,  0.339, -0.273, 5,  -0.891,-43.637, -0.645
701649.42326, 3,  -4.286, 15.393, -4.477
701649.44313, 3,  -4.053,  6.499, -0.814
701649.46303, 3,  -2.871, 14.414, -1.938, 4,   0.043, -0.250, -0.229, 5,  -0.037,-43.063,  0.233
701649.48286, 3,  -2.048,  4.551, -0.670
701649.50273, 3,  -2.742,  8.928, -5.798
701649.52260, 3,  -1.120, 13.541, -5.252, 4,   0.093, -0.333,  0.003
701649.54246, 3,   0.352,  9.564, -0.366
701649.56233, 3,   0.993, 10.382, -0.467
701649.58220, 3,   0.010, 15.094, -1.859, 4,   0.020,  0.014,  0.122, 5,  -0.044,-43.352, -0.461
701649.60207, 3,   0.244,  1.041,  0.110
701649.62193, 3,  -2.369, 13.156, -7.260
701649.64180, 3,  -1.079,  6.085, -2.496, 4,   0.112,  0.202,  0.041
701649.66167, 3,  -0.579,  9.064, -3.501
701649.68153, 3,  -0.357, 12.416, -3.931
701649.70140, 3,   0.108,  5.164, -0.371, 4,  -0.022,  0.201, -0.009, 5,  -1.611,-43.263,  0.262
701649.72127, 3,  -0.062, 18.511, -2.579
701649.74116, 3,  -1.637,  4.458, -0.275
701649.76103, 3,  -2.063, 10.942, -3.197, 4,  -0.040, -0.003, -0.085, 5,   0.002,-41.290, -1.190
701649.78087, 3,  -2.237,  7.906, -3.328
701649.80073, 3,  -1.424,  7.865, -4.092
701649.82060, 3,  -0.045, 10.239, -4.175, 4,   0.030, -0.171, -0.037, 5,   0.558,-41.991, -0.568
701649.84047, 3,   0.830,  8.372, -1.764
701649.86034, 3,   0.646, 10.586, -2.065
701649.88020, 3,   0.933,  9.748, -2.637, 4,  -0.035, -0.078, -0.003, 5,  -0.580,-41.402, -0.562
701649.90007, 3,   0.421,  5.547, -1.464
701649.91994, 3,   0.321, 14.292, -2.728
701649.93980, 3,   0.593,  7.482, -0.167, 4,  -0.038, -0.023, -0.065, 5,   0.401,-41.420, -0.314
701649.95967, 3,  -1.644,  9.349, -3.776
701649.97954, 3,  -3.060,  4.506, -2.048
701649.99940, 3,  -3.300,  8.856, -6.008, 4,   0.023, -0.119, -0.063, 5,   0.879,-42.206, -0.259
701650.01930, 3,  -3.092, 15.819, -4.049
701650.03917, 3,  -0.816,  5.305,  3.582
701650.05901, 3,  -1.730, 13.728,  0.275, 4,  -0.134, -0.147,  0.111
701650.07826, 3,  -2.568,  7.466, -3.336
701650.09874, 3,  -2.142,  7.870, -4.616
701650.11861, 3,  -1.572,  9.145, -4.561, 4,   0.112,  0.264,  0.188, 5,   1.599,-42.270, -1.637
701650.13847, 3,   1.182, 11.603, -1.275
701650.15834, 3,   1.603,  7.274, -0.156
701650.17821, 3,   0.864, 10.830, -3.979, 4,   0.063,  0.503,  0.089
701650.19807, 3,   0.031,  5.599, -3.336
701650.21794, 3,  -0.380, 11.880, -4.326
701650.23781, 3,   0.878,  9.478, -0.723, 4,  -0.002,  0.178, -0.133, 5,   2.350,-41.885, -1.974
701650.25767, 3,   0.754,  9.131,  0.579
701650.27754, 3,  -0.471, 12.144, -4.482
701650.29741, 3,  -0.971, -2.503, -1.943, 4,  -0.033, -0.309, -0.179, 5,   2.069,-43.173, -5.139
701650.31731, 3,  -1.295, 20.143, -8.523
701650.33714, 3,   2.668,  3.249,  2.259
701650.35701, 3,   0.220, 10.813, -2.953, 4,  -0.064, -0.354, -0.037, 5,   3.310,-41.928, -5.536
701650.37688, 3,   0.089,  9.009, -3.283
701650.39674, 3,   0.660,  7.116, -3.604
701650.41661, 3,   1.718, 13.685, -4.530, 4,  -0.031, -0.109,  0.014, 5,   2.606,-43.889, -4.272
701650.43648, 3,   2.512,  1.134,  0.567
701650.45634, 3,   0.672, 14.345, -3.017
701650.47621, 3,  -0.266,  4.900,  2.146, 4,  -0.086,  0.104, -0.038, 5,   0.937,-44.482, -5.505
701650.49608, 3,  -3.556, 11.584, -3.936
701650.51594, 3,  -3.644, 11.682, -4.309
701650.53581, 3,  -3.209,  8.329, -1.692, 4,   0.022, -0.287, -0.024, 5,  -1.218,-46.712, -6.570
701650.55568, 3,  -3.934, 11.270, -1.433
701650.57555, 3,  -2.460,  6.322, -0.323
701650.59544, 3,  -3.702,  9.248, -4.276, 4,   0.066, -0.245,  0.288, 5,  -5.905,-45.029, -5.675
701650.61531, 3,  -1.574,  9.992, -6.066
701650.63515, 3,   0.632,  9.488, -6.532
701650.65501, 3,   0.318, -2.065, -1.120, 4,   0.093,  0.502,  0.497, 5,  -5.457,-45.441, -4.585
701650.67488, 3,   4.422, 18.159, -2.934
701650.69475, 3,   0.491,  8.310,  2.874
701650.71461, 3,   0.550, 15.522,  0.656, 4,  -0.044,  1.031,  0.215
701650.73448, 3,   2.644,  9.327, -0.658
701650.75435, 3,   1.835,  9.277, -2.417
701650.77421, 3,   0.646,  5.949, -3.773, 4,   0.133,  0.626, -0.204, 5,  -5.040,-45.393, -2.808
701650.79408, 3,   1.632, -2.187, -1.665
701650.81395, 3,   2.630, 22.461,-11.323
701650.83382, 3,   3.740,  3.773, -1.720, 4,   0.081,  0.028, -0.440, 5,  -3.995,-45.052, -2.122
701650.85368, 3,   4.630, 12.318, -2.704
701650.87355, 3,   2.553, 10.536, -2.173
701650.89345, 3,  -0.852, -3.096, -0.376, 4,  -0.164, -0.637, -0.488, 5,  -3.409,-44.415, -2.742
701650.91328, 3,  -3.747, 15.766, -6.700
701650.93315, 3,  -0.426,  8.717, -2.359
701650.95302, 3,  -0.615, 14.620,  2.170, 4,  -0.150, -1.368, -0.238, 5,  -0.348,-44.862, -1.765
701650.97288, 3,   1.500, 10.533, -0.167
701650.99275, 3,  -1.213,  8.049, -3.596
701651.01262, 3,  -2.063, 13.158, -3.041, 4,   0.073, -0.630,  0.234, 5,  -2.721,-43.489, -3.369
701651.03249, 3,   0.048,  1.067,  4.716
701651.05235, 3,  -0.967, 14.757, -1.519
701651.07222, 3,   0.636,  5.915, -4.298, 4,   0.151,  0.082,  0.467, 5,  -3.423,-42.856, -1.303
701651.09209, 3,   1.603,  9.748, -5.891
701651.11195, 3,   1.029, 12.304, -7.312
701651.13182, 3,   0.483, 11.378,  0.189, 4,   0.106,  0.767,  0.418, 5,  -4.619,-44.695, -0.883
701651.15169, 3,  -0.675, 13.771, -1.285
701651.17158, 3,  -0.562,  7.903,  2.144
701651.19145, 3,  -0.591, 11.167, -2.431, 4,   0.005,  0.687,  0.151, 5,  -3.479,-44.937, -2.641
701651.21129, 3,  -0.167,  8.684, -1.953
701651.23115, 3,  -1.113, 11.775, -3.295
701651.25102, 3,  -1.235,  8.432, -1.065, 4,  -0.009,  0.285,  0.029
701651.27089, 3,   1.041, 10.074,  2.795
701651.29076, 3,  -1.297,  8.906, -1.991
701651.31062, 3,   1.357,  9.885,  3.295, 4,  -0.105,  0.127, -0.027, 5,  -1.717,-41.803, -2.121
701651.33049, 3,   1.065, 10.392,  2.091
701651.35036, 3,   1.048, 11.481, -2.800
701651.37022, 3,   0.225,  9.188, -2.974, 4,   0.019,  0.233, -0.102, 5,  -4.068,-44.958, -2.635
701651.39009, 3,   1.615,  6.410, -3.860
701651.40996, 3,   1.163,  9.636, -7.226
701651.42982, 3,  -1.507, 14.812, -3.659, 4,  -0.043,  0.286, -0.257, 5,  -1.567,-44.016, -1.915
701651.44972, 3,   0.440,  5.559, -0.342
701651.46956, 3,   2.283, 10.615,  1.072
701651.48942, 3,   0.943,  8.727, -0.416, 4,  -0.099, -0.154, -0.365, 5,  -1.746,-43.843, -2.602
701651.50929, 3,  -1.737, 13.539, -4.989
701651.52916, 3,  -3.056,  7.992, -2.742
701651.54903, 3,  -1.206,  5.149,  3.127, 4,   0.039, -0.651, -0.266, 5,  -0.095,-45.418, -3.055
701651.56889, 3,   0.665, 15.438, -2.993
701651.58876, 3,  -1.239,  5.678,  3.312
701651.60863, 3,  -0.641, 11.486, -3.056, 4,   0.029, -0.481,  0.085, 5,  -1.358,-45.564, -1.224
701651.62849, 3,  -0.904,  9.119, -3.556
701651.64836, 3,   3.149, 13.833,  1.764
701651.66823, 3,   2.139,  4.152,  3.166, 4,   0.059,  0.272,  0.196, 5,  -2.768,-44.453, -4.608
701651.68809, 3,   0.148,  8.985, -2.445
701651.70796, 3,  -1.417,  5.439, -6.370
701651.72783, 3,  -1.732,  8.729, -2.244, 4,   0.118,  0.459, -0.063, 5,   1.085,-45.673, -0.916
701651.74773, 3,  -4.740, 13.304, -5.913
701651.76756, 3,  -2.771, 13.591, -0.316
701651.78743, 3,  -1.543,  7.059,  2.285, 4,  -0.199, -0.024, -0.001
701651.80730, 3,  -0.778, 10.847,  1.728
701651.82716, 3,  -2.352, 11.801, -4.838
701651.84703, 3,  -0.818,  3.934,  3.173, 4,  -0.063,  0.003,  0.093, 5,  -0.648,-44.458, -3.883
701651.86690, 3,  -1.567, 10.739, -3.635
701651.88676, 3,   2.134, 13.017, -0.242
701651.90663, 3,  -0.663, 10.902, -3.113, 4,   0.016,  0.322,  0.085
701651.92650, 3,  -0.402,  1.859, -0.330
701651.94636, 3,   2.517, 14.276, -0.512
701651.96623, 3,  -0.354,  4.266,  1.759, 4,  -0.043,  0.272, -0.073, 5,   0.587,-44.701, -3.792
701651.98610, 3,   0.960, 16.642,  6.312
701652.00597, 3,   4.101,  9.964,  8.236
701652.02586, 3,   3.984,  4.235,  7.241, 4,  -0.166,  0.054, -0.147, 5,  -0.522,-44.859, -5.040
701652.04570, 3,   1.644, 16.960, -1.474
701652.06557, 3,  -2.137,  9.102, -4.161
701652.08543, 3,  -3.948, 12.641, -4.575, 4,  -0.062, -0.221, -0.264, 5,  -0.722,-43.555, -4.875
701652.10530, 3,  -3.762,  8.217, -5.470
701652.12517, 3,  -0.029,  4.688, 14.218
701652.14503, 3,   0.940,  7.671,  1.417, 4,  -0.357, -0.807, -0.034, 5,  -1.323,-46.033, -6.129
701652.16490, 3,   3.848, 12.928, -0.376
701652.18477, 3,  -1.206, -2.127,  4.092
701652.20463, 3,  -4.068, 19.741, -8.258, 4,   0.334, -0.067,  0.097, 5,  -1.404,-44.170, -4.424
701652.22450, 3,   0.459,  8.538,  2.350
701652.24437, 3,   2.048, 16.350, 12.069
701652.26424, 3,   3.230, -1.618,  4.331, 4,  -0.079, -0.029,  0.131, 5,  -0.471,-45.897, -4.283
701652.28410, 3,   7.597, 14.374, -3.683
701652.30397, 3,   2.335,  2.067, -7.023
701652.32387, 3,   2.168, 22.390, -3.551, 4,   0.150, -0.367,  0.037
701652.34370, 3,   2.168,  2.596, 14.017
701652.36357, 3,   1.445, 17.556, -0.026
701652.38344, 3,   1.429,  6.602, -0.407, 4,  -0.179, -0.169, -0.054, 5,   0.377,-45.552, -4.459
701652.40330, 3,  -1.941,  3.826, -4.692
701652.42317, 3,  -1.752, 20.495,  0.388
701652.44304, 3,  -3.070,  7.274,  6.097, 4,  -0.147, -0.172, -0.044
701652.46291, 3,  -0.199, 13.673,  0.045
701652.48277, 3,   2.639,  3.639,  0.646
701652.50264, 3,  -0.481, 12.392, -3.041, 4,   0.067, -0.700,  0.035, 5,  -2.058,-45.235, -4.051
701652.52251, 3,  -0.316,  7.475,  3.156
701652.54237, 3,   1.031, 10.079,  3.501
701652.56224, 3,   1.472, 13.637, -4.611, 4,   0.226, -0.163,  0.142, 5,  -2.350,-44.040, -5.394
701652.58211, 3,  -1.713,  8.818,-15.783
701652.60200, 3,  -2.295,  3.206, -3.843
701652.62184, 3,   0.234, 23.902, -3.204, 4,   0.129, -0.680,  0.177, 5,  -1.563,-46.152, -4.128
701652.64171, 3,   5.829,  5.159,  9.729
701652.66157, 3,   3.477,  5.006,  0.804
701652.68144, 3,  -2.936,  8.140, -1.723, 4,   0.149, -0.375,  0.269, 5,  -4.089,-44.949, -2.853
701652.70131, 3,  -4.465, 16.307, -6.903
701652.72118, 3,  -1.170,  7.540, -3.139
701652.74104, 3,   1.479, 10.749,  1.089, 4,   0.192, -0.279,  0.358, 5,  -5.046,-45.688, -2.643
701652.76091, 3,   2.532,  7.576,  4.293
701652.78078, 3,   1.491, 10.459,  0.203
701652.80064, 3,   0.519, 12.883,  1.072, 4,   0.078,  0.348,  0.423
701652.82051, 3,   1.316, 10.775,  0.297
701652.84038, 3,   2.544, 10.069, -0.352
701652.86024, 3,   1.182,  8.198,  0.605, 4,   0.174,  0.531,  0.299, 5,  -6.754,-44.933, -1.282
701652.88011, 3,   2.000,  6.063,  1.373
701652.89998, 3,  -0.737, 17.312, -9.366
701652.91984, 3,   2.125,  8.016, -0.756, 4,   0.134,  0.555,  0.182, 5,  -6.358,-45.444, -1.031
701652.93971, 3,   0.488,  8.186, -2.773
701652.95958, 3,   2.757,  8.803,  1.651
701652.97945, 3,   0.160, 13.699, -1.498, 4,  -0.019,  0.417,  0.100
701652.99931, 3,   1.402,  6.638,  0.323
701653.01918, 3,   3.517,  8.109, -1.847
701653.03905, 3,   2.259, 12.577, -4.027, 4,   0.043,  0.288, -0.011, 5,  -5.157,-43.555, -0.966
701653.05891, 3,   1.486,  8.296, -0.067
701653.07878, 3,  -0.278,  5.693, -1.053
701653.09865, 3,  -2.802,  7.394, -3.592, 4,  -0.047,  0.069, -0.074, 5,  -8.028,-44.333, -2.705
701653.11851, 3,  -2.879,  2.000, -2.343
701653.13838, 3,   0.861, 17.649, -4.087
701653.15825, 3,  10.442, 29.850,  4.307, 4,  -0.280, -0.517,  0.104, 5,  -5.260,-44.847, -1.605
701653.17812, 3,   6.753,  4.317,  3.092
701653.19798, 3,   0.715,  2.690, -5.439
701653.21785, 3,   0.495,  5.609,  0.421, 4,  -0.040,  1.290, -0.096, 5,  -5.310,-44.981, -2.249
701653.23772, 3,   2.333, 10.473,  4.561
701653.25758, 3,   3.589, 11.833,  3.716
701653.27745, 3,  -1.383, 13.945, -6.229, 4,  -0.005,  0.695, -0.317, 5,  -3.387,-43.509, -2.644
701653.29732, 3,  -4.314, 12.656, -4.570
701653.31718, 3,  -2.893,  6.698, -0.983
701653.33705, 3,  -2.087,  5.819, -1.242, 4,   0.031,  0.169, -0.322
701653.35692, 3,  -2.843,  9.768, -0.881
701653.37678, 3,  -3.436, 16.824, -2.094
701653.39665, 3,   0.122,  9.241,  2.376, 4,  -0.092, -0.264, -0.095, 5,  -1.108,-45.575, -2.989
701653.41652, 3,   3.240,  7.356, -0.641
701653.43639, 3,   4.046,  7.985,  0.146
701653.45625, 3,   4.058, 10.595,  0.558, 4,   0.031,  0.022, -0.054, 5,  -1.129,-45.924, -4.042
701653.47612, 3,   1.878, 11.076, -0.883
701653.49599, 3,   1.847,  9.626,  2.039
701653.51585, 3,   1.783,  5.082,  0.452, 4,   0.180,  0.075, -0.225
701653.53572, 3,  -4.853, 18.190,-16.479
701653.55559, 3,  -2.618,  7.344,  1.802
701653.57545, 3,  -0.747,  3.120, -0.715, 4,   0.034, -0.986, -0.164, 5,  -1.472,-45.641, -2.637
701653.59532, 3,   0.708,  9.165,  0.110
701653.61519, 3,   2.768, 15.592, -0.404
701653.63505, 3,   3.838, 15.132,  0.158, 4,  -0.143, -1.405,  0.054
701653.65492, 3,   3.434,  6.465,  2.790
701653.67479, 3,  -0.012,  6.731, -1.180
701653.69466, 3,   0.404, 10.093, -3.427, 4,   0.068, -0.782,  0.021, 5,  -1.662,-45.148, -2.612
701653.71452, 3,   0.022, 12.773, -3.776
701653.73439, 3,   1.438, 10.545, -0.560
701653.75426, 3,   4.783,  8.423, -0.215, 4,  -0.036, -1.163,  0.082, 5,  -3.453,-46.361, -2.934
701653.77412, 3,   4.228,  9.188,  1.352
701653.79399, 3,   3.295, 11.227, -0.500
701653.81386, 3,   1.048, 12.280, -2.855, 4,   0.040, -0.391,  0.002, 5,  -2.898,-47.066, -1.389
701653.83372, 3,   0.519,  8.002, -0.644
701653.85359, 3,  -0.280,  7.796, -1.574
701653.87346, 3,  -1.933, 10.682, -2.445, 4,   0.015,  0.002, -0.083, 5,  -4.654,-47.729, -2.635
701653.89332, 3,  -0.945, 11.060, -0.569
701653.91319, 3,   0.404, 10.074,  1.496
701653.93306, 3,  -0.117,  9.904,  0.328, 4,  -0.068, -0.035, -0.064, 5,  -3.627,-47.511, -3.520
701653.95293, 3,  -0.849,  9.454, -2.993
701653.97279, 3,  -1.369,  8.734, -4.271
701653.99266, 3,  -1.474,  9.356, -3.943, 4,   0.035,  0.076, -0.071
701654.01253, 3,  -1.641, 12.505, -1.417
701654.03239, 3,   0.129,  9.435,  1.840
701654.05226, 3,   1.620,  8.818,  0.330, 4,  -0.046, -0.267, -0.009, 5,  -4.132,-46.825, -2.887
701654.07213, 3,  -0.158, 11.297, -6.233
701654.09199, 3,  -0.352, 10.007, -2.362
701654.11186, 3,  -1.115,  8.509, -1.302, 4,   0.073, -0.228, -0.042, 5,  -3.481,-47.655, -2.045
701654.13173, 3,   0.112,  8.437, -2.589
701654.15160, 3,  -0.440,  9.803, -2.740
701654.17146, 3,  -1.070, 10.375, -2.489, 4,   0.017,  0.079, -0.046
701654.19133, 3,  -0.703,  9.992, -0.325
701654.21120, 3,  -1.046,  9.351,  0.773
701654.23106, 3,  -0.890, 10.184, -3.654, 4,   0.005,  0.033, -0.040, 5,  -5.109,-47.115, -2.701
701654.25093, 3,  -0.313,  9.717, -3.706
701654.27080, 3,   0.273,  8.703, -1.610
701654.29066, 3,   0.160,  9.614, -1.452, 4,   0.003,  0.004, -0.019, 5,  -4.431,-46.901, -3.040
701654.31056, 3,   0.158, 10.150, -1.586
701654.33040, 3,   0.313,  9.933, -1.527
701654.35026, 3,   0.053,  9.677, -2.553, 4,   0.009,  0.139, -0.037, 5,  -2.782,-46.350, -3.375
701654.37013, 3,   0.426,  8.542, -1.101
701654.39000, 3,   0.156, 10.567, -4.544
701654.40987, 3,   0.323, 10.426, -1.393, 4,   0.002,  0.223, -0.077, 5,  -2.632,-47.054, -3.195
701654.42973, 3,  -0.682, 10.670,  0.234
701654.44960, 3,  -1.558,  8.313,  3.551
701654.46947, 3,  -1.098, 10.775, -4.147, 4,   0.018,  0.470, -0.128, 5,  -3.130,-47.440, -4.471
701654.48933, 3,  -0.026,  9.691, -4.166
701654.50920, 3,  -0.270,  8.499, -2.826
701654.52907, 3,   0.184,  7.482, -1.529, 4,   0.016,  0.698, -0.148
701654.54893, 3,  -0.409,  9.626, -2.929
701654.56880, 3,  -2.716, 12.392, -0.689
701654.58867, 3,  -3.809, 12.110,  2.338, 4,  -0.055,  1.083, -0.204, 5,  -0.832,-48.395, -3.476
701654.60853, 3,  -3.271, 10.105,  0.821
701654.62840, 3,  -1.773,  9.076, -2.024
701654.64827, 3,  -1.893,  8.176, -1.883, 4,   0.031,  0.129, -0.127, 5,   0.064,-48.410, -4.803
701654.66814, 3,  -2.663,  9.827, -2.735
701654.68800, 3,  -3.374,  9.626,  1.596
701654.70787, 3,  -3.843, 12.079, -2.795, 4,  -0.015, -0.182, -0.002
701654.72774, 3,  -1.249, 13.170, -7.767
701654.74760, 3,  -2.218,  7.236,  6.047
701654.76747, 3,  -0.089,  8.731,  3.733, 4,  -0.070, -0.490,  0.154, 5,  -0.940,-47.720, -4.643
701654.78734, 3,   1.814, 10.782, -3.675
701654.80720, 3,   3.266, 11.931, -6.985
701654.82707, 3,   2.082,  8.808,  2.144, 4,   0.020, -0.309,  0.170, 5,  -2.261,-48.367, -2.838
701654.84694, 3,   1.539,  8.820,  2.491
701654.86681, 3,   0.565, 11.215, -3.278
701654.88667, 3,   1.046, 10.624, -1.936, 4,   0.011,  0.216,  0.038, 5,  -2.818,-47.769, -3.447
701654.90654, 3,  -0.010,  9.569,  2.051
701654.92641, 3,  -0.120,  9.988,  1.326
701654.94627, 3,   0.491, 10.916, -2.443, 4,  -0.035, -0.105, -0.012, 5,  -1.898,-48.026, -3.764
701654.96614, 3,  -0.177,  9.846, -0.526
701654.98601, 3,  -0.120,  9.789,  0.397
701655.00587, 3,   0.029, 10.368, -1.036, 4,  -0.035, -0.305, -0.024, 5,  -2.824,-47.992, -4.105
701655.02574, 3,   0.249, 10.174, -0.933
701655.04561, 3,  -0.057, 10.038, -0.756
701655.06547, 3,  -0.340,  9.684,  0.536, 4,  -0.026, -0.154, -0.039
701655.08534, 3,  -0.385, 10.442, -0.718
701655.10521, 3,  -0.306, 10.141, -0.534
701655.12508, 3,  -0.651, 10.126, -0.538, 4,  -0.018, -0.094, -0.046, 5,  -1.517,-49.025, -5.672
701655.14494, 3,  -0.921,  9.992, -0.495
701655.16481, 3,  -0.928,  9.672, -1.764
701655.18468, 3,  -1.429,  9.456, -4.087, 4,   0.004, -0.054, -0.036
701655.20454, 3,  -1.967,  9.444, -3.324
701655.22441, 3,  -2.065,  9.796, -1.134
701655.24428, 3,  -1.072,  9.851, -1.472, 4,  -0.011,  0.016,  0.001, 5,  -2.129,-49.117, -4.413
701655.26414, 3,  -0.553,  9.777, -2.378
701655.28401, 3,  -0.577,  9.569, -2.280
701655.30388, 3,  -1.206,  9.660, -2.350, 4,   0.008, -0.026,  0.031, 5,  -2.161,-48.070, -5.009
701655.32374, 3,  -1.328,  9.770, -2.177
701655.34361, 3,  -0.907,  9.660, -2.290
701655.36348, 3,  -0.455,  9.689, -2.460, 4,   0.006, -0.015,  0.045, 5,  -0.870,-49.858, -2.644
701655.38335, 3,  -0.574,  9.703, -2.043
701655.40321, 3,  -0.773,  9.681, -2.139
701655.42308, 3,  -0.766,  9.717, -2.455, 4,   0.010,  0.022,  0.052, 5,  -1.022,-49.153, -3.186
701655.44295, 3,  -0.837,  9.681, -2.268
701655.46281, 3,  -0.835,  9.696, -2.139
701655.48268, 3,  -0.687,  9.732, -2.216, 4,   0.011,  0.012,  0.057, 5,  -2.139,-48.764, -3.357
701655.50255, 3,  -0.629,  9.722, -2.321
701655.52241, 3,  -0.529,  9.636, -2.328
701655.54227, 3,  -0.431,  9.679, -2.256, 4,   0.014,  0.043,  0.061, 5,  -1.254,-48.595, -3.809
701655.56214, 3,  -0.366,  9.703, -2.424
701655.58200, 3,  -0.273,  9.641, -2.443
701655.60187, 3,  -0.304,  9.636, -2.299, 4,   0.011,  0.017,  0.055, 5,  -2.205,-48.509, -2.792
701655.62174, 3,  -0.261,  9.717, -2.280
701655.64160, 3,  -0.172,  9.703, -2.343
701655.66147, 3,  -0.201,  9.667, -2.395, 4,   0.008,  0.009,  0.039, 5,  -2.385,-48.470, -4.575
701655.68073, 3,  -0.371,  9.665, -2.383
701655.70120, 3,  -0.440,  9.703, -2.383
701655.72107, 3,  -0.447,  9.698, -2.362, 4,   0.005,  0.002,  0.025
701655.74094, 3,  -0.483,  9.660, -2.295
701655.76081, 3,  -0.636,  9.686, -2.242
701655.78067, 3,  -0.622,  9.701, -2.307, 4,   0.004,  0.005,  0.024, 5,  -2.989,-49.748, -4.376
701655.80054, 3,  -0.653,  9.686, -2.390
701655.82041, 3,  -0.672,  9.662, -2.297
701655.84027, 3,  -0.601,  9.701, -2.213, 4,   0.005,  0.017,  0.031, 5,  -3.969,-50.554, -5.348
701655.86014, 3,  -0.529,  9.696, -2.280
701655.88001, 3,  -0.491,  9.672, -2.587
701655.89987, 3,  -0.562,  9.674, -2.390, 4,   0.007,  0.033,  0.036
701655.91974, 3,  -0.340,  9.672, -2.189
701655.93961, 3,  -0.225,  9.631, -2.721
701655.95947, 3,  -0.081,  9.626, -2.601, 4,   0.007,  0.031,  0.035, 5,  -3.345,-47.903, -3.926
701655.97934, 3,  -0.261,  9.693, -2.237
701655.99921, 3,  -0.179,  9.722, -2.254
701656.01908, 3,  -0.148,  9.693, -2.486, 4,   0.006,  0.019,  0.020, 5,  -2.602,-48.253, -4.108
701656.03894, 3,   0.577,  9.684, -2.548
701656.05881, 3,  -0.294,  9.626, -1.933
