705074.14694, 3,   0.380,  9.830, -1.804, 5,  21.964,-45.821, 28.633
705074.16681, 3,   0.380,  9.830, -1.804, 4,  -0.006, -0.020, -0.037, 5,  21.944,-46.529, 26.457
705074.18671, 3,   0.476,  9.768, -2.020, 4,  -0.006, -0.020, -0.037, 5,  21.277,-46.544, 26.456
705074.20657, 3,   0.615,  9.734, -2.084, 4,  -0.006, -0.020, -0.037, 5,  25.922,-47.865, 29.372
705074.22644, 3,   0.555,  9.760, -2.084, 4,  -0.011, -0.048, -0.003, 5,  25.972,-45.728, 30.818
705074.24631, 3,   0.412,  9.744, -2.003, 4,  -0.011, -0.037, -0.010, 5,  27.927,-47.823, 32.281
705074.26617, 3,   0.431,  9.763, -2.077, 4,  -0.010, -0.013, -0.016, 5,  27.960,-46.399, 33.003
705074.28601, 3,   0.471,  9.770, -2.142, 4,  -0.010, -0.005, -0.021, 5,  23.999,-44.347, 29.359
705074.30588, 3,   0.467,  9.760, -2.070, 4,  -0.013, -0.013, -0.024, 5,  26.688,-43.568, 29.362
705074.32574, 3,   0.488,  9.753, -2.108, 4,  -0.017, -0.014, -0.029, 5,  23.982,-45.059, 28.635
705074.34561, 3,   0.562,  9.729, -2.139, 4,  -0.020, -0.019, -0.032, 5,  24.635,-45.758, 30.092
705074.36548, 3,   0.581,  9.729, -2.132, 4,  -0.023, -0.032, -0.038, 5,  24.619,-46.471, 29.366
705074.38535, 3,   0.529,  9.739, -2.101, 4,  -0.026, -0.040, -0.046, 5,  23.332,-44.362, 29.359
705074.40521, 3,   0.325,  9.748, -2.067, 4,  -0.029, -0.035, -0.052, 5,  24.617,-46.469, 28.639
705074.42508, 3,   1.182,  9.598, -2.914, 4,  -0.031, -0.029, -0.059, 5,  24.617,-46.469, 28.639
705074.44495, 3,   0.017,  9.667, -1.297, 4,  -0.035, -0.010, -0.065, 5,  25.304,-45.743, 30.093
705074.46484, 3,  -0.201,  9.684, -1.424, 4,  -0.051,  0.084, -0.070, 5,  23.984,-45.062, 30.089
705074.48468, 3,   0.790,  9.779, -3.192, 4,  -0.043,  0.041, -0.075, 5,  24.617,-46.469, 28.639
705074.50455, 3,   0.404,  9.588, -2.316, 4,  -0.031, -0.038, -0.074, 5,  24.652,-45.044, 29.362
705074.52441, 3,  -0.416,  9.839, -0.385, 4,  -0.046, -0.019, -0.084, 5,  25.952,-46.437, 28.641
705074.54428, 3,   0.074,  9.957, -2.024, 4,  -0.054,  0.007, -0.091, 5,  24.632,-45.753, 27.913
705074.56415, 3,   0.249,  9.559, -3.661, 4,  -0.029, -0.184, -0.087, 5,  24.602,-47.182, 28.642
705074.58402, 3,   0.239,  9.567, -2.201, 4,  -0.022, -0.259, -0.097, 5,  25.304,-45.741, 29.366
705074.60388, 3,   0.132,  9.808, -0.790, 4,  -0.050, -0.087, -0.097, 5,  25.970,-45.726, 30.093
705074.62375, 3,  -0.074, 10.016, -1.572, 4,  -0.059,  0.008, -0.091, 5,  25.986,-45.010, 28.638
705074.64362, 3,  -0.383,  9.753, -2.221, 4,  -0.032, -0.033, -0.101, 5,  24.635,-45.757, 29.364
705074.66348, 3,  -0.802,  9.593, -1.732, 4,  -0.017, -0.041, -0.108, 5,  27.336,-44.264, 28.639
705074.68332, 3,  -1.486,  9.770, -1.027, 4,  -0.020,  0.035, -0.098, 5,  26.656,-44.997, 30.093
705074.70319, 3,  -1.517, 10.004, -0.907, 4,  -0.020,  0.108, -0.079, 5,  25.969,-45.723, 28.639
705074.72305, 3,  -1.263,  9.935, -1.314, 4,  -0.008,  0.099, -0.057, 5,  25.349,-43.599, 27.910
705074.74295, 3,  -0.610,  9.538, -2.175, 4,   0.006,  0.044, -0.030, 5,  26.036,-42.871, 29.359
705074.76282, 3,  -1.019,  9.502, -2.237, 4,   0.015,  0.062, -0.004, 5,  25.333,-44.312, 27.911
705074.78268, 3,  -1.862, 10.244, -0.553, 4,   0.007,  0.141,  0.006, 5,  25.337,-44.318, 30.815
705074.80255, 3,  -0.689, 10.012, -1.043, 4,  -0.006,  0.102,  0.034, 5,  24.635,-45.757, 29.364
705074.82242, 3,  -0.632,  9.571, -1.979, 4,   0.010, -0.075,  0.078, 5,  25.334,-44.313, 28.636
705074.84229, 3,  -0.763,  9.672, -2.558, 4,   0.033, -0.181,  0.085, 5,  25.317,-45.023, 27.185
705074.86215, 3,  -0.421,  9.732, -2.498, 4,   0.040, -0.130,  0.085, 5,  23.981,-45.058, 27.910
705074.88199, 3,   0.079,  9.727, -2.134, 4,   0.034, -0.014,  0.106, 5,  25.987,-45.013, 30.092
705074.90186, 3,  -0.153,  9.727, -1.445, 4,   0.029,  0.035,  0.120, 5,  25.336,-44.315, 29.362
705074.92172, 3,   0.306,  9.851, -2.015, 4,   0.031,  0.053,  0.112, 5,  25.987,-45.012, 29.364
705074.94159, 3,   0.790,  9.624, -2.797, 4,   0.054,  0.014,  0.104, 5,  25.302,-45.740, 28.639
705074.96146, 3,   1.144,  9.531, -3.249, 4,   0.075, -0.022,  0.102, 5,  25.333,-44.312, 27.911
705074.98132, 3,   0.821,  9.607, -3.041, 4,   0.072, -0.020,  0.091, 5,  24.667,-44.331, 30.089
705075.00119, 3,   0.258,  9.839, -2.520, 4,   0.054, -0.022,  0.072, 5,  24.635,-45.757, 29.364
705075.02106, 3,  -0.385,  9.449, -1.883, 4,   0.042, -0.004,  0.056, 5,  25.336,-44.315, 29.362
705075.04095, 3,   0.072,  9.655, -2.512, 4,   0.037, -0.011,  0.054, 5,  23.967,-45.773, 29.362
705075.06082, 3,   0.194,  9.823, -2.852, 4,   0.046, -0.090,  0.054, 5,  25.304,-45.741, 29.366
705075.08066, 3,   0.263,  9.478, -2.213, 4,   0.050, -0.156,  0.050, 5,  25.970,-45.724, 29.366
705075.10052, 3,   0.244,  9.691, -2.266, 4,   0.045, -0.147,  0.042, 5,  25.304,-45.743, 30.093
705075.12039, 3,  -0.012,  9.677, -3.151, 4,   0.055, -0.116,  0.041, 5,  24.652,-45.044, 29.362
705075.14026, 3,   0.156,  9.526, -3.513, 4,   0.066, -0.113,  0.036, 5,  24.652,-45.044, 29.362
705075.16013, 3,   0.053,  9.811, -3.005, 4,   0.053, -0.114,  0.032, 5,  25.368,-42.886, 28.633
705075.17999, 3,   0.361,  9.717, -2.453, 4,   0.027, -0.064,  0.032, 5,  23.982,-45.059, 28.635
705075.19986, 3,   0.737,  9.689, -1.783, 4,   0.007, -0.059,  0.034, 5,  24.664,-44.327, 27.910
705075.21973, 3,   0.644,  9.456, -2.871, 4,   0.001, -0.121,  0.026, 5,  23.314,-45.070, 27.182
705075.23959, 3,   0.366,  9.526, -3.900, 4,   0.029, -0.222,  0.007, 5,  24.664,-44.324, 27.182
705075.25946, 3,   0.153,  9.610, -2.517, 4,   0.035, -0.234,  0.001, 5,  25.366,-42.885, 27.908
705075.27930, 3,  -0.294,  9.514, -2.276, 4,   0.026, -0.202, -0.001, 5,  25.351,-43.600, 28.635
705075.29916, 3,   0.050,  9.418, -2.601, 4,   0.022, -0.234,  0.001, 5,  25.984,-45.006, 27.185
705075.31906, 3,   0.182,  9.569, -3.594, 4,   0.039, -0.322, -0.003, 5,  26.013,-43.576, 25.729
705075.33893, 3,   0.060,  9.308, -2.790, 4,   0.051, -0.364, -0.008, 5,  25.316,-45.021, 26.460
705075.35880, 3,  -0.256,  9.509, -2.477, 4,   0.050, -0.389, -0.005, 5,  25.981,-45.003, 25.732
705075.37866, 3,  -0.682,  9.703, -2.467, 4,   0.049, -0.437, -0.001, 5,  25.946,-46.428, 25.011
705075.39853, 3,  -0.464,  9.313, -2.596, 4,   0.053, -0.510, -0.002, 5,  24.628,-45.746, 25.008
705075.41840, 3,  -0.309,  9.669, -2.869, 4,   0.060, -0.569,  0.017, 5,  27.332,-44.257, 25.734
705075.43826, 3,   0.352,  9.748, -2.096, 4,   0.070, -0.614,  0.019, 5,  25.996,-44.289, 25.731
705075.45813, 3,   0.670,  8.796, -1.725, 4,   0.068, -0.645,  0.024, 5,  27.332,-44.257, 25.734
705075.47797, 3,  -1.972, 10.880, -5.209, 4,   0.079, -0.647,  0.031, 5,  25.946,-46.428, 25.011
705075.49783, 3,  -1.189,  9.846, -2.556, 4,   0.126, -0.627,  0.023, 5,  26.012,-43.573, 24.278
705075.51770, 3,  -0.146,  8.987, -1.644, 4,   0.090, -0.722,  0.050, 5,  27.296,-45.679, 23.558
705075.53757, 3,   1.137,  9.590, -2.144, 4,   0.051, -0.831,  0.087, 5,  26.663,-44.270, 25.008
705075.55743, 3,   0.354, 10.232, -5.300, 4,   0.067, -0.842,  0.090, 5,  28.014,-43.526, 25.009
705075.57730, 3,   2.414, 10.665, -3.659, 4,   0.090, -0.669,  0.078, 5,  26.648,-44.984, 25.009
705075.59717, 3,   3.917,  6.525, -0.665, 4,   0.061, -0.538,  0.068, 5,  28.633,-45.647, 24.287
705075.61707, 3,   0.371, 11.270, -6.834, 4,   0.026, -0.416,  0.051
705075.63693, 3,  -0.026, 11.385, -3.362, 4,   0.093, -0.263, -0.020, 5,  29.330,-44.202, 22.833
705075.65680, 3,  -0.010,  8.889, -1.412, 4,   0.056, -0.371, -0.034, 5,  28.682,-43.509, 25.009
705075.67667, 3,  -0.677,  8.514, -2.713, 4,  -0.004, -0.419, -0.038, 5,  29.982,-44.896, 22.108
705075.69650, 3,  -1.665,  9.746, -3.762, 4,   0.021, -0.449, -0.063, 5,  29.318,-44.919, 24.287
705075.71637, 3,  -1.426, 10.019, -3.431, 4,   0.044, -0.550, -0.058, 5,  30.000,-44.188, 24.287
705075.73624, 3,   0.385,  9.184, -2.115, 4,   0.032, -0.670, -0.015, 5,  29.997,-44.182, 22.107
705075.75610, 3,   0.285,  9.320, -0.689, 4,   0.035, -0.771,  0.007, 5,  29.996,-44.180, 21.382
705075.77597, 3,  -2.503,  9.435, -3.398, 4,   0.068, -0.832, -0.010, 5,  29.997,-44.185, 22.835
705075.79584, 3,  -2.211,  9.784, -3.817, 4,   0.149, -0.880, -0.025, 5,  31.302,-45.576, 22.112
705075.81570, 3,  -2.713,  7.695, -1.295, 4,   0.199, -0.891,  0.004, 5,  31.380,-42.006, 19.923
705075.83557, 3,  -3.718,  9.172, -4.745, 4,   0.186, -0.881,  0.057, 5,  31.334,-44.150, 22.108
705075.85544, 3,  -3.144, 10.225, -3.151, 4,   0.210, -1.056,  0.079, 5,  30.663,-44.164, 20.656
705075.87531, 3,  -0.739,  9.521, -2.508, 4,   0.181, -1.185,  0.169, 5,  31.348,-43.434, 20.656
705075.89517, 3,   1.251,  8.540, -3.223, 4,   0.164, -1.102,  0.271, 5,  32.030,-42.700, 19.203
705075.91504, 3,   2.096,  9.873, -4.647, 4,   0.192, -0.904,  0.304, 5,  32.011,-43.413, 18.477
705075.93491, 3,   2.534,  8.246, -4.477, 4,   0.224, -0.630,  0.250, 5,  29.993,-44.176, 19.203
705075.95477, 3,   1.644,  9.377, -3.857, 4,   0.239, -0.248,  0.205, 5,  29.359,-42.766, 19.199
705075.97464, 3,  -1.223, 11.320, -5.133, 4,   0.275,  0.274,  0.167, 5,  29.312,-44.910, 20.656
705075.99451, 3,  -1.534, 10.646, -5.858, 4,   0.294,  0.657,  0.139, 5,  28.674,-43.495, 19.199
705076.01437, 3,  -0.436,  8.183, -3.974, 4,   0.226,  0.658,  0.104, 5,  27.322,-44.241, 19.199
705076.03424, 3,  -0.045, 10.138, -4.166, 4,   0.095,  0.437,  0.128, 5,  26.674,-43.546, 19.920
705076.05411, 3,  -0.333, 10.349, -3.328, 4,   0.007,  0.144,  0.147, 5,  26.006,-43.562, 19.919
705076.07397, 3,  -0.991, 10.648, -2.089, 4,  -0.040, -0.008,  0.161, 5,  27.373,-42.105, 20.645
705076.09381, 3,  -1.730,  8.495, -0.340, 4,  -0.040, -0.004,  0.153, 5,  26.004,-43.561, 19.194
705076.11368, 3,  -2.902,  8.413, -1.933, 4,  -0.010, -0.066,  0.141, 5,  25.320,-44.290, 19.196
705076.13354, 3,  -2.137,  9.327, -4.348, 4,   0.078, -0.277,  0.137, 5,  26.671,-43.542, 18.468
705076.15341, 3,  -1.613, 10.203, -6.520, 4,   0.144, -0.495,  0.185, 5,  25.354,-42.863, 19.193
705076.17331, 3,   0.043,  8.990, -4.757, 4,   0.122, -0.583,  0.232, 5,  27.339,-43.529, 19.197
705076.19318, 3,   2.704,  9.490, -4.051, 4,   0.038, -0.604,  0.280, 5,  26.640,-44.971, 19.199
705076.21304, 3,   5.396, 10.280, -4.053, 4,  -0.018, -0.649,  0.301, 5,  25.989,-44.275, 19.920
705076.23291, 3,   4.967, 10.019, -4.678, 4,   0.004, -0.656,  0.265, 5,  24.684,-42.877, 18.463
705076.25278, 3,   1.536,  9.459, -3.077, 4,   0.049, -0.566,  0.167, 5,  26.701,-42.111, 17.012
705076.27264, 3,  -1.369, 10.150, -3.845, 4,   0.068, -0.449,  0.062, 5,  26.640,-44.971, 19.199
705076.29248, 3,  -0.474,  9.069, -2.496, 4,   0.061, -0.412,  0.032, 5,  27.957,-45.651, 19.203
705076.31235, 3,   0.747,  7.090, -1.113, 4,   0.031, -0.511,  0.079, 5,  27.954,-45.645, 17.024
705076.33221, 3,  -0.033,  7.808, -2.127, 4,  -0.008, -0.656,  0.129, 5,  27.319,-44.238, 17.746
705076.35208, 3,   0.524,  9.832, -3.685, 4,   0.002, -0.705,  0.130, 5,  27.335,-43.521, 16.292
705076.37195, 3,   1.038, 10.667, -4.266, 4,  -0.005, -0.669,  0.136, 5,  27.353,-42.809, 17.017
705076.39120, 3,   2.357, 10.672, -3.017, 4,  -0.046, -0.603,  0.152, 5,  25.934,-46.407, 16.295
705076.41168, 3,   1.900,  9.334, -2.235, 4,  -0.084, -0.448,  0.153, 5,  28.001,-43.504, 16.293
705076.43155, 3,   0.634,  7.138, -1.792, 4,  -0.088, -0.212,  0.133, 5,  27.350,-42.805, 15.564
705076.45142, 3,  -1.720,  8.351, -4.018, 4,  -0.051, -0.066,  0.093, 5,  27.969,-44.931, 16.296
705076.47131, 3,  -1.723, 11.273, -6.229, 4,  -0.006,  0.009,  0.050, 5,  27.971,-44.933, 17.023
705076.49118, 3,   0.072, 12.012, -4.872, 4,   0.005,  0.069,  0.050, 5,  26.653,-44.250, 17.018
705076.51102, 3,   2.395,  8.250, -1.826, 4,  -0.057,  0.015,  0.090, 5,  25.981,-44.264, 15.564
705076.53088, 3,   2.352,  6.621, -3.350, 4,  -0.114, -0.035,  0.095, 5,  26.686,-42.824, 17.015
705076.55075, 3,  -0.156,  7.573, -1.019, 4,  -0.074, -0.002,  0.050, 5,  27.286,-45.660, 16.296
705076.57062, 3,  -3.960,  8.052, -1.924, 4,   0.007,  0.018, -0.014, 5,  27.286,-45.660, 16.296
705076.59048, 3,  -3.714, 13.405, -7.281, 4,   0.037, -0.066, -0.016, 5,  27.286,-45.660, 16.296
705076.61035, 3,  -0.203,  9.504, -4.135, 4,   0.121, -0.235, -0.013, 5,  28.036,-42.084, 18.466
705076.63022, 3,   3.797,  7.719, -2.017, 4,   0.015, -0.198,  0.113, 5,  26.636,-44.963, 16.293
705076.65009, 3,   2.869,  7.705, -2.041, 4,  -0.037, -0.109,  0.140, 5,  27.318,-44.234, 16.293
705076.66995, 3,  -1.414, 10.253, -1.890, 4,   0.011,  0.086,  0.085, 5,  27.333,-43.520, 15.565
705076.68982, 3,  -2.764, 13.687, -4.757, 4,   0.120,  0.210,  0.008, 5,  25.969,-44.981, 17.018
705076.70966, 3,  -2.051, 10.873, -5.944, 4,   0.189,  0.086,  0.023, 5,  25.949,-45.691, 15.567
705076.72952, 3,  -0.316,  8.246, -3.230, 4,   0.128, -0.257,  0.046, 5,  25.949,-45.691, 15.567
705076.74942, 3,   1.082,  8.425, -1.108, 4,  -0.018, -0.448,  0.090, 5,  25.983,-44.266, 16.290
705076.76929, 3,  -1.364, 10.165, -1.072, 4,  -0.082, -0.483,  0.125, 5,  24.631,-45.009, 14.836
705076.78915, 3,  -2.491, 10.952, -0.847, 4,  -0.031, -0.369,  0.130, 5,  25.296,-44.991, 13.387
705076.80902, 3,  -1.201,  9.866, -3.094, 4,   0.044, -0.273,  0.151, 5,  23.991,-43.594, 12.654
705076.82889, 3,  -0.455, 10.299, -4.175, 4,   0.070, -0.318,  0.172, 5,  25.345,-42.850, 13.382
705076.84875, 3,   1.007,  8.700, -4.936, 4,   0.062, -0.321,  0.192, 5,  23.309,-44.325, 14.108
705076.86862, 3,   1.651,  9.815, -2.661, 4,  -0.017, -0.165,  0.239, 5,  23.991,-43.596, 13.380
705076.88849, 3,   0.792,  8.490, -2.319, 4,  -0.041,  0.150,  0.240, 5,  23.991,-43.596, 13.380
705076.90833, 3,   0.567, 10.370, -2.051, 4,  -0.044,  0.520,  0.207, 5,  22.655,-43.623, 11.926
705076.92819, 3,  -0.246,  9.875, -3.297, 4,   0.010,  0.784,  0.152, 5,  22.641,-44.342, 14.107
705076.94806, 3,  -0.617, 10.069, -2.445, 4,   0.021,  0.861,  0.122, 5,  21.957,-45.071, 13.380
705076.96793, 3,   0.175,  8.258, -2.742, 4,   0.039,  0.856,  0.103, 5,  21.371,-41.519, 13.370
705076.98779, 3,  -0.514,  9.220, -3.484, 4,   0.035,  0.739,  0.131, 5,  21.957,-45.071, 13.380
705077.00766, 3,  -0.395, 10.483, -4.664, 4,   0.060,  0.620,  0.107, 5,  20.656,-43.678, 14.102
705077.02753, 3,   0.766,  8.638, -3.549, 4,   0.082,  0.394,  0.075, 5,  19.989,-43.698, 15.553
705077.04742, 3,   0.895,  3.391, -5.721, 4,   0.073,  0.172,  0.092, 5,  20.641,-44.392, 14.828
705077.06729, 3,  -2.022,  5.494,-12.144, 4,   0.109,  0.073,  0.082, 5,  19.989,-43.698, 15.553
705077.08716, 3,  -3.446, 14.572, -9.645, 4,   0.133,  0.097,  0.031, 5,  21.309,-44.377, 15.556
705077.10703, 3,   2.706, 13.505, -0.706, 4,  -0.052,  0.015,  0.058, 5,  20.641,-44.394, 15.556
705077.12686, 3,   3.159,  9.480,  3.769, 4,  -0.370, -0.252,  0.169, 5,  20.641,-44.394, 15.556
705077.14673, 3,   3.807, 11.828,  2.907, 4,  -0.359, -0.233,  0.202, 5,  20.593,-46.536, 16.287
705077.16660, 3,   1.474,  9.803, -1.065, 4,  -0.139, -0.035,  0.104, 5,  21.260,-46.516, 14.833
705077.18646, 3,  -0.079,  8.724, -3.479, 4,   0.029,  0.055,  0.035, 5,  19.975,-44.414, 17.007
705077.20633, 3,  -0.134,  7.126, -4.099, 4,   0.094, -0.025,  0.030, 5,  21.944,-45.789, 15.561
705077.22620, 3,   1.895,  6.023, -3.106, 4,  -0.008, -0.333,  0.065, 5,  20.625,-45.108, 15.558
705077.24606, 3,   1.393,  9.830, -5.929, 4,  -0.120, -0.637,  0.078, 5,  21.962,-45.078, 16.286
705077.26593, 3,   1.780, 12.179,  0.414, 4,  -0.145, -0.573,  0.079, 5,  21.277,-45.804, 15.559
705077.28580, 3,   2.407, 10.847, -0.089, 4,  -0.177, -0.341,  0.103, 5,  20.576,-47.247, 15.564
705077.30566, 3,   1.062,  8.583, -2.457, 4,  -0.148, -0.244,  0.096, 5,  21.959,-45.073, 14.107
705077.32553, 3,  -0.553,  7.796, -3.843, 4,  -0.029, -0.171,  0.029, 5,  20.607,-45.818, 14.107
705077.34540, 3,  -0.390,  9.229, -6.133, 4,   0.018, -0.137,  0.013, 5,  19.939,-45.834, 14.105
705077.36526, 3,   0.349, 11.294, -4.376, 4,   0.007, -0.153,  0.052, 5,  22.609,-45.769, 14.110
705077.38513, 3,   1.551,  8.640, -2.338, 4,  -0.020, -0.153,  0.056, 5,  21.925,-46.500, 14.110
705077.40500, 3,  -0.091, 10.131, -7.320, 4,  -0.074, -0.167,  0.046, 5,  23.882,-48.595, 16.298
705077.42487, 3,   4.829,  6.702, -3.888, 4,  -0.032, -0.226,  0.045, 5,  24.568,-47.867, 17.024
705077.44473, 3,   5.341,  8.353, -9.059, 4,  -0.083, -0.226,  0.061, 5,  25.903,-47.835, 17.026
705077.46460, 3,   3.041, 10.586, -3.084, 4,  -0.101,  0.011, -0.002, 5,  19.940,-45.836, 14.830
705077.48447, 3,   2.718,  7.906, -2.524, 4,  -0.116,  0.408, -0.101, 5,  21.277,-45.802, 14.832
705077.50433, 3,   0.981,  8.763, -1.574, 4,  -0.172,  0.580, -0.172, 5,  21.959,-45.073, 14.107
705077.52417, 3,   0.675,  6.908, -1.096, 4,  -0.057,  0.801, -0.249, 5,  23.262,-46.468, 14.838
705077.54404, 3,  -1.137,  9.016,  1.567, 4,   0.006,  0.993, -0.306, 5,  20.609,-45.821, 15.559
705077.56390, 3,  -1.591, 16.755,  3.561, 4,   0.065,  0.943, -0.321, 5,  23.279,-45.753, 14.836
705077.58377, 3,  -3.180,  9.887,  3.173, 4,   0.020,  0.459, -0.301, 5,  23.944,-45.737, 14.111
705077.60367, 3,  -4.154, 11.871, -6.343, 4,   0.044, -0.109, -0.308, 5,  23.976,-44.310, 14.108
705077.62354, 3,  -6.611,  7.927,-10.189, 4,   0.408, -0.622, -0.285, 5,  22.008,-42.932, 14.102
705077.64340, 3,  -4.668,  6.573,-11.773, 4,   0.384, -1.170, -0.159, 5,  24.608,-45.712, 11.206
705077.66327, 3,   3.053, 11.794,-10.136, 4,   0.056, -1.690, -0.003, 5,  21.953,-45.062,  9.749
705077.68314, 3,   6.264,  8.710, -2.835, 4,  -0.259, -1.766,  0.177, 5,  20.650,-43.668,  9.744
705077.70300, 3,   6.171,  6.877,  3.632, 4,  -0.423, -1.249,  0.271, 5,  20.651,-43.669, 10.471
705077.72284, 3,   4.312,  9.380, -0.115, 4,  -0.280, -0.473,  0.221, 5,  20.618,-45.094,  9.747
705077.74271, 3,   1.175,  7.942, -3.087, 4,   0.053,  0.232,  0.045, 5,  20.601,-45.807,  9.749
705077.76257, 3,  -7.260, 10.435,-10.916, 4,   0.321,  0.707, -0.128, 5,  20.671,-42.961, 12.648
705077.78244, 3,  -5.614,  5.905, -4.735, 4,   0.430,  0.796, -0.175, 5,  19.917,-46.539, 10.475
705077.80231, 3,  -1.682,  8.973, -1.795, 4,   0.199,  0.455, -0.038, 5,  21.291,-45.085, 12.653
705077.82217, 3,  -1.560, 11.773, -0.799, 4,  -0.024,  0.069,  0.063, 5,  21.254,-46.507, 11.201
705077.84204, 3,   0.270,  9.172,  1.876, 4,  -0.012,  0.090,  0.069, 5,  21.309,-44.376, 14.828
705077.86191, 3,  -0.287,  8.975, -4.070, 4,   0.116,  0.240,  0.101, 5,  21.941,-45.782, 12.656
705077.88177, 3,   0.534, 10.394, -9.849, 4,   0.283,  0.282,  0.100, 5,  20.622,-45.103, 13.379
705077.90167, 3,   3.106,  8.770, -4.357, 4,   0.296,  0.243,  0.041, 5,  21.291,-45.085, 12.653
705077.92154, 3,   3.819,  8.289, -0.459, 4,   0.050,  0.046,  0.037, 5,  21.960,-45.074, 14.832
705077.94138, 3,   2.558,  9.320, -3.080, 4,  -0.062, -0.101,  0.037, 5,  20.641,-44.392, 14.828
705077.96124, 3,  -1.074, 10.148, -9.306, 4,   0.034, -0.127,  0.002, 5,  19.940,-45.837, 15.558
705077.98111, 3,   4.357,  7.289,-10.641, 4,   0.144, -0.269, -0.027, 5,  19.940,-45.836, 14.830
705078.00098, 3,   5.482,  6.796, -4.776, 4,   0.051, -0.394, -0.036, 5,  21.974,-44.359, 14.105
705078.02084, 3,   1.728,  8.104, -0.967, 4,  -0.117, -0.042, -0.073, 5,  21.257,-46.513, 13.382
705078.04071, 3,  -1.862, 11.325, -2.852, 4,  -0.116,  0.585, -0.109, 5,  21.924,-46.497, 12.657
705078.06058, 3,   0.845, 10.995, -3.726, 4,   0.023,  0.943, -0.170, 5,  21.275,-45.801, 14.107
705078.08044, 3,  -1.223,  8.406, -1.974, 4,   0.064,  1.086, -0.282, 5,  21.260,-46.516, 14.833
705078.10031, 3,  -3.288,  8.473, -3.295, 4,   0.033,  1.507, -0.333, 5,  21.979,-44.368, 17.737
705078.12015, 3,  -6.406,  9.057, -2.989, 4,   0.059,  1.831, -0.312, 5,  23.282,-45.758, 17.017
705078.14001, 3,  -9.746,  8.712, -0.502, 4,   0.037,  1.778, -0.339, 5,  21.280,-45.807, 17.012
705078.15988, 3,  -7.025, 13.708, -1.249, 4,  -0.021,  1.325, -0.367, 5,  21.964,-45.082, 17.738
705078.17978, 3,  -4.905, 10.612, -2.441, 4,  -0.008,  0.698, -0.284, 5,  21.313,-44.385, 18.460
705078.19965, 3,  -0.945,  7.834, -3.278, 4,   0.000,  0.303, -0.161, 5,  22.630,-45.062, 17.014
705078.21951, 3,   1.761,  6.973, -5.767, 4,  -0.001,  0.091, -0.107, 5,  21.980,-44.370, 18.462
705078.23938, 3,   1.271,  8.873, -6.540, 4,  -0.005, -0.003, -0.053, 5,  21.310,-44.379, 16.283
705078.25925, 3,   1.819,  8.167, -4.692, 4,  -0.055, -0.126, -0.031, 5,  21.310,-44.379, 16.283
705078.27911, 3,   2.969, 10.059, -4.877, 4,  -0.156, -0.354, -0.059, 5,  21.965,-45.084, 18.463
705078.29898, 3,   4.606,  8.485, -6.587, 4,  -0.128, -0.462, -0.078, 5,  21.297,-45.097, 17.737
705078.31885, 3,   3.190,  8.542, -6.532, 4,  -0.046, -0.318, -0.118, 5,  19.292,-45.142, 16.281
705078.33868, 3,   1.034,  8.277, -5.032, 4,   0.033,  0.044, -0.180, 5,  21.994,-43.651, 16.283
705078.35855, 3,   0.242,  9.392, -3.838, 4,   0.004,  0.290, -0.279, 5,  21.329,-43.668, 17.007
705078.37842, 3,  -0.976,  8.837, -0.680, 4,  -0.043,  0.371, -0.312, 5,  21.297,-45.094, 17.010
705078.39828, 3,  -1.079, 13.194, -3.029, 4,  -0.037,  0.353, -0.300, 5,  22.028,-42.226, 17.004
705078.41815, 3,  -2.728, 10.122, -3.008, 4,   0.022,  0.117, -0.323, 5,  22.678,-42.920, 16.283
705078.43802, 3,  -2.835,  8.116, -1.479, 4,   0.005, -0.244, -0.348, 5,  22.646,-44.351, 17.738
705078.45789, 3,  -1.878,  7.442, -2.280, 4,  -0.023, -0.628, -0.332, 5,  23.994,-43.599, 14.832
705078.47778, 3,  -0.948,  9.870, -8.808, 4,  -0.007, -1.091, -0.211, 5,  22.627,-45.059, 15.561
705078.49765, 3,   1.168, 10.839, -6.377, 4,   0.004, -1.597, -0.095, 5,  22.662,-43.636, 17.010
705078.51749, 3,   4.865,  7.710, -0.938, 4,  -0.096, -1.765,  0.002, 5,  23.325,-43.611, 13.380
705078.53735, 3,   4.843,  9.452, -4.568, 4,  -0.177, -1.468,  0.080, 5,  22.656,-43.626, 12.653
705078.55722, 3,   1.187, 11.263, -7.602, 4,  -0.040, -1.002,  0.085, 5,  21.991,-43.646, 14.104
705078.57709, 3,  -1.797,  9.023, -5.204, 4,   0.068, -0.621,  0.014, 5,  23.959,-45.021, 12.657
705078.59695, 3,  -1.247,  4.582, -3.611, 4,   0.004, -0.427, -0.037, 5,  23.308,-44.324, 13.382
705078.61682, 3,  -0.912, 10.378, -4.049, 4,  -0.045, -0.391,  0.018, 5,  23.309,-44.325, 14.108
705078.63669, 3,  -1.474, 11.330, -2.412, 4,   0.012, -0.338,  0.063, 5,  25.296,-44.989, 12.660
705078.65656, 3,  -0.895, 10.744, -2.503, 4,   0.009, -0.269,  0.085, 5,  24.628,-45.006, 13.385
705078.67642, 3,   0.902, 11.373, -4.152, 4,   0.053, -0.290,  0.082, 5,  24.661,-43.581, 14.108
705078.69629, 3,   0.641,  6.956, -2.170, 4,   0.083, -0.296,  0.090, 5,  25.360,-42.137, 13.379
705078.71616, 3,  -1.842,  8.571, -3.371, 4,   0.042, -0.114,  0.090, 5,  24.663,-43.582, 14.833
705078.73599, 3,  -0.735,  9.973, -2.895, 4,   0.067, -0.010,  0.095, 5,  24.661,-43.581, 14.108
705078.75589, 3,  -0.242,  8.535, -3.651, 4,   0.042, -0.173,  0.111, 5,  24.663,-43.582, 14.833
705078.77576, 3,   1.505, 11.371, -4.472, 4,   0.012, -0.401,  0.111, 5,  25.296,-44.991, 13.387
705078.79562, 3,   2.146,  6.549, -2.362, 4,   0.027, -0.468,  0.124, 5,  24.643,-44.292, 13.383
705078.81549, 3,   1.369,  7.542, -3.505, 4,  -0.055, -0.402,  0.156, 5,  23.975,-44.307, 12.656
705078.83536, 3,   0.720, 13.144, -5.702, 4,  -0.029, -0.284,  0.142, 5,  22.673,-42.912, 12.651
705078.85522, 3,   0.211,  9.198, -2.723, 4,  -0.010, -0.190,  0.085
705078.87509, 3,   0.055,  8.954, -3.149, 4,  -0.065, -0.030,  0.052, 5,  22.636,-44.333, 10.475
705078.89496, 3,   1.122,  9.241, -4.644, 4,  -0.017,  0.219,  0.023, 5,  23.325,-43.611, 13.380
705078.91483, 3,   0.378,  8.964, -6.013, 4,   0.040,  0.590,  0.003, 5,  22.658,-43.629, 14.105
705078.93469, 3,  -2.036,  8.932, -4.432, 4,   0.051,  1.029, -0.036, 5,  22.672,-42.909, 11.925
705078.95453, 3,  -3.647,  8.361, -2.400, 4,   0.007,  1.329, -0.112, 5,  21.957,-45.070, 12.654
705078.97440, 3,  -3.706, 10.789, -2.512, 4,  -0.056,  1.304, -0.208, 5,  23.341,-42.897, 13.379
705078.99426, 3,  -4.585,  7.444, -1.713, 4,  -0.048,  1.053, -0.290, 5,  22.656,-43.626, 12.653
705079.01413, 3,  -3.620, 10.787, -3.695, 4,  -0.020,  0.661, -0.312, 5,  23.328,-43.614, 14.832
705079.03403, 3,  -3.941, 10.801, -3.053, 4,  -0.023,  0.222, -0.282, 5,  23.343,-42.899, 14.105
705079.05389, 3,  -5.044, 10.402, -2.950, 4,  -0.068, -0.152, -0.227, 5,  24.612,-45.720, 14.113
705079.07376, 3,  -3.695,  7.829, -2.553, 4,  -0.068, -0.483, -0.169, 5,  24.011,-42.886, 15.558
705079.09363, 3,   1.175,  6.750, -6.154, 4,  -0.041, -0.881, -0.081, 5,  22.656,-43.628, 13.379
705079.11349, 3,   4.568,  9.433, -7.908, 4,   0.032, -1.159,  0.030, 5,  24.022,-42.165, 11.923
705079.13336, 3,   4.700, 11.306, -5.810, 4,   0.040, -1.061,  0.104, 5,  22.670,-42.908, 11.197
705079.15320, 3,   1.115, 11.151, -1.823, 4,  -0.055, -0.676,  0.093, 5,  24.692,-42.151, 12.651
705079.17307, 3,  -0.428,  6.920, -0.943, 4,  -0.121, -0.349, -0.010, 5,  23.369,-41.461,  9.743
705079.19293, 3,  -0.103, 11.828, -2.883, 4,  -0.072, -0.224, -0.078, 5,  24.023,-42.168, 12.650
705079.21280, 3,  -0.285,  8.648, -2.106, 4,   0.046, -0.132, -0.043, 5,  25.360,-42.136, 12.653
705079.23267, 3,  -1.096,  7.463, -4.391, 4,   0.071, -0.030, -0.035, 5,  24.020,-42.163, 11.195
705079.25253, 3,  -1.637, 11.806, -7.463, 4,   0.138, -0.007, -0.056, 5,  26.010,-42.828, 11.929
705079.27240, 3,  -0.893,  7.805, -2.955, 4,   0.127, -0.091, -0.064, 5,  25.992,-43.539, 10.478
705079.29227, 3,   0.670,  8.648, -2.350, 4,  -0.051, -0.231, -0.019, 5,  25.357,-42.130, 10.474
705079.31213, 3,   0.151, 10.973, -0.847, 4,  -0.138, -0.460, -0.002, 5,  25.357,-42.131, 11.198
705079.33203, 3,   0.718,  9.863,  0.033, 4,  -0.129, -0.729, -0.001, 5,  25.339,-42.839,  9.024
705079.35190, 3,   0.100,  7.291, -4.231, 4,  -0.112, -0.944,  0.007, 5,  25.325,-43.558, 11.203
705079.37173, 3,   0.445, 15.218, -5.803, 4,   0.016, -1.061,  0.032, 5,  25.337,-42.836,  7.571
705079.39160, 3,   1.503,  5.953, -1.883, 4,   0.053, -1.013,  0.111, 5,  23.985,-43.585,  9.023
705079.41147, 3,   0.636, 12.565, -4.656, 4,  -0.057, -0.887,  0.156, 5,  24.033,-41.441,  7.564
705079.43134, 3,   0.251, 10.019, -4.857, 4,   0.011, -0.725,  0.157, 5,  24.669,-42.851,  7.570
705079.45120, 3,  -0.792,  8.468, -1.098, 4,   0.010, -0.544,  0.147, 5,  24.669,-42.851,  7.570
705079.47107, 3,  -1.457,  9.356, -4.415, 4,  -0.026, -0.349,  0.181, 5,  23.898,-47.141,  4.674
705079.49094, 3,  -1.639, 11.648, -3.247, 4,   0.056, -0.211,  0.183, 5,  22.664,-42.897,  6.841
705079.51080, 3,  -1.630,  2.749, -3.367, 4,   0.116, -0.085,  0.180, 5,  23.964,-44.290,  6.119
705079.53067, 3,  -2.649, 14.053, -6.272, 4,   0.127,  0.088,  0.208, 5,  24.014,-42.152,  6.839
705079.55054, 3,  -2.400,  9.705, -2.450, 4,   0.210,  0.408,  0.245, 5,  23.366,-41.457,  7.564
705079.57037, 3,  -0.948,  6.525, -0.017, 4,   0.115,  0.535,  0.267, 5,  22.632,-44.327,  7.570
705079.59024, 3,  -2.089, 11.517, -5.961, 4,   0.073,  0.448,  0.218, 5,  24.672,-42.856,  9.749
705079.61014, 3,  -2.424,  8.121, -5.049, 4,   0.182,  0.375,  0.144, 5,  23.984,-43.584,  8.296
705079.63000, 3,  -1.065,  9.227, -4.513, 4,   0.171,  0.318,  0.130, 5,  23.351,-42.174,  9.018
705079.64987, 3,  -1.175,  9.935, -2.845, 4,   0.090,  0.312,  0.162, 5,  22.681,-42.188,  7.564
705079.66974, 3,  -1.041,  5.657,  0.299, 4,   0.006,  0.290,  0.162, 5,  22.701,-41.478,  9.741
705079.68959, 3,  -1.228, 13.060, -4.094, 4,  -0.022,  0.238,  0.147, 5,  20.648,-43.666,  9.018
705079.70946, 3,  -0.967, 10.177, -1.357, 4,   0.048,  0.221,  0.148, 5,  24.004,-42.873,  9.747
705079.72933, 3,   0.433,  7.284, -1.041, 4,  -0.002,  0.157,  0.152, 5,  24.004,-42.873,  9.747
705079.74919, 3,   1.362, 10.380, -4.446, 4,  -0.045,  0.063,  0.129, 5,  24.004,-42.873,  9.747
705079.76903, 3,   0.400, 11.294, -5.958, 4,   0.034,  0.041,  0.089, 5,  22.653,-43.622, 11.198
705079.78890, 3,   1.015,  9.610, -3.034, 4,   0.017,  0.114,  0.058, 5,  21.349,-42.223,  9.013
705079.80876, 3,  -0.160, 10.670, -2.620, 4,  -0.070,  0.124,  0.061, 5,  20.010,-42.255,  8.286
705079.82863, 3,  -0.658,  6.796, -2.395, 4,  -0.098,  0.069,  0.007, 5,  22.014,-42.204,  7.562
705079.84850, 3,  -0.890, 13.326, -5.846, 4,  -0.027, -0.029, -0.042, 5,  20.648,-43.666,  9.018
705079.86836, 3,  -0.419,  6.348, -5.288, 4,   0.050, -0.075,  0.002, 5,  21.349,-42.223,  9.013
705079.88823, 3,   1.094, 13.438, -4.398, 4,   0.039, -0.099, -0.005, 5,  20.013,-42.258,  9.738
705079.90813, 3,   1.311,  6.269,  0.287, 4,  -0.005, -0.124,  0.012, 5,  21.970,-44.350, 10.474
705079.92800, 3,   0.007, 11.124, -4.994, 4,  -0.073, -0.123,  0.004, 5,  21.986,-43.639, 11.197
705079.94786, 3,  -0.256, 11.660, -4.140, 4,   0.070, -0.123, -0.025, 5,  20.667,-42.953,  9.743
705079.96770, 3,  -0.543,  4.410, -3.094, 4,   0.078, -0.102, -0.026, 5,  21.986,-43.639, 11.197
705079.98757, 3,  -0.811,  7.384, -7.320, 4,  -0.011, -0.070, -0.046, 5,  22.652,-43.619,  9.747
705080.00743, 3,  -1.498, 10.763, -4.420, 4,   0.060,  0.019, -0.037, 5,  21.970,-44.350, 10.474
705080.02730, 3,  -2.084, 12.725,  0.328, 4,  -0.071,  0.195, -0.020, 5,  23.366,-41.457,  7.564
705080.04717, 3,  -0.871,  9.631,  4.666, 4,  -0.205,  0.254, -0.019, 5,  22.632,-44.327,  7.570
705080.06703, 3,  -2.051,  5.513, -1.548, 4,  -0.194,  0.118, -0.036, 5,  21.965,-44.344,  7.568
705080.08690, 3,  -2.491, 17.295,-13.084, 4,   0.029, -0.004, -0.067, 5,  22.647,-43.611,  6.842
705080.10677, 3,  -0.586, 10.028, -1.828, 4,   0.271, -0.022, -0.038, 5,  23.300,-44.312,  8.298
705080.12663, 3,   0.593,  2.498, -0.885, 4,  -0.029,  0.096,  0.051, 5,  21.967,-44.347,  9.021
705080.14650, 3,  -1.716, 16.922, -5.458, 4,  -0.137,  0.113,  0.053, 5,  23.300,-44.310,  7.571
705080.16634, 3,  -0.292,  8.480, -1.058, 4,  -0.006,  0.092,  0.031, 5,  21.967,-44.347,  9.021
705080.18624, 3,   1.271,  5.530,  4.532, 4,  -0.118, -0.085,  0.056, 5,  21.999,-42.917,  7.565
705080.20610, 3,   1.278, 10.411, -7.746, 4,  -0.067, -0.349,  0.041, 5,  21.950,-45.058,  7.570
705080.22597, 3,   3.367, 11.452,-11.129, 4,   0.121, -0.503, -0.001, 5,  21.950,-45.059,  8.296
705080.24584, 3,   3.910,  8.825, -3.924, 4,   0.170, -0.494,  0.034, 5,  19.997,-42.969,  9.015
705080.26570, 3,   2.256,  3.393, -0.388, 4,  -0.068, -0.283,  0.059, 5,  20.663,-42.950,  8.290
705080.28557, 3,  -0.414, 15.022, -6.317, 4,  -0.175, -0.086,  0.002, 5,  21.312,-43.642,  6.113
705080.30544, 3,  -0.603,  9.598,  0.112, 4,  -0.071, -0.032, -0.068, 5,  20.613,-45.087,  6.842
705080.32530, 3,   0.041,  8.801,  1.730, 4,  -0.144, -0.131, -0.070, 5,  22.646,-43.610,  6.116
705080.34517, 3,  -1.079,  4.711, -5.812, 4,  -0.114, -0.234, -0.075, 5,  21.280,-45.068,  6.116
705080.36504, 3,  -1.192, 19.590, -8.344, 4,   0.105, -0.281, -0.113, 5,  21.979,-43.625,  5.388
705080.38487, 3,  -1.651,  3.350, -0.605, 4,   0.136, -0.241, -0.076, 5,  21.295,-44.353,  5.388
705080.40474, 3,  -1.929,  7.803, -2.450, 4,  -0.078, -0.040,  0.020, 5,  21.329,-42.928,  6.111
705080.42461, 3,  -2.060, 15.304, -4.446, 4,   0.000,  0.135,  0.050, 5,  21.312,-43.640,  5.386
705080.44448, 3,  -0.402, 10.323,  0.663, 4,   0.006,  0.084,  0.043, 5,  21.312,-43.640,  5.386
705080.46434, 3,  -0.244,  5.460,  0.029, 4,  -0.073,  0.017,  0.061, 5,  20.595,-45.796,  5.391
705080.48424, 3,  -3.075, 10.375, -3.884, 4,   0.011, -0.000,  0.062, 5,  20.593,-45.795,  4.665
705080.50411, 3,  -1.620,  9.502, -6.765, 4,   0.174, -0.075, -0.002, 5,  19.957,-44.385,  4.660
705080.52397, 3,  -1.467,  5.645, -0.414, 4,   0.164, -0.222,  0.021, 5,  20.595,-45.796,  5.391
705080.54384, 3,  -3.015,  6.097, -9.791, 4,   0.099, -0.203,  0.091, 5,  20.622,-44.363,  2.483
705080.56371, 3,  -0.199, 19.384, -3.654, 4,   0.120, -0.168,  0.139, 5,  21.947,-45.052,  5.391
705080.58296, 3,   2.922,  8.054,  5.051, 4,  -0.016, -0.256,  0.208, 5,  21.297,-44.356,  6.841
705080.60341, 3,   1.304,  6.236, -2.568, 4,  -0.216, -0.301,  0.289, 5,  20.593,-45.795,  4.665
705080.62328, 3,  -3.371, 11.002, -7.533, 4,   0.051, -0.003,  0.244, 5,  20.627,-44.371,  6.114
705080.64314, 3,  -1.649,  7.365, -4.120, 4,   0.209, -0.025,  0.151, 5,  20.610,-45.082,  4.663
705080.66301, 3,   0.254, 14.905, -3.678, 4,   0.060, -0.173,  0.178, 5,  19.942,-45.099,  4.662
705080.68288, 3,   0.447,  7.341, -1.680, 4,  -0.004,  0.052,  0.262, 5,  19.243,-46.544,  6.116
705080.70275, 3,  -0.325,  6.930, -1.180, 4,   0.007,  0.438,  0.279, 5,  17.940,-45.151,  6.111
705080.72261, 3,  -1.218, 11.153, -5.228, 4,   0.028,  0.615,  0.232, 5,  19.910,-46.529,  6.117
705080.74248, 3,  -1.204,  8.822, -5.929, 4,   0.095,  0.584,  0.169, 5,  17.955,-44.437,  6.110
705080.76238, 3,   1.572, 13.938, -2.802, 4,   0.027,  0.427,  0.129, 5,  18.591,-45.847,  6.114
705080.78221, 3,   3.015,  9.370,  3.888, 4,  -0.061,  0.338,  0.120, 5,  17.955,-44.435,  5.383
705080.80208, 3,   0.436,  7.449, -0.648, 4,  -0.133,  0.450,  0.100, 5,  18.611,-45.139,  7.565
705080.82195, 3,  -2.115,  5.937, -8.490, 4,   0.056,  0.680, -0.007, 5,  18.576,-46.562,  6.842
705080.84181, 3,  -2.048, 14.936,-11.816, 4,   0.246,  0.442, -0.128, 5,  19.231,-47.263,  8.298
705080.86168, 3,  -0.225, 10.074, -0.263, 4,   0.126, -0.079, -0.152, 5,  16.621,-44.469,  6.107
705080.88155, 3,  -1.610,  6.418,  4.460, 4,  -0.210, -0.279, -0.031, 5,  18.608,-45.134,  6.113
705080.90141, 3,  -3.467, 10.973, -1.632, 4,  -0.253, -0.236,  0.040, 5,  19.278,-45.119,  6.839
705080.92128, 3,  -2.819,  7.724, -4.570, 4,  -0.018, -0.512,  0.015, 5,  19.261,-45.831,  6.841
705080.94115, 3,  -0.553,  8.121, -8.181, 4,   0.117, -0.961,  0.064, 5,  17.923,-45.863,  6.113
705080.96102, 3,   2.209,  9.976, -6.150, 4,   0.147, -1.083,  0.191, 5,  19.928,-45.816,  6.842
705080.98088, 3,   2.891,  9.849, -0.242, 4,   0.062, -0.769,  0.345, 5,  17.924,-45.865,  6.839
705081.00072, 3,   3.730,  9.576,  2.544, 4,  -0.077, -0.245,  0.428, 5,  17.923,-45.863,  6.113
705081.02059, 3,   2.673, 10.327, -1.534, 4,  -0.048,  0.206,  0.387, 5,  15.941,-45.203,  7.561
705081.04048, 3,   2.709,  9.722, -6.430, 4,   0.150,  0.602,  0.244, 5,  17.242,-46.599,  8.292
705081.06035, 3,   1.211, 10.299, -6.229, 4,   0.270,  0.974,  0.139, 5,  16.592,-45.900,  7.562
705081.08022, 3,  -0.840,  8.590, -3.470, 4,   0.181,  1.216,  0.034, 5,  17.291,-44.456,  7.561
705081.10008, 3,  -2.544, 13.218, -3.647, 4,   0.020,  1.207, -0.070, 5,  17.259,-45.885,  8.290
705081.11995, 3,  -2.199,  7.714,  2.886, 4,  -0.095,  0.956, -0.145, 5,  17.291,-44.458,  8.287
705081.13982, 3,  -2.807,  8.964, -0.615, 4,  -0.129,  0.584, -0.175, 5,  15.956,-44.489,  7.559
705081.15969, 3,  -4.668, 11.086, -5.767, 4,   0.000,  0.228, -0.235, 5,  17.958,-44.443,  8.289
705081.17955, 3,  -2.946, 10.526, -4.805, 4,   0.120,  0.080, -0.196, 5,  16.624,-44.475,  8.286
705081.19939, 3,  -2.149,  4.491, -2.295, 4,   0.045,  0.067, -0.082, 5,  16.658,-43.047,  7.556
705081.21926, 3,  -0.656, 14.742, -4.015, 4,  -0.040,  0.129, -0.038, 5,  17.276,-45.172,  8.289
705081.23912, 3,   0.440,  9.746, -0.093, 4,   0.005,  0.251, -0.014, 5,  15.973,-43.777,  8.284
705081.25899, 3,   0.301,  5.628, -2.974, 4,  -0.016,  0.419,  0.015, 5,  15.308,-43.796,  9.009
705081.27886, 3,   1.055, 12.177, -8.648, 4,   0.077,  0.445, -0.038, 5,  16.643,-43.764,  9.010
705081.29872, 3,   2.422,  7.571, -3.166, 4,   0.182,  0.359, -0.141, 5,  16.005,-42.351,  8.279
705081.31859, 3,   1.680,  9.978, -1.574, 4,   0.007,  0.311, -0.168, 5,  16.676,-42.339,  9.732
705081.33849, 3,   0.981,  8.028, -4.429, 4,  -0.034,  0.234, -0.228, 5,  16.675,-42.337,  9.006
705081.35835, 3,   0.000, 15.089, -4.003, 4,   0.040,  0.099, -0.295, 5,  17.328,-43.034,  9.737
705081.37822, 3,   0.124,  7.346,  1.536, 4,   0.056, -0.042, -0.327, 5,  17.340,-42.319,  8.281
705081.39806, 3,  -0.871,  8.408, -2.311, 4,  -0.073, -0.186, -0.319, 5,  16.690,-41.621,  8.278
705081.41792, 3,  -2.484, 11.653, -4.963, 4,   0.049, -0.294, -0.377, 5,  17.371,-40.884,  6.099
705081.43779, 3,  -4.661,  2.134, -5.329, 4,   0.103, -0.411, -0.351, 5,  16.724,-40.193,  7.549
705081.45766, 3,  -3.647,  9.959, -8.270, 4,   0.034, -0.532, -0.252, 5,  19.341,-42.262,  5.379
705081.47753, 3,  -0.684, 13.213, -4.881, 4,   0.021, -0.616, -0.120, 5,  18.689,-41.565,  5.377
705081.49739, 3,   0.627,  7.391,  1.239, 4,  -0.145, -0.553,  0.080, 5,  17.355,-41.600,  6.827
705081.51726, 3,   1.268,  7.985, -1.388, 4,  -0.182, -0.399,  0.161, 5,  19.359,-41.551,  6.830
705081.53713, 3,   0.756, 11.536, -9.387, 4,   0.018, -0.226,  0.135, 5,  18.675,-42.285,  7.558
705081.55699, 3,  -0.220,  9.607, -5.513, 4,   0.207,  0.088,  0.107, 5,  17.976,-43.732,  9.013
705081.57686, 3,  -0.337,  5.635, -1.675, 4,   0.105,  0.351,  0.120, 5,  18.661,-43.001,  9.013
705081.59670, 3,   1.627, 12.168,  1.878, 4,  -0.071,  0.351,  0.069, 5,  19.315,-43.700,  9.741
705081.61659, 3,   1.290,  9.394, -1.149, 4,  -0.106,  0.172,  0.047, 5,  17.944,-45.158,  9.016
705081.63646, 3,   2.838, 11.565, -6.229, 4,   0.013, -0.011,  0.076, 5,  19.966,-44.400, 11.195
705081.65633, 3,   1.965,  8.956, -3.764, 4,   0.204, -0.086, -0.005, 5,  21.350,-42.224,  9.740
705081.67620, 3,  -0.653, 12.000, -2.453, 4,   0.098,  0.055, -0.046, 5,  20.668,-42.957, 11.194
705081.69606, 3,  -1.120,  3.982, -0.993, 4,   0.029,  0.169, -0.070, 5,  20.013,-42.258,  9.738
705081.71593, 3,  -1.685, 10.964, -3.489, 4,  -0.026,  0.070, -0.108, 5,  20.631,-44.379,  9.019
705081.73580, 3,  -1.448,  6.310, -1.658, 4,  -0.005, -0.090, -0.108, 5,  19.931,-45.822,  9.021
705081.75566, 3,  -0.548, 13.400, -1.113, 4,  -0.035, -0.225, -0.016, 5,  21.284,-45.076,  9.021
705081.77553, 3,  -1.120, -1.627, -1.711, 4,  -0.038, -0.332,  0.050, 5,  21.338,-42.941, 11.922
705081.79540, 3,  -0.103, 17.180, -8.176, 4,  -0.128, -0.313,  0.095, 5,  19.962,-44.394,  8.292
705081.81523, 3,   2.850, 10.086, -2.027, 4,  -0.038, -0.142,  0.128, 5,  19.948,-45.110,  9.019
705081.83510, 3,   5.640, 12.194,  1.551, 4,  -0.239,  0.106,  0.178, 5,  21.951,-45.061,  9.023
705081.85497, 3,   3.752, 10.770,  3.467, 4,  -0.272,  0.438,  0.137, 5,  22.583,-46.468,  7.574
705081.87483, 3,  -0.012,  9.090, -1.586, 4,  -0.122,  0.867, -0.001, 5,  21.300,-44.362,  9.019
705081.89470, 3,  -1.663,  9.796, -6.032, 4,   0.089,  1.027, -0.202, 5,  21.332,-42.934,  8.290
705081.91460, 3,  -2.871,  6.676, -7.724, 4,   0.197,  0.888, -0.338, 5,  21.332,-42.934,  8.290
705081.93447, 3,  -4.374,  7.525,  2.579, 4,   0.099,  0.698, -0.366, 5,  21.268,-45.789,  9.023
705081.95433, 3,  -5.037, 13.524, -7.030, 4,  -0.079,  0.452, -0.373, 5,  19.981,-43.684,  9.743
705081.97420, 3,  -3.314, 14.479, -3.415, 4,  -0.101,  0.052, -0.352, 5,  20.630,-44.376,  7.567
705081.99404, 3,  -1.993,  3.754,  0.964, 4,  -0.034, -0.321, -0.253, 5,  19.995,-42.967,  8.289
705082.01390, 3,  -1.591, 14.058, -4.566, 4,  -0.109, -0.625, -0.189, 5,  19.279,-45.123,  8.292
705082.03377, 3,  -0.763,  7.688, -4.924, 4,   0.077, -0.700, -0.158, 5,  20.630,-44.377,  8.293
705082.05364, 3,   0.057,  6.245, -5.633, 4,   0.062, -0.707, -0.032, 5,  20.630,-44.377,  8.293
705082.07350, 3,   1.070, 11.153, -4.032, 4,   0.021, -0.649,  0.034
705082.09337, 3,   4.585, 11.136, -0.380, 4,  -0.031, -0.503,  0.096, 5,  19.994,-42.963,  6.836
705082.11324, 3,   6.260,  7.068, -0.732, 4,  -0.072, -0.270,  0.153, 5,  20.645,-43.660,  6.839
705082.13310, 3,   3.970,  7.700, -8.282, 4,  -0.013, -0.083,  0.080, 5,  21.300,-44.362,  9.019
705082.15297, 3,   1.426, 11.273, -5.025, 4,   0.147,  0.085, -0.069, 5,  21.295,-44.354,  6.114
705082.17284, 3,  -0.416,  7.789, -4.757, 4,   0.054,  0.191, -0.162, 5,  21.962,-44.339,  6.116
705082.19274, 3,  -2.163, 13.421, -0.641, 4,  -0.121,  0.175, -0.189, 5,  21.312,-43.642,  6.113
705082.21257, 3,  -1.419, 13.962,  2.879, 4,  -0.176, -0.035, -0.198, 5,  25.223,-47.830,  7.584
705082.23244, 3,  -0.842,  3.489,  3.541, 4,  -0.211, -0.352, -0.148, 5,  25.252,-46.399,  6.126
705082.25231, 3,  -4.156, 10.729, -8.856, 4,  -0.051, -0.564, -0.131, 5,  26.620,-44.939,  6.125
705082.27217, 3,  -4.453, 10.131, -8.174, 4,   0.229, -0.555, -0.134, 5,  22.627,-44.319,  4.665
705082.29204, 3,  -2.819,  3.333, -0.754, 4,   0.166, -0.438, -0.026, 5,  23.311,-43.587,  3.212
705082.31191, 3,  -2.376, 13.766, -3.494, 4,  -0.062, -0.270,  0.129, 5,  23.280,-45.016,  4.668
705082.33177, 3,   0.967, 11.660, -1.027, 4,  -0.055, -0.190,  0.212, 5,  23.279,-45.015,  3.941
705082.35164, 3,   0.979,  5.281, -0.208, 4,  -0.043, -0.123,  0.268, 5,  22.614,-45.035,  5.392
705082.37151, 3,  -1.067, 12.184, -7.939, 4,   0.010,  0.024,  0.262, 5,  23.282,-45.020,  6.120
705082.39137, 3,  -0.211, 10.947, -3.144, 4,   0.155,  0.204,  0.200, 5,  22.630,-44.324,  6.844
705082.41121, 3,   0.380,  1.675,  1.007, 4,   0.006,  0.340,  0.197, 5,  22.598,-45.750,  6.847
705082.43108, 3,  -0.402, 14.340, -3.594, 4,  -0.116,  0.403,  0.155, 5,  23.947,-45.001,  4.668
705082.45094, 3,   0.770, 12.017, -1.302, 4,   0.017,  0.456,  0.093, 5,  22.630,-44.324,  6.844
705082.47084, 3,  -0.093,  4.436,  0.847, 4,   0.005,  0.497,  0.072, 5,  21.297,-44.356,  6.841
705082.49071, 3,  -2.223, 10.378, -5.645, 4,   0.009,  0.433, -0.010, 5,  22.617,-45.041,  7.571
705082.51058, 3,  -2.295,  9.215, -4.331, 4,   0.131,  0.344, -0.085, 5,  21.950,-45.058,  7.570
705082.53044, 3,  -1.524,  7.293, -2.362, 4,   0.073,  0.255, -0.082, 5,  21.947,-45.053,  6.117
705082.55031, 3,  -1.565, 10.761, -5.281, 4,  -0.044,  0.121, -0.074, 5,  23.984,-43.582,  7.570
705082.57018, 3,   0.112, 11.189, -1.084, 4,  -0.031,  0.001, -0.031, 5,  21.982,-43.631,  7.567
705082.59004, 3,  -0.136,  5.314, -0.574, 4,  -0.079, -0.063, -0.008, 5,  21.965,-44.344,  7.568
705082.60991, 3,  -1.158,  9.693, -6.298, 4,  -0.078, -0.147, -0.034, 5,  23.334,-42.885,  8.295
705082.62975, 3,  -0.325, 13.694, -7.009, 4,   0.046, -0.250, -0.024, 5,  21.965,-44.345,  8.295
705082.64961, 3,   1.165,  4.690, -0.885, 4,  -0.007, -0.345,  0.045, 5,  22.664,-42.897,  6.841
705082.66948, 3,   1.230, 12.885, -5.592, 4,  -0.106, -0.379,  0.087, 5,  21.945,-45.050,  4.665
705082.68935, 3,   1.902, 10.356, -4.472, 4,  -0.011, -0.291,  0.104, 5,  21.315,-43.646,  7.565
705082.70922, 3,   1.560,  2.410, -1.472, 4,   0.042, -0.132,  0.104, 5,  21.315,-43.646,  7.565
705082.72908, 3,   1.735, 13.524, -8.296, 4,   0.062,  0.045,  0.036, 5,  21.315,-43.646,  7.565
705082.74895, 3,   3.642, 11.787, -5.436, 4,   0.199,  0.206, -0.024, 5,  21.315,-43.646,  7.565
705082.76885, 3,   1.965,  6.985, -1.438, 4,   0.098,  0.301, -0.071, 5,  21.983,-43.634,  9.019
705082.78871, 3,  -0.261, 10.935, -4.685, 4,   0.009,  0.293, -0.154, 5,  23.967,-44.296,  8.298
705082.80858, 3,  -3.199,  7.178, -1.984, 4,   0.083,  0.156, -0.233, 5,  23.300,-44.310,  7.571
705082.82845, 3,  -3.946, 11.584, -2.862, 4,  -0.021, -0.125, -0.268, 5,  23.984,-43.582,  7.570
705082.84828, 3,  -3.508,  8.655, -0.318, 4,  -0.055, -0.454, -0.255, 5,  25.987,-43.533,  7.573
705082.86815, 3,  -2.436,  4.683, -3.204, 4,  -0.067, -0.667, -0.109, 5,  25.320,-43.552,  8.299
705082.88802, 3,  -1.431, 13.618, -8.820, 4,   0.016, -0.735, -0.010, 5,  26.003,-42.816,  6.845
705082.90788, 3,   2.340, 10.720, -0.919, 4,   0.083, -0.626,  0.137, 5,  26.003,-42.816,  6.845
705082.92775, 3,   3.881,  4.032,  2.101, 4,  -0.099, -0.456,  0.266, 5,  26.669,-42.796,  5.394
705082.94762, 3,   1.127,  8.803, -1.725, 4,  -0.160, -0.245,  0.250, 5,  24.669,-42.851,  7.570
705082.96749, 3,  -0.842,  9.875, -6.169, 4,   0.011,  0.022,  0.179, 5,  25.333,-42.828,  4.666
705082.98735, 3,  -0.636, 11.072, -6.018, 4,   0.105,  0.221,  0.131, 5,  23.915,-46.429,  5.397
705083.00722, 3,  -1.263,  9.906, -0.770, 4,   0.060,  0.378,  0.133, 5,  22.629,-44.321,  5.391
705083.02709, 3,  -1.330, 10.296,  1.376, 4,  -0.137,  0.560,  0.152, 5,  23.997,-42.863,  6.116
705083.04695, 3,  -1.787, 10.332, -1.393, 4,  -0.147,  0.602,  0.096, 5,  23.978,-43.573,  3.938
705083.06682, 3,  -2.106, 11.292, -1.251, 4,  -0.055,  0.537, -0.014, 5,  22.629,-44.322,  6.117
705083.08669, 3,  -3.817,  3.922, -3.154, 4,   0.018,  0.452, -0.048, 5,  20.627,-44.371,  6.114
705083.10655, 3,  -4.685, 13.644, -6.712, 4,   0.009,  0.296, -0.062, 5,  22.662,-42.896,  6.114
705083.12642, 3,  -1.292, 10.225, -2.967, 4,   0.078,  0.075, -0.032, 5,  21.962,-44.337,  5.389
705083.14629, 3,  -0.510,  7.140,  0.014, 4,  -0.099, -0.137,  0.069, 5,  22.615,-45.038,  6.845
705083.16615, 3,  -1.204, 12.845, -4.336, 4,  -0.106, -0.321,  0.109, 5,  21.298,-44.360,  8.293
705083.18602, 3,  -1.785,  9.813, -2.472, 4,   0.005, -0.389,  0.122, 5,  20.679,-42.238,  8.287
705083.20589, 3,  -0.699,  4.420, -4.312, 4,   0.037, -0.399,  0.189, 5,  20.628,-44.373,  6.841
705083.22576, 3,   2.833, 17.161, -6.958, 4,   0.077, -0.441,  0.233, 5,  20.598,-45.802,  7.570
705083.24559, 3,   6.456,  6.042,  1.541, 4,   0.095, -0.358,  0.273, 5,  20.628,-44.373,  6.841
705083.26546, 3,   5.207,  7.561, -3.022, 4,  -0.045, -0.018,  0.301, 5,  20.615,-45.090,  7.568
705083.28533, 3,   1.993, 11.514, -7.092, 4,   0.108,  0.413,  0.183, 5,  19.278,-45.119,  6.839
705083.30519, 3,   0.060,  4.336, -3.450, 4,   0.225,  0.746,  0.047, 5,  19.930,-45.821,  8.295
705083.32506, 3,  -0.699, 11.431, -6.398, 4,   0.083,  0.850, -0.093, 5,  19.295,-44.409,  8.290
705083.34496, 3,  -0.074, 12.330, -1.101, 4,   0.064,  0.766, -0.222, 5,  20.616,-45.093,  9.021
705083.36482, 3,  -1.795,  3.020,  0.136, 4,  -0.054,  0.640, -0.263, 5,  19.951,-45.113, 10.472
705083.38469, 3,  -4.867, 15.113, -7.083, 4,  -0.099,  0.362, -0.349, 5,  21.982,-43.633,  8.293
705083.40456, 3,  -5.451,  8.243, -0.895, 4,   0.055,  0.033, -0.401, 5,  22.012,-42.201,  6.836
705083.42443, 3,  -5.480,  7.178, -0.701, 4,  -0.118, -0.311, -0.302, 5,  22.014,-42.206,  8.289
705083.44426, 3,  -5.027, 15.927, -2.594, 4,  -0.170, -0.660, -0.195, 5,  23.953,-45.012,  9.026
705083.46413, 3,  -1.120,  6.437,  2.642, 4,  -0.139, -0.881,  0.010, 5,  23.950,-45.006,  6.847
705083.48400, 3,  -1.149, 11.450, -2.345, 4,  -0.151, -0.944,  0.202, 5,  22.632,-44.328,  8.296
705083.50386, 3,   0.246, 10.361, -3.584, 4,   0.046, -0.810,  0.288, 5,  23.297,-44.305,  6.119
705083.52373, 3,   1.448,  1.417, -3.431, 4,   0.159, -0.600,  0.374, 5,  21.962,-44.339,  6.116
705083.54360, 3,   2.326, 14.151, -7.949, 4,   0.170, -0.278,  0.443, 5,  21.980,-43.628,  6.841
705083.56346, 3,   5.807, 12.129, -3.620, 4,   0.194,  0.044,  0.481, 5,  20.615,-45.090,  7.568
705083.58333, 3,   5.647,  5.276,  0.567, 4,   0.071,  0.367,  0.492, 5,  19.263,-45.836,  8.293
705083.60320, 3,   2.704,  9.509, -4.027, 4,   0.005,  0.639,  0.348, 5,  19.231,-47.263,  8.298
705083.62309, 3,  -0.565, 12.244, -5.810, 4,   0.125,  0.852,  0.169, 5,  20.567,-47.232,  9.027
705083.64293, 3,  -2.895,  3.900, -1.634, 4,   0.120,  0.909,  0.024, 5,  20.596,-45.799,  6.844
705083.66280, 3,  -4.135, 18.092, -5.063, 4,   0.018,  0.799, -0.069, 5,  20.586,-46.523, 10.477
705083.68266, 3,  -3.927,  7.454,  0.893, 4,   0.029,  0.632, -0.118, 5,  18.611,-45.139,  7.565
705083.70253, 3,  -5.042,  5.575,  0.033, 4,  -0.105,  0.413, -0.106, 5,  20.583,-46.519,  9.024
705083.72240, 3,  -4.015, 13.153, -7.755, 4,  -0.023,  0.160, -0.148, 5,  19.965,-44.397,  9.744
705083.74227, 3,  -0.945,  4.482, -3.486, 4,   0.114, -0.022, -0.082, 5,  17.944,-45.158,  9.016
705083.76213, 3,   0.921, 16.623, -5.212, 4,   0.005, -0.091,  0.025, 5,  19.267,-45.842, 11.197
705083.78200, 3,   3.656,  9.947,  2.065, 4,  -0.087, -0.053,  0.092, 5,  19.899,-47.249,  9.026
705083.80187, 3,   2.812,  7.152, -0.407, 4,  -0.161,  0.064,  0.133, 5,  21.938,-45.776, 10.477
705083.82173, 3,   3.027, 14.654, -6.300, 4,  -0.049,  0.150,  0.021, 5,  21.968,-44.348,  9.747
705083.84157, 3,   1.003,  1.543, -3.048, 4,   0.204,  0.213, -0.021, 5,  19.250,-46.556, 11.198
705083.86144, 3,   0.938, 10.895, -7.018, 4,   0.119,  0.329, -0.093, 5,  20.633,-44.380,  9.746
705083.88130, 3,   1.230, 10.581, -2.486, 4,   0.079,  0.268, -0.168, 5,  20.621,-45.099, 11.926
705083.90120, 3,   1.929,  9.301,  0.620, 4,  -0.071,  0.178, -0.178, 5,  20.634,-44.382, 10.472
705083.92107, 3,   1.306, 10.816, -1.251, 4,  -0.085,  0.113, -0.257, 5,  20.602,-45.808, 10.475
705083.94094, 3,  -0.852,  7.571, -4.257, 4,   0.011,  0.135, -0.311, 5,  21.254,-46.506, 10.477
705083.96080, 3,  -1.924, 10.579, -6.918, 4,   0.088,  0.151, -0.334, 5,  22.668,-42.905,  9.746
705083.98067, 3,  -0.766,  8.983, -0.431, 4,   0.049,  0.103, -0.312, 5,  21.953,-45.062,  9.749
705084.00054, 3,  -0.816,  9.126, -0.110, 4,  -0.140,  0.030, -0.250, 5,  22.002,-42.921,  9.744
705084.02040, 3,  -2.333,  6.556, -1.957, 4,  -0.169, -0.124, -0.218, 5,  21.970,-44.350, 10.474
705084.04027, 3,  -2.544, 16.893, -6.894, 4,  -0.027, -0.339, -0.225, 5,  22.621,-45.049, 11.201
705084.06011, 3,   0.201,  7.475, -2.223, 4,   0.002, -0.484, -0.145, 5,  21.332,-42.934,  8.290
705084.07997, 3,   0.153, 10.421,  0.502, 4,  -0.155, -0.547, -0.054, 5,  21.999,-42.918,  8.292
705084.09984, 3,   2.020, 10.129, -0.022, 4,  -0.184, -0.500,  0.040, 5,  22.617,-45.042,  8.298
705084.11971, 3,   1.742, 10.198, -1.022, 4,  -0.078, -0.363,  0.057, 5,  21.315,-43.648,  8.292
705084.13957, 3,   1.730, 12.498, -6.980, 4,   0.083, -0.116, -0.018, 5,  23.300,-44.312,  8.298
705084.15944, 3,   1.809,  1.275, -2.651, 4,   0.222,  0.130, -0.046, 5,  23.302,-44.313,  9.024
705084.17931, 3,  -1.144, 15.092, -8.698, 4,   0.150,  0.338, -0.101, 5,  24.652,-43.565,  7.571
705084.19921, 3,  -0.617,  8.681, -0.708, 4,   0.136,  0.454, -0.162, 5,  22.668,-42.905,  9.746
705084.21907, 3,  -1.792,  7.277, -0.103, 4,  -0.076,  0.350, -0.174, 5,  22.635,-44.331,  9.749
705084.23894, 3,  -2.524, 11.955, -1.921, 4,  -0.140,  0.096, -0.229, 5,  23.270,-45.740,  9.027
705084.25878, 3,  -3.132,  4.178, -1.113, 4,  -0.029, -0.256, -0.238, 5,  23.268,-45.738,  8.301
705084.27864, 3,  -3.730, 17.561, -7.420, 4,  -0.031, -0.461, -0.192, 5,  24.637,-44.281,  9.026
705084.29851, 3,  -0.656,  7.329,  0.136, 4,   0.043, -0.504, -0.081, 5,  24.637,-44.281,  9.026
705084.31838, 3,  -1.180,  5.697,  0.507, 4,  -0.120, -0.462,  0.098, 5,  24.651,-43.562,  6.845
705084.33824, 3,  -0.931, 12.388, -5.346, 4,  -0.103, -0.390,  0.150, 5,  22.632,-44.328,  8.296
705084.35811, 3,   1.469,  9.380, -4.422, 4,   0.090, -0.330,  0.168, 5,  23.300,-44.312,  8.298
705084.37798, 3,   2.101,  7.286, -3.616, 4,   0.067, -0.173,  0.252, 5,  23.318,-43.600,  9.023
705084.39784, 3,   3.115, 13.038, -4.266, 4,   0.048,  0.025,  0.262, 5,  23.936,-45.724,  9.027
705084.41771, 3,   2.960,  7.341,  0.304, 4,  -0.005,  0.260,  0.234, 5,  21.968,-44.348,  9.747
705084.43758, 3,   1.225,  9.576, -2.553, 4,  -0.089,  0.427,  0.136, 5,  21.970,-44.350, 10.474
705084.45741, 3,  -0.491, 12.191, -3.395, 4,   0.065,  0.444, -0.021, 5,  21.286,-45.078,  9.747
705084.47731, 3,  -1.137,  4.714, -4.484, 4,   0.120,  0.388, -0.118, 5,  22.652,-43.619,  9.747
705084.49718, 3,  -4.946,  9.263, -4.800, 4,   0.094,  0.312, -0.189, 5,  22.002,-42.921,  9.744
705084.51705, 3,  -2.981,  3.302,  3.159, 4,   0.054,  0.279, -0.170, 5,  21.318,-43.651,  9.744
705084.53691, 3,  -3.156, 10.172,  0.569, 4,  -0.170,  0.193, -0.158, 5,  22.652,-43.619,  9.747
705084.55678, 3,  -2.634, 13.036, -6.745, 4,  -0.073, -0.027, -0.195, 5,  21.335,-42.937,  9.743
705084.57665, 3,  -2.965,  5.276, -3.525, 4,   0.017, -0.261, -0.161, 5,  22.652,-43.619,  9.747
705084.59651, 3,  -1.201, 11.715, -2.883, 4,  -0.081, -0.339, -0.059, 5,  22.017,-42.209,  9.741
705084.61638, 3,   0.309, 12.117, -0.062, 4,  -0.143, -0.306,  0.052, 5,  24.670,-42.854,  9.023
705084.63625, 3,   2.678, 10.684,  3.077, 4,  -0.180, -0.247,  0.114, 5,  23.384,-40.746,  9.015
705084.65611, 3,   0.553,  8.629, -0.184, 4,  -0.131, -0.201,  0.090, 5,  22.633,-44.330,  9.023
705084.67595, 3,   1.665,  6.214, -5.482, 4,  -0.049, -0.168,  0.080, 5,  21.350,-42.224,  9.740
705084.69582, 3,   2.436, 12.232, -7.621, 4,   0.145, -0.141,  0.045, 5,  21.965,-44.345,  8.295
705084.71568, 3,   2.472, 10.091, -3.293, 4,   0.123,  0.090,  0.045, 5,  22.035,-41.496, 10.466
705084.73555, 3,   1.551,  7.743,  1.299, 4,   0.002,  0.362,  0.019, 5,  22.003,-42.924, 11.195
705084.75542, 3,   0.005,  8.600, -3.405, 4,  -0.072,  0.427, -0.074, 5,  23.335,-42.886,  9.021
705084.77468, 3,  -1.027, 10.521, -5.195, 4,   0.002,  0.320, -0.192, 5,  23.367,-41.460,  9.016
705084.79518, 3,  -1.180, 10.361, -4.259, 4,   0.084,  0.129, -0.244, 5,  24.002,-42.871,  9.021
705084.81505, 3,  -0.596, 12.335, -2.460, 4,  -0.020, -0.024, -0.238, 5,  22.017,-42.209,  9.741
705084.83492, 3,  -1.395,  8.830,  0.182, 4,  -0.093, -0.124, -0.169, 5,  23.384,-40.746,  9.015
705084.85478, 3,  -1.570,  8.148, -2.453, 4,  -0.138, -0.300, -0.152, 5,  24.669,-42.853,  8.296
705084.87462, 3,  -1.912, 12.029, -5.621, 4,  -0.050, -0.529, -0.134, 5,  22.714,-40.761,  8.287
705084.89449, 3,  -0.416,  8.688, -3.345, 4,   0.011, -0.702, -0.035, 5,  24.706,-41.431, 10.471
705084.91435, 3,   1.493, 13.417, -1.957, 4,  -0.055, -0.749,  0.068, 5,  22.665,-42.902,  8.293
705084.93422, 3,   2.589,  8.506,  0.632, 4,  -0.106, -0.632,  0.190, 5,  23.317,-43.599,  8.296
705084.95409, 3,   1.653, 12.993, -2.613, 4,  -0.088, -0.389,  0.221, 5,  22.679,-42.184,  6.837
705084.97396, 3,   0.818,  4.853, -1.397, 4,   0.060, -0.104,  0.159, 5,  22.647,-43.611,  6.842
705084.99382, 3,  -1.110,  8.916, -7.339, 4,   0.138,  0.150,  0.146, 5,  24.001,-42.868,  7.568
705085.01369, 3,  -0.182, 11.658, -5.188, 4,   0.183,  0.334,  0.082, 5,  21.980,-43.628,  6.841
705085.03356, 3,  -0.347,  9.509,  0.258, 4,   0.055,  0.494,  0.072, 5,  23.349,-42.172,  8.292
705085.05345, 3,  -0.462,  9.430, -0.103, 4,  -0.088,  0.552,  0.041, 5,  23.334,-42.883,  7.568
705085.07332, 3,  -2.189, 10.897, -2.584, 4,  -0.032,  0.409, -0.090, 5,  22.014,-42.206,  8.289
705085.09316, 3,  -4.570,  6.374, -5.649, 4,   0.070,  0.206, -0.153, 5,  20.663,-42.949,  7.564
705085.11302, 3,  -3.293, 13.579, -0.651, 4,   0.059, -0.009, -0.164, 5,  22.679,-42.184,  6.837
705085.13289, 3,  -1.445,  5.805,  1.486, 4,  -0.020, -0.201, -0.080, 5,  22.011,-42.200,  6.110
705085.15276, 3,  -1.775,  9.980, -3.417, 4,  -0.107, -0.343,  0.010, 5,  22.681,-42.188,  7.564
705085.17262, 3,  -2.122, 10.854, -5.245, 4,   0.049, -0.460,  0.046, 5,  22.028,-41.486,  6.108
705085.19249, 3,  -0.234,  4.491, -3.778, 4,   0.110, -0.485,  0.128, 5,  22.664,-42.897,  6.841
705085.21236, 3,   1.070, 15.115, -4.171, 4,   0.015, -0.399,  0.249, 5,  21.997,-42.914,  6.839
705085.23223, 3,   4.305,  4.912, -0.581, 4,  -0.004, -0.235,  0.291, 5,  22.014,-42.204,  7.562
705085.25206, 3,   2.185,  7.513, -3.424, 4,  -0.067,  0.011,  0.312, 5,  21.999,-42.917,  7.565
705085.27193, 3,   1.560, 12.675, -2.816, 4,   0.023,  0.274,  0.232, 5,  22.649,-43.616,  8.295
705085.29180, 3,   0.792, 11.399, -0.096, 4,   0.031,  0.431,  0.118, 5,  21.298,-44.359,  7.567
705085.31166, 3,  -0.462,  8.980, -1.898, 4,  -0.056,  0.474,  0.063
705085.33156, 3,  -0.053, 13.309, -4.623, 4,   0.016,  0.364, -0.054, 5,  21.315,-43.646,  7.565
705085.35143, 3,  -1.072,  5.846, -1.498, 4,   0.082,  0.262, -0.073, 5,  21.349,-42.223,  9.013
705085.37129, 3,  -1.570, 10.236, -3.316, 4,  -0.027,  0.106, -0.092, 5,  22.650,-43.617,  9.021
705085.39116, 3,  -2.115, 11.636, -0.304, 4,  -0.008, -0.074, -0.115, 5,  23.967,-44.296,  8.298
705085.41103, 3,  -2.027,  8.952, -1.831, 4,  -0.063, -0.208, -0.069, 5,  23.283,-45.021,  6.847
705085.43089, 3,  -2.079, 15.135, -5.305, 4,  -0.059, -0.300, -0.035, 5,  26.575,-47.084,  8.310
705085.45076, 3,  -0.287,  8.760, -1.737, 4,   0.029, -0.290,  0.069, 5,  24.638,-44.283,  9.752
705085.47063, 3,   0.574,  9.330,  0.514, 4,  -0.090, -0.187,  0.153, 5,  20.598,-45.802,  7.570
705085.49047, 3,   0.263,  9.961, -2.900, 4,  -0.008, -0.070,  0.123, 5,  21.297,-44.356,  6.841
705085.51033, 3,   1.058,  8.418, -3.936, 4,   0.119,  0.017,  0.107, 5,  21.965,-44.344,  7.568
705085.53020, 3,   0.246, 14.292, -5.362, 4,   0.155,  0.085,  0.063, 5,  21.251,-46.503,  9.024
705085.55007, 3,   1.854,  5.274,  0.955, 4,   0.088,  0.175,  0.079, 5,  22.632,-44.328,  8.296
705085.56993, 3,  -0.268,  2.051, -0.534, 4,  -0.034,  0.199,  0.051, 5,  22.649,-43.614,  7.568
705085.58980, 3,  -2.800, 15.163,-10.466, 4,   0.051,  0.199, -0.076, 5,  22.649,-43.614,  7.568
705085.60967, 3,  -1.766,  4.376, -3.553, 4,   0.214,  0.117, -0.134, 5,  22.649,-43.614,  7.568
705085.62956, 3,  -1.656, 11.969, -0.167, 4,  -0.024,  0.045, -0.090, 5,  21.967,-44.347,  9.021
705085.64943, 3,  -0.333, 11.699,  1.012, 4,  -0.188,  0.004, -0.040, 5,  23.299,-44.307,  6.845
705085.66930, 3,  -1.357,  9.397, -0.696, 4,  -0.169, -0.054, -0.016, 5,  23.285,-45.024,  7.573
705085.68913, 3,  -2.070,  9.143, -2.596, 4,  -0.048, -0.038, -0.035, 5,  22.632,-44.328,  8.296
705085.70900, 3,  -1.893,  4.920, -1.905, 4,   0.075, -0.014, -0.035, 5,  22.600,-45.755,  8.299
705085.72887, 3,  -0.620, 10.464, -4.776, 4,   0.053,  0.042, -0.003, 5,  22.633,-44.330,  9.023
705085.74874, 3,   1.388, 10.275, -3.264, 4,   0.020,  0.079,  0.023, 5,  22.598,-45.750,  6.847
705085.76860, 3,   1.732,  8.033, -1.074, 4,  -0.037,  0.124,  0.042, 5,  23.938,-45.726,  9.753
705085.78847, 3,   1.505, 10.641, -2.974, 4,  -0.076,  0.090, -0.018, 5,  21.918,-46.487,  9.026
705085.80834, 3,   0.349,  8.959, -2.661, 4,  -0.032,  0.013, -0.082, 5,  21.953,-45.062,  9.749
705085.82820, 3,   0.098, 10.481, -1.620, 4,  -0.033, -0.104, -0.124, 5,  22.617,-45.042,  8.298
705085.84807, 3,   0.481,  8.674, -3.237, 4,  -0.071, -0.270, -0.145, 5,  23.936,-45.724,  9.027
705085.86794, 3,   0.220,  9.923, -1.917, 4,  -0.018, -0.408, -0.107, 5,  24.637,-44.281,  9.026
705085.88780, 3,   0.254, 10.134, -3.269, 4,   0.022, -0.531, -0.102, 5,  23.953,-45.012,  9.026
705085.90767, 3,  -0.194,  8.540, -4.037, 4,   0.061, -0.534, -0.063, 5,  22.600,-45.755,  8.299
705085.92754, 3,  -0.957, 15.082, -4.826, 4,   0.079, -0.439,  0.010, 5,  23.285,-45.026,  8.299
705085.94740, 3,   2.240,  7.571, -0.357, 4,   0.081, -0.322,  0.075, 5,  22.617,-45.041,  7.571
705085.96727, 3,   1.239,  5.348, -2.745, 4,  -0.021, -0.197,  0.147, 5,  21.983,-43.634,  9.019
705085.98714, 3,   1.046, 10.560, -5.025, 4,   0.050, -0.079,  0.137, 5,  23.952,-45.009,  7.573
705086.00701, 3,  -0.945, 10.071, -4.546, 4,   0.132,  0.039,  0.111, 5,  23.952,-45.010,  8.299
705086.02687, 3,   0.634, 14.649, -3.474, 4,   0.076,  0.175,  0.114, 5,  20.663,-42.949,  7.564
705086.04674, 3,   1.050,  8.258,  1.534, 4,   0.006,  0.200,  0.100, 5,  21.300,-44.362,  9.019
705086.06661, 3,  -0.558, 10.868, -1.584, 4,  -0.115,  0.197,  0.112, 5,  22.600,-45.753,  7.573
705086.08647, 3,  -1.570,  9.528, -2.118, 4,  -0.028,  0.073,  0.043, 5,  22.635,-44.331,  9.749
705086.10631, 3,  -3.321,  8.535, -0.809, 4,   0.053, -0.068, -0.015, 5,  23.300,-44.310,  7.571
705086.12618, 3,  -2.316,  9.150, -3.788, 4,   0.016, -0.157,  0.037, 5,  22.600,-45.755,  8.299
705086.14604, 3,  -1.622, 12.246, -3.376, 4,   0.046, -0.277,  0.096, 5,  21.931,-45.767,  6.845
705086.16591, 3,  -0.512,  9.351, -0.340, 4,   0.017, -0.273,  0.214, 5,  21.935,-45.773,  9.024
705086.18578, 3,  -0.373,  9.155, -1.618, 4,  -0.045, -0.129,  0.289, 5,  21.933,-45.772,  8.298
705086.20568, 3,  -0.981, 13.713, -4.283, 4,   0.042,  0.073,  0.246, 5,  22.632,-44.327,  7.570
705086.22554, 3,  -1.072,  3.235, -1.290, 4,   0.103,  0.273,  0.250, 5,  21.916,-46.484,  7.573
705086.24541, 3,   0.290, 13.089, -4.599, 4,   0.048,  0.431,  0.228, 5,  21.899,-47.194,  6.850
705086.26528, 3,   0.591,  9.141, -1.043, 4,   0.072,  0.486,  0.203, 5,  20.598,-45.804,  8.296
705086.28514, 3,   0.136,  7.906,  0.012, 4,  -0.031,  0.510,  0.169, 5,  21.268,-45.789,  9.023
705086.30498, 3,  -0.347, 11.079, -3.328, 4,  -0.002,  0.505,  0.037, 5,  21.283,-45.074,  8.295
705086.32485, 3,  -1.330,  4.594, -3.288, 4,   0.105,  0.420, -0.048, 5,  19.901,-47.250,  9.752
705086.34471, 3,  -1.909, 13.429, -6.030, 4,   0.073,  0.343, -0.096, 5,  21.251,-46.503,  9.024
705086.36458, 3,  -0.249, 10.205,  0.412, 4,   0.033,  0.272, -0.102, 5,  21.271,-45.792, 10.475
705086.38445, 3,  -1.072,  4.106,  2.596, 4,  -0.127,  0.202, -0.073, 5,  19.983,-43.686, 10.469
705086.40431, 3,  -1.524, 14.666, -5.250, 4,  -0.132,  0.132, -0.131, 5,  21.971,-44.353, 11.926
705086.42418, 3,  -1.314,  7.580, -3.692, 4,   0.070,  0.022, -0.154, 5,  21.269,-45.790,  9.749
705086.44405, 3,  -0.579,  6.733, -3.683, 4,   0.013, -0.019, -0.102, 5,  21.271,-45.792, 10.475
705086.46391, 3,   1.330, 15.675, -4.508, 4,  -0.017, -0.018, -0.080, 5,  19.934,-45.827, 11.198
705086.48381, 3,   1.840,  4.398,  0.701, 4,  -0.037, -0.005, -0.034, 5,  21.286,-45.078,  9.747
705086.50368, 3,   0.948, 10.799, -4.577, 4,  -0.134,  0.041, -0.049, 5,  20.602,-45.808, 10.475
705086.52352, 3,   0.979,  6.406, -2.407, 4,  -0.006,  0.013, -0.118, 5,  22.588,-46.474, 10.480
705086.54338, 3,   0.627, 15.491, -3.355, 4,   0.001, -0.046, -0.129, 5,  21.236,-47.215,  9.027
705086.56325, 3,   1.630,  7.576, -2.350, 4,  -0.010, -0.043, -0.154, 5,  21.954,-45.064, 10.475
705086.58312, 3,  -0.196,  7.616,  0.562, 4,  -0.065, -0.063, -0.161, 5,  22.636,-44.333, 10.475
705086.60298, 3,  -1.041,  9.373, -3.551, 4,  -0.057, -0.121, -0.192, 5,  21.953,-45.062,  9.749
705086.62285, 3,  -0.352,  9.959, -4.948, 4,   0.049, -0.212, -0.194, 5,  21.271,-45.792, 10.475
705086.64272, 3,   0.246, 12.694, -4.826, 4,   0.094, -0.284, -0.165, 5,  21.950,-45.058,  7.570
705086.66258, 3,   0.711,  9.887, -1.452, 4,   0.002, -0.247, -0.111, 5,  22.601,-45.757,  9.026
705086.68242, 3,   1.091, 14.879,  0.450, 4,  -0.133, -0.167, -0.034, 5,  21.269,-45.790,  9.749
705086.70232, 3,   1.687,  5.310,  3.407, 4,  -0.122, -0.187, -0.052, 5,  23.303,-44.315,  9.750
705086.72215, 3,  -2.204, 12.352, -6.884, 4,  -0.054, -0.200, -0.109, 5,  24.652,-43.567,  8.298
705086.74202, 3,  -1.208, 10.162, -5.908, 4,   0.191, -0.272, -0.178, 5,  22.600,-45.755,  8.299
705086.76192, 3,  -2.783,  9.504, -3.474, 4,   0.192, -0.325, -0.133, 5,  22.585,-46.471,  9.027
705086.78179, 3,  -0.447, 10.100, -1.460, 4,   0.012, -0.234,  0.006, 5,  22.636,-44.334, 11.200
705086.80165, 3,  -0.617,  9.054,  0.172, 4,  -0.034, -0.269,  0.053, 5,  21.951,-45.061,  9.023
705086.82152, 3,  -0.754, 14.063, -1.967, 4,  -0.021, -0.268,  0.056, 5,  21.950,-45.058,  7.570
705086.84139, 3,   0.266,  7.267, -2.910, 4,   0.064, -0.256,  0.075, 5,  23.285,-45.026,  8.299
705086.86125, 3,   0.400, 13.094, -4.264, 4,   0.072, -0.203,  0.080, 5,  21.965,-44.345,  8.295
705086.88112, 3,   0.213,  4.544,  0.120, 4,   0.022, -0.048,  0.137, 5,  21.997,-42.914,  6.839
705086.90099, 3,  -0.577,  9.600, -1.405, 4,  -0.060,  0.036,  0.145, 5,  21.965,-44.345,  8.295
705086.92082, 3,  -0.792,  9.799, -4.061, 4,   0.049,  0.078,  0.086, 5,  21.248,-46.497,  6.845
705086.94069, 3,  -1.979,  5.561, -4.733, 4,   0.072,  0.150,  0.064, 5,  22.665,-42.902,  8.293
705086.96056, 3,  -2.192, 13.816, -4.238, 4,   0.068,  0.186,  0.032, 5,  22.650,-43.617,  9.021
705086.98042, 3,  -2.395,  8.815,  1.082, 4,  -0.013,  0.206,  0.051, 5,  21.951,-45.061,  9.023
705087.00029, 3,  -2.804, 10.382, -0.816, 4,  -0.120,  0.186,  0.082, 5,  22.647,-43.611,  6.842
705087.02016, 3,  -2.182,  7.100, -1.295, 4,  -0.059,  0.042,  0.065, 5,  21.297,-44.356,  6.841
705087.04003, 3,  -3.534,  7.181, -3.561, 4,   0.018, -0.080,  0.086, 5,  22.632,-44.328,  8.296
705087.05992, 3,  -0.828, 15.951, -4.108, 4,   0.061, -0.154,  0.117, 5,  21.266,-45.787,  8.296
705087.07979, 3,   3.429,  7.671, -0.048, 4,   0.044, -0.163,  0.202, 5,  21.283,-45.073,  7.568
705087.09966, 3,   2.173,  8.990, -2.060, 4,  -0.065, -0.041,  0.274, 5,  19.930,-45.821,  8.295
705087.11952, 3,   1.886, 10.646, -3.218, 4,   0.005,  0.118,  0.207, 5,  19.962,-44.392,  7.565
705087.13936, 3,   0.445,  4.317, -3.034, 4,   0.078,  0.243,  0.118, 5,  19.951,-45.113, 10.472
705087.15923, 3,   0.648, 14.544, -5.657, 4,   0.054,  0.347,  0.075, 5,  19.931,-45.822,  9.021
705087.17909, 3,   2.204,  8.789, -3.046, 4,   0.098,  0.373,  0.019, 5,  21.300,-44.362,  9.019
705087.19896, 3,   1.524,  7.774, -1.974, 4,  -0.026,  0.430, -0.016, 5,  19.962,-44.392,  7.565
705087.21883, 3,   0.543, 11.632, -4.087, 4,  -0.024,  0.408, -0.102, 5,  19.946,-45.108,  8.293
705087.23869, 3,  -1.393, 11.873, -1.689, 4,  -0.011,  0.296, -0.207, 5,  20.618,-45.094,  9.747
705087.25856, 3,  -2.412, 10.670, -2.163, 4,  -0.068,  0.130, -0.238, 5,  19.281,-45.125,  9.018
705087.27843, 3,  -2.347,  9.555, -0.718, 4,  -0.072, -0.138, -0.238, 5,  20.633,-44.380,  9.746
705087.29830, 3,  -2.539,  7.119, -1.807, 4,  -0.043, -0.421, -0.179, 5,  21.985,-43.636,  9.746
705087.31816, 3,  -4.113, 10.335, -5.771, 4,  -0.012, -0.667, -0.111, 5,  21.298,-44.360,  8.293
705087.33803, 3,  -1.842, 10.469, -1.890, 4,   0.056, -0.809, -0.024, 5,  20.647,-43.665,  8.292
705087.35790, 3,   0.191,  6.379, -0.002, 4,  -0.026, -0.821,  0.139, 5,  21.315,-43.646,  7.565
705087.37776, 3,   1.165, 13.613, -4.424, 4,  -0.027, -0.688,  0.251, 5,  19.960,-44.389,  6.839
705087.39763, 3,   2.850,  5.322, -6.226, 4,   0.104, -0.401,  0.321, 5,  19.930,-45.821,  8.295
705087.41750, 3,   2.132, 14.328, -5.860, 4,   0.112, -0.022,  0.367, 5,  19.933,-45.824,  9.747
705087.43736, 3,   2.761,  9.217,  2.788, 4,   0.026,  0.448,  0.317, 5,  19.948,-45.110,  9.019
705087.45723, 3,   2.302,  5.231,  1.981, 4,  -0.199,  0.806,  0.240, 5,  21.301,-44.363,  9.746
705087.47710, 3,   1.582, 17.712, -5.652, 4,  -0.123,  0.873,  0.082, 5,  21.300,-44.362,  9.019
705087.49697, 3,   0.610,  6.209, -1.235, 4,   0.081,  0.680, -0.075, 5,  21.938,-45.778, 11.201
705087.51683, 3,  -1.218, 13.208, -3.180, 4,   0.018,  0.433, -0.159, 5,  20.647,-43.665,  8.292
705087.53667, 3,  -3.642, -0.450, -1.295, 4,   0.002,  0.171, -0.271, 5,  19.946,-45.108,  8.293
705087.55654, 3,  -5.463, 13.362, -4.695, 4,  -0.078, -0.124, -0.253, 5,  21.950,-45.059,  8.296
705087.57640, 3,  -3.434,  3.118, -2.611, 4,   0.088, -0.482, -0.192, 5,  20.665,-42.952,  9.016
705087.59627, 3,  -1.988, 16.257, -3.482, 4,  -0.039, -0.729, -0.074, 5,  19.312,-43.695,  7.562
705087.61614, 3,  -0.792,  9.081, -1.608, 4,  -0.006, -0.703,  0.074, 5,  19.312,-43.697,  8.289
705087.63603, 3,  -0.354,  6.834, -0.019, 4,  -0.067, -0.467,  0.197, 5,  21.283,-45.073,  7.568
705087.65590, 3,   0.156, 13.625, -3.115, 4,  -0.006, -0.123,  0.262, 5,  19.325,-42.976,  6.108
705087.67577, 3,   2.225,  7.645, -0.196, 4,   0.104,  0.145,  0.268, 5,  19.978,-43.681,  8.290
705087.69563, 3,   3.316,  9.667, -7.174, 4,   0.086,  0.362,  0.267, 5,  19.344,-42.268,  7.558
705087.71550, 3,   2.692,  9.665,  0.457, 4,   0.178,  0.584,  0.221, 5,  19.963,-44.395,  9.018
705087.73537, 3,   1.436,  6.226, -1.795, 4,   0.078,  0.704,  0.117, 5,  18.663,-43.002,  9.740
705087.75520, 3,  -0.991, 15.565, -5.862, 4,  -0.010,  0.686, -0.040, 5,  18.010,-42.307,  9.735
705087.77507, 3,  -2.209,  8.143,  0.861, 4,   0.062,  0.448, -0.147, 5,  18.626,-44.426,  8.290
705087.79494, 3,  -2.718, 14.347, -2.998, 4,  -0.071,  0.169, -0.189, 5,  18.660,-42.999,  8.287
705087.81481, 3,  -0.179, 12.031, -0.672, 4,  -0.020, -0.085, -0.191, 5,  20.012,-42.256,  9.012
705087.83467, 3,  -2.043,  1.900, -1.505, 4,   0.012, -0.200, -0.124, 5,  19.997,-42.969,  9.015
705087.85454, 3,  -4.245, 16.489,-11.359, 4,   0.048, -0.170, -0.120, 5,  18.626,-44.424,  7.564
705087.87440, 3,  -1.936,  5.300, -2.704, 4,   0.220, -0.116, -0.020, 5,  19.344,-42.268,  7.558
705087.89427, 3,  -0.938, 12.230, -1.692, 4,  -0.011, -0.013,  0.107, 5,  18.640,-43.707,  6.110
705087.91417, 3,   1.577,  8.954,  0.933, 4,  -0.089,  0.046,  0.153, 5,  17.961,-44.446,  9.741
705087.93404, 3,   0.680,  5.989, -2.144, 4,  -0.074,  0.037,  0.162, 5,  19.313,-43.698,  9.015
705087.95387, 3,   0.873, 16.587, -7.585, 4,   0.017,  0.007,  0.087, 5,  19.313,-43.698,  9.015
705087.97374, 3,   2.022,  3.977, -1.395, 4,   0.117, -0.027,  0.084, 5,  18.626,-44.424,  7.564
705087.99361, 3,   2.431, 15.733, -1.108, 4,  -0.107,  0.044,  0.052, 5,  17.291,-44.458,  8.287
705088.01347, 3,   0.912,  6.709,  2.084, 4,  -0.082,  0.123,  0.002, 5,  17.958,-44.443,  8.289
705088.03334, 3,  -0.550, 10.538, -2.812, 4,  -0.034,  0.188, -0.042, 5,  17.960,-44.444,  9.015
705088.05321, 3,  -3.307, 11.311, -6.193, 4,   0.149,  0.188, -0.165, 5,  17.293,-44.460,  9.013
705088.07307, 3,  -2.335,  1.007, -3.864, 4,   0.182,  0.147, -0.180, 5,  19.951,-45.114, 11.197
705088.09294, 3,  -0.775, 15.628, -6.130, 4,   0.042,  0.053, -0.145, 5,  19.316,-43.703, 11.192
705088.11281, 3,   0.172,  8.183,  0.964, 4,  -0.022,  0.002, -0.085, 5,  17.291,-44.456,  7.561
705088.13267, 3,   0.768,  6.597, -1.572, 4,  -0.177,  0.004, -0.016, 5,  18.645,-43.715,  9.015
705088.15254, 3,  -0.364, 12.158, -5.161, 4,  -0.057, -0.030, -0.068, 5,  18.613,-45.142,  9.018
705088.17238, 3,  -0.531,  4.228, -3.252, 4,   0.072, -0.019, -0.086, 5,  18.660,-42.999,  8.287
705088.19228, 3,   0.026, 13.311, -6.264, 4,  -0.023,  0.002, -0.091, 5,  19.978,-43.680,  7.564
705088.21214, 3,   1.515, 11.203,  0.988, 4,  -0.049, -0.003, -0.087, 5,  19.949,-45.111,  9.746
705088.23201, 3,  -0.687,  6.310,  2.249, 4,  -0.186, -0.046, -0.053, 5,  20.604,-45.811, 11.928
705088.25188, 3,  -0.787, 10.892, -3.352, 4,  -0.115, -0.170, -0.081, 5,  19.949,-45.111,  9.746
705088.27174, 3,  -0.960,  4.987, -3.661, 4,   0.130, -0.318, -0.102, 5,  20.615,-45.091,  8.295
705088.29161, 3,  -2.515, 12.359, -5.157, 4,   0.100, -0.351, -0.065, 5,  20.628,-44.373,  6.841
705088.31148, 3,   0.574, 10.684, -1.165, 4,   0.070, -0.314, -0.029, 5,  20.581,-46.516,  7.571
705088.33134, 3,   0.598,  5.549,  2.407, 4,  -0.062, -0.253,  0.085, 5,  19.231,-47.261,  7.571
705088.35121, 3,  -0.184, 10.392, -5.850, 4,  -0.094, -0.160,  0.117, 5,  19.231,-47.261,  7.571
705088.37105, 3,   0.167,  9.966, -6.477, 4,   0.095, -0.000,  0.087, 5,  19.231,-47.261,  7.571
705088.39091, 3,  -0.785,  5.518, -1.503, 4,   0.077,  0.254,  0.109, 5,  19.231,-47.261,  7.571
705088.41078, 3,  -0.483, 13.682, -1.574, 4,  -0.057,  0.518,  0.106, 5,  21.252,-46.504,  9.750
705088.43065, 3,  -0.091,  8.894,  1.804, 4,  -0.117,  0.648,  0.072, 5,  17.259,-45.885,  8.290
705088.45052, 3,  -0.593, 10.502, -1.304, 4,  -0.151,  0.618,  0.006, 5,  19.263,-45.836,  8.293
705088.47038, 3,  -1.244, 11.976, -3.570, 4,  -0.027,  0.488, -0.118, 5,  19.281,-45.125,  9.018
705088.49028, 3,  -1.498,  6.389, -2.627, 4,   0.050,  0.334, -0.172, 5,  18.631,-44.431, 10.469
705088.51015, 3,  -2.862, 12.038, -4.886, 4,  -0.017,  0.164, -0.201, 5,  21.954,-45.065, 11.200
705088.53001, 3,  -2.527,  9.808,  1.754, 4,  -0.071, -0.036, -0.183, 5,  20.587,-46.526, 11.929
705088.54988, 3,  -1.555,  8.617,  0.878, 4,  -0.172, -0.340, -0.122
705088.56972, 3,  -2.115, 15.369, -5.465, 4,  -0.127, -0.573, -0.098, 5,  20.619,-45.097, 11.198
705088.58958, 3,   0.019,  5.805, -3.781, 4,   0.121, -0.677, -0.016, 5,  19.965,-44.397,  9.744
705088.60945, 3,   1.177, 10.911, -4.254, 4,   0.094, -0.595,  0.095, 5,  22.585,-46.471,  9.027
705088.62932, 3,   2.410,  6.310, -2.187, 4,   0.078, -0.385,  0.179, 5,  21.921,-46.492, 11.203
705088.64918, 3,   3.405, 12.826, -2.725, 4,   0.032, -0.184,  0.212, 5,  23.242,-47.173, 11.937
705088.66905, 3,   2.788,  5.951, -2.524, 4,   0.049,  0.019,  0.145, 5,  19.333,-42.987, 10.466
705088.68892, 3,   2.965,  6.599, -3.137, 4,   0.050,  0.164,  0.085, 5,  21.303,-44.365, 10.472
705088.70879, 3,   1.105, 15.807, -4.417, 4,   0.070,  0.245, -0.014, 5,  21.255,-46.509, 11.929
705088.72865, 3,   1.141, 10.150, -1.053, 4,   0.037,  0.309, -0.090, 5,  19.299,-44.414, 10.469
705088.74852, 3,  -1.211,  4.283,  1.273, 4,  -0.046,  0.273, -0.136, 5,  19.246,-46.550,  8.295
705088.76778, 3,  -3.331, 10.641, -2.472, 4,  -0.056,  0.085, -0.241, 5,  17.963,-44.449, 11.192
705088.78825, 3,  -3.594,  9.779, -7.138, 4,   0.067, -0.152, -0.260, 5,  19.313,-43.698,  9.015
705088.80812, 3,  -3.214, 10.796, -3.264, 4,   0.094, -0.338, -0.190, 5,  19.997,-42.969,  9.015
705088.82799, 3,   0.048,  5.803,  0.160, 4,  -0.059, -0.450, -0.063, 5,  19.983,-43.687, 11.194
705088.84785, 3,  -1.187, 17.774, -2.996, 4,  -0.099, -0.482,  0.087, 5,  21.317,-43.649,  9.018
705088.86772, 3,  -0.952,  5.503,  1.273, 4,  -0.028, -0.383,  0.144, 5,  20.000,-42.972, 10.468
705088.88759, 3,  -1.397, 12.426, -3.441, 4,  -0.024, -0.225,  0.200, 5,  19.295,-44.409,  8.290
705088.90746, 3,  -0.026, 10.380, -2.888, 4,   0.109, -0.047,  0.233, 5,  16.658,-43.048,  8.282
705088.92732, 3,   2.400, 10.043, -2.979, 4,   0.105,  0.128,  0.256, 5,  17.310,-43.747,  9.012
705088.94719, 3,   1.706,  9.251, -4.348, 4,   0.128,  0.373,  0.262, 5,  17.976,-43.732,  9.013
705088.96706, 3,   0.538,  2.268,  0.136, 4,   0.108,  0.580,  0.196, 5,  20.654,-43.675, 12.650
705088.98689, 3,  -0.586, 15.027, -6.609, 4,   0.044,  0.685,  0.079, 5,  20.018,-42.265, 12.643
705089.00676, 3,  -1.165, 13.845, -2.678, 4,   0.136,  0.691, -0.018, 5,  20.685,-42.245, 11.919
705089.02663, 3,  -2.347, 10.634, -0.806, 4,   0.020,  0.599, -0.081, 5,  17.361,-41.611, 11.183
705089.04649, 3,  -1.074,  5.116,  0.053, 4,  -0.131,  0.472, -0.119, 5,  18.011,-42.310, 11.186
705089.06639, 3,  -2.311, 12.201, -5.111, 4,  -0.059,  0.270, -0.181, 5,  19.334,-42.990, 11.919
705089.08626, 3,  -2.800, 11.352, -2.955, 4,   0.039,  0.116, -0.230, 5,  19.318,-43.704, 11.920
705089.10612, 3,  -3.465,  4.345, -2.242, 4,  -0.011, -0.015, -0.161, 5,  18.700,-41.583, 12.640
705089.12599, 3,  -2.362,  9.459, -3.151, 4,  -0.077, -0.173, -0.163, 5,  18.646,-43.716,  9.741
705089.14586, 3,   0.352, 11.098, -4.783, 4,  -0.005, -0.281, -0.096, 5,  16.692,-41.623,  9.004
705089.16573, 3,   1.720,  9.746, -3.001, 4,  -0.032, -0.279, -0.004, 5,  18.680,-42.293, 11.188
705089.18559, 3,   2.632, 11.110,  1.689, 4,  -0.089, -0.214,  0.008, 5,  18.697,-41.577, 10.461
705089.20543, 3,   1.000,  4.728, -1.591, 4,  -0.132, -0.114, -0.001, 5,  18.697,-41.577, 10.461
705089.22530, 3,   1.878, 16.769, -4.568, 4,  -0.059, -0.018, -0.059, 5,  17.993,-43.018,  9.012
705089.24516, 3,   2.582,  6.973, -0.270, 4,   0.090, -0.033, -0.115, 5,  18.665,-43.005, 11.191
705089.26503, 3,   1.460,  7.427, -2.453, 4,  -0.023,  0.045, -0.101, 5,  18.666,-43.007, 11.919
705089.28490, 3,  -0.715, 12.323, -6.832, 4,   0.087,  0.124, -0.228, 5,  18.651,-43.724, 12.646
705089.30476, 3,  -1.440,  3.180, -0.936, 4,   0.133,  0.175, -0.262, 5,  18.694,-41.574,  9.009
705089.32463, 3,  -1.962, 17.195, -5.573, 4,  -0.050,  0.163, -0.255, 5,  19.379,-40.843,  9.007
705089.34453, 3,  -0.893,  9.610,  1.541, 4,  -0.092,  0.019, -0.246, 5,  18.675,-42.287,  8.284
705089.36439, 3,  -1.352,  6.985,  0.773, 4,  -0.236, -0.158, -0.185, 5,  19.365,-41.560, 10.461
705089.38426, 3,  -1.689, 15.367, -5.121, 4,  -0.182, -0.361, -0.189, 5,  19.360,-41.556,  8.282
705089.40410, 3,  -2.295,  1.625, -1.632, 4,  -0.007, -0.537, -0.136, 5,  21.333,-42.935,  9.016
705089.42397, 3,  -1.857, 12.194, -5.879, 4,  -0.060, -0.660, -0.043, 5,  21.317,-43.649,  9.018
705089.44383, 3,   2.070, 13.883, -4.211, 4,   0.059, -0.700,  0.054, 5,  21.336,-42.940, 11.194
705089.46370, 3,   1.993,  0.830,  0.301, 4,  -0.004, -0.613,  0.195, 5,  21.304,-44.368, 11.925
705089.48357, 3,   2.998, 17.216, -5.879, 4,  -0.085, -0.472,  0.251, 5,  18.678,-42.290,  9.737
705089.50343, 3,   3.580,  5.566,  0.773, 4,   0.033, -0.367,  0.221, 5,  19.330,-42.984,  9.013
705089.52330, 3,   1.591,  9.959, -1.984, 4,  -0.051, -0.219,  0.225, 5,  18.680,-42.291, 10.463
705089.54317, 3,   1.603, 14.240, -6.300, 4,   0.032, -0.096,  0.144, 5,  17.996,-43.021, 10.464
705089.56303, 3,   3.577,  3.570, -0.014, 4,   0.122,  0.009,  0.145, 5,  19.328,-42.982,  8.287
705089.58290, 3,   1.211,  9.047, -5.944, 4,   0.050,  0.097,  0.131, 5,  17.294,-44.461,  9.740
705089.60274, 3,   0.804, 15.192, -4.362, 4,   0.166,  0.228,  0.023, 5,  20.679,-42.238,  8.287
705089.62263, 3,  -0.278,  5.673, -1.792, 4,   0.119,  0.303, -0.040, 5,  20.018,-42.265, 12.643
705089.64250, 3,  -3.517, 11.538, -3.101, 4,  -0.012,  0.317, -0.084, 5,  20.653,-43.672, 11.923
705089.66237, 3,  -3.587, 13.177, -0.821, 4,   0.009,  0.202, -0.091, 5,  19.315,-43.700,  9.741
705089.68226, 3,  -3.273,  7.401,  0.620, 4,  -0.044, -0.048, -0.092, 5,  19.333,-42.987, 10.466
705089.70213, 3,  -3.819, 10.009, -2.108, 4,  -0.090, -0.246, -0.079, 5,  18.694,-41.574,  9.009
705089.72199, 3,  -2.922,  9.205, -3.522, 4,   0.039, -0.369, -0.015, 5,  20.665,-42.952,  9.016
705089.74186, 3,  -2.646,  9.763, -4.496, 4,   0.078, -0.411,  0.080, 5,  20.010,-42.255,  8.286
705089.76173, 3,  -0.904, 12.203, -1.603, 4,   0.029, -0.344,  0.212, 5,  19.312,-43.695,  7.562
705089.78159, 3,  -0.043,  5.637, -0.179, 4,   0.002, -0.228,  0.299, 5,  19.995,-42.967,  8.289
705089.80143, 3,  -1.117, 10.337, -4.443, 4,  -0.040, -0.054,  0.295, 5,  22.000,-42.920,  9.018
705089.82130, 3,  -0.191,  9.995, -4.671, 4,   0.117,  0.105,  0.261, 5,  21.303,-44.365, 10.472
705089.84116, 3,   1.005,  9.255,  0.534, 4,   0.104,  0.289,  0.252, 5,  19.315,-43.700,  9.741
705089.86103, 3,   0.400, 11.318, -1.278, 4,  -0.028,  0.522,  0.240, 5,  17.992,-43.016,  8.286
705089.88090, 3,   0.160,  9.401,  0.311, 4,   0.010,  0.665,  0.155, 5,  19.962,-44.394,  8.292
705089.90076, 3,  -1.125,  7.949, -2.728, 4,   0.076,  0.723,  0.026, 5,  19.981,-43.684,  9.743
705089.92066, 3,  -2.546,  7.961, -5.097, 4,   0.131,  0.709, -0.081, 5,  21.352,-42.226, 10.466
705089.94053, 3,  -2.175, 10.581, -2.362, 4,   0.145,  0.625, -0.148, 5,  19.966,-44.398, 10.471
705089.96040, 3,  -1.835, 12.503, -1.113, 4,   0.021,  0.515, -0.168, 5,  18.631,-44.431, 10.469
705089.98026, 3,  -1.905,  6.985,  0.589, 4,  -0.033,  0.366, -0.179, 5,  20.668,-42.957, 11.194
705090.00013, 3,  -2.259,  9.509, -5.123, 4,  -0.005,  0.124, -0.217, 5,  19.983,-43.686, 10.469
705090.01997, 3,  -2.644,  6.841, -6.913, 4,   0.081, -0.136, -0.236, 5,  20.670,-42.958, 11.922
705090.03983, 3,  -2.517, 13.113, -3.441, 4,   0.081, -0.301, -0.162, 5,  19.966,-44.398, 10.471
705090.05970, 3,   1.847,  8.600,  0.335, 4,  -0.094, -0.427, -0.096, 5,  20.648,-43.666,  9.018
705090.07957, 3,   0.160,  7.303, -0.077, 4,  -0.192, -0.485,  0.009, 5,  18.661,-43.001,  9.013
705090.09943, 3,   0.569,  9.330, -7.930, 4,  -0.027, -0.479,  0.024, 5,  18.626,-44.424,  7.564
705090.11930, 3,   0.955,  9.959, -5.465, 4,   0.152, -0.411,  0.035, 5,  19.946,-45.108,  8.293
705090.13917, 3,   1.787,  5.654, -4.621, 4,   0.092, -0.182,  0.111, 5,  19.946,-45.108,  8.293
705090.15903, 3,   2.388, 12.534, -1.177, 4,  -0.072,  0.121,  0.118, 5,  20.599,-45.805,  9.023
705090.17890, 3,   3.257,  6.609,  1.464, 4,  -0.142,  0.391,  0.101, 5,  20.586,-46.523, 10.477
705090.19880, 3,   2.522, 16.039, -0.349, 4,  -0.203,  0.486, -0.004, 5,  20.602,-45.810, 11.200
705090.21864, 3,   1.610,  7.403,  0.074, 4,  -0.067,  0.447, -0.183, 5,  20.647,-43.663,  7.565
705090.23850, 3,  -1.500,  8.358, -4.609, 4,  -0.078,  0.325, -0.289, 5,  21.320,-43.652, 10.471
705090.25837, 3,  -3.441, 12.407, -4.750, 4,   0.029,  0.139, -0.403, 5,  20.631,-44.379,  9.019
705090.27824, 3,  -1.886,  4.819,  1.292, 4,  -0.048, -0.098, -0.388, 5,  21.965,-44.344,  7.568
705090.29810, 3,  -2.572, 14.130, -3.805, 4,  -0.183, -0.396, -0.299, 5,  23.318,-43.600,  9.023
705090.31797, 3,  -1.625,  5.176,  0.043, 4,  -0.083, -0.637, -0.266, 5,  21.982,-43.633,  8.293
705090.33784, 3,  -2.367, 11.442, -5.367, 4,  -0.055, -0.779, -0.191, 5,  22.002,-42.921,  9.744
705090.35770, 3,  -1.378, 16.570, -3.199, 4,   0.020, -0.787, -0.112, 5,  22.620,-45.045,  9.750
705090.37757, 3,  -1.586,  5.197,  3.470, 4,  -0.043, -0.774,  0.043, 5,  23.318,-43.600,  9.023
705090.39744, 3,  -0.500, 13.371, -1.460, 4,  -0.137, -0.835,  0.188, 5,  21.979,-43.626,  6.114
705090.41727, 3,   2.024,  2.395, -3.235, 4,   0.068, -0.948,  0.246, 5,  22.615,-45.038,  6.845
705090.43714, 3,  -0.747, 12.268,-12.928, 4,   0.252, -0.962,  0.282, 5,  19.962,-44.392,  7.565
705090.45701, 3,   2.477,  9.232, -3.584, 4,   0.340, -0.638,  0.332, 5,  21.329,-42.926,  5.385
705090.47688, 3,   4.338, 10.131,  1.706, 4,   0.012, -0.151,  0.487, 5,  20.612,-45.085,  6.116
705090.49677, 3,   3.479,  7.901,  1.572, 4,  -0.129,  0.359,  0.526, 5,  20.613,-45.087,  6.842
705090.51664, 3,   1.553, 14.144, -5.448, 4,  -0.017,  0.700,  0.344, 5,  20.612,-45.084,  5.389
705090.53651, 3,  -0.510,  9.937, -4.424, 4,   0.180,  0.940,  0.152, 5,  21.283,-45.073,  7.568
705090.55637, 3,  -2.508,  0.132, -2.168, 4,   0.131,  1.009,  0.024, 5,  21.318,-43.651,  9.744
705090.57624, 3,  -3.099, 16.302, -6.451, 4,  -0.031,  0.931, -0.071, 5,  20.633,-44.380,  9.746
705090.59611, 3,  -4.099,  5.989, -0.464, 4,   0.108,  0.708, -0.153, 5,  20.631,-44.379,  9.019
705090.61597, 3,  -3.850, 13.280, -1.541, 4,  -0.073,  0.322, -0.179, 5,  21.298,-44.360,  8.293
705090.63581, 3,  -3.013,  9.332, -0.033, 4,  -0.045, -0.137, -0.198, 5,  21.315,-43.648,  8.292
705090.65568, 3,  -4.862,  5.886, -3.482, 4,  -0.040, -0.406, -0.118, 5,  19.292,-44.403,  6.111
705090.67554, 3,  -3.312, 14.355, -6.262, 4,   0.016, -0.514, -0.032, 5,  21.297,-44.356,  6.841
705090.69541, 3,  -1.050, 10.737,  1.254, 4,   0.079, -0.492,  0.135, 5,  21.283,-45.074,  8.295
705090.71528, 3,   2.357,  4.455,  1.919, 4,  -0.107, -0.361,  0.306, 5,  19.946,-45.108,  8.293
705090.73515, 3,   2.477, 14.862, -3.864, 4,  -0.101, -0.179,  0.354, 5,  22.618,-45.044,  9.024
705090.75501, 3,   2.347,  9.232, -6.829, 4,   0.183,  0.063,  0.321, 5,  19.934,-45.825, 10.474
705090.77491, 3,   1.653, 16.872, -5.192, 4,   0.204,  0.334,  0.279, 5,  20.581,-46.518,  8.298
705090.79478, 3,   1.254,  4.946,  6.126, 4,   0.072,  0.614,  0.236, 5,  19.247,-46.552,  9.021
705090.81464, 3,  -0.440,  4.489, -0.538, 4,  -0.144,  0.712,  0.131, 5,  19.250,-46.555, 10.474
705090.83448, 3,  -2.512, 17.992,-12.479, 4,   0.051,  0.560, -0.047, 5,  20.615,-45.091,  8.295
705090.85435, 3,  -1.390,  7.738, -1.515, 4,   0.269,  0.325, -0.118, 5,  18.581,-46.570,  9.747
705090.87421, 3,  -0.596, 11.622,  0.723, 4,   0.002,  0.188, -0.111, 5,  20.583,-46.519,  9.024
705090.89408, 3,  -1.184,  9.042,  0.309, 4,  -0.155,  0.180, -0.087, 5,  20.619,-45.096, 10.474
705090.91395, 3,  -3.407,  8.540, -5.372, 4,  -0.076,  0.116, -0.117, 5,  20.619,-45.097, 11.198
705090.93382, 3,  -3.154, 13.668, -5.791, 4,   0.078,  0.041, -0.186, 5,  21.254,-46.507, 11.201
705090.95368, 3,  -0.971,  7.289, -0.397, 4,   0.056, -0.013, -0.120, 5,  19.899,-47.249,  9.026
705090.97355, 3,  -1.536,  4.896, -2.139, 4,  -0.128, -0.026, -0.038, 5,  20.633,-44.380,  9.746
705090.99342, 3,   0.323, 17.109, -5.795, 4,  -0.072, -0.114, -0.015, 5,  21.288,-45.079, 10.474
705091.01328, 3,   2.941,  7.506,  1.543, 4,   0.012, -0.225, -0.003, 5,  18.594,-45.853,  8.293
705091.03315, 3,   2.450,  6.678, -0.747, 4,  -0.073, -0.195,  0.010, 5,  19.931,-45.822,  9.021
705091.05302, 3,   0.804, 12.524, -3.185, 4,  -0.010, -0.093, -0.034, 5,  19.931,-45.822,  9.021
705091.07288, 3,   1.778,  8.849, -3.613, 4,   0.090, -0.008, -0.128, 5,  19.931,-45.822,  9.021
705091.09275, 3,   1.907,  7.702, -3.886, 4,   0.032, -0.008, -0.150, 5,  19.931,-45.822,  9.021
705091.11262, 3,  -0.806,  7.552, -1.383, 4,   0.046, -0.024, -0.158, 5,  21.970,-44.350, 10.474
705091.13248, 3,  -1.931, 13.960, -3.240, 4,  -0.057, -0.063, -0.230, 5,  22.604,-45.760, 10.478
705091.15235, 3,  -1.962,  0.553,  1.838, 4,  -0.031, -0.215, -0.246, 5,  21.317,-43.649,  9.018
705091.17222, 3,  -2.670, 11.648, -4.161, 4,  -0.054, -0.358, -0.187, 5,  21.300,-44.362,  9.019
705091.19209, 3,  -0.330, 15.271, -6.690, 4,   0.068, -0.441, -0.139, 5,  21.953,-45.062,  9.749
705091.21195, 3,   0.720,  6.329,  1.079, 4,   0.044, -0.479, -0.062, 5,  21.982,-43.631,  7.567
705091.23182, 3,  -0.761,  3.192,  0.299, 4,  -0.127, -0.377,  0.012, 5,  20.598,-45.804,  8.296
705091.25166, 3,  -2.371, 14.046, -6.946, 4,  -0.066, -0.241,  0.050, 5,  20.616,-45.093,  9.021
705091.27152, 3,   0.060, 15.072, -4.953, 4,   0.092, -0.151,  0.046, 5,  21.965,-44.345,  8.295
705091.29139, 3,   3.601,  2.472,  2.570, 4,  -0.026, -0.109,  0.122, 5,  23.878,-48.590, 14.119
705091.31126, 3,  -0.024, 15.965, -2.634, 4,  -0.133, -0.068,  0.207, 5,  21.968,-44.348,  9.747
705091.33112, 3,   0.641,  5.769, -3.606, 4,   0.029, -0.054,  0.140, 5,  21.919,-46.489,  9.752
705091.35102, 3,   1.201,  7.980, -4.221, 4,   0.048, -0.114,  0.101, 5,  20.583,-46.519,  9.024
705091.37089, 3,  -1.146, 11.179, -2.424, 4,   0.072, -0.063,  0.130, 5,  20.647,-43.665,  8.292
705091.39075, 3,   0.471, 12.328, -3.046, 4,   0.007,  0.002,  0.147, 5,  18.626,-44.424,  7.564
705091.41062, 3,   1.237,  7.987,  0.546, 4,   0.004,  0.033,  0.163, 5,  19.962,-44.392,  7.565
705091.43049, 3,  -0.022,  7.174, -2.553, 4,   0.013,  0.042,  0.153, 5,  19.312,-43.697,  8.289
705091.45033, 3,  -1.285, 21.100, -6.051, 4,   0.056,  0.145,  0.074, 5,  19.913,-46.533,  7.570
705091.47019, 3,  -0.395,  0.684,  1.895, 4,   0.158,  0.227,  0.041, 5,  20.587,-46.526, 11.929
705091.49006, 3,  -2.448, 10.512, -5.850, 4,   0.038,  0.281,  0.024, 5,  19.951,-45.114, 11.197
705091.50993, 3,  -1.488, 13.821, -7.882, 4,   0.216,  0.359,  0.025, 5,  20.619,-45.096, 10.474
705091.52979, 3,  -0.452,  7.219, -1.187, 4,   0.131,  0.339,  0.039, 5,  18.629,-44.429,  9.743
705091.54966, 3,  -1.699, 11.885,  0.436, 4,  -0.088,  0.241,  0.009, 5,  19.284,-45.128, 10.471
705091.56953, 3,  -1.132, 10.038,  0.089, 4,  -0.126,  0.070, -0.019, 5,  17.276,-45.171,  7.562
705091.58939, 3,  -2.036,  9.504, -3.687, 4,  -0.043, -0.168, -0.046, 5,  18.645,-43.715,  9.015
705091.60926, 3,  -0.543, 12.747, -2.969, 4,   0.081, -0.378, -0.024, 5,  19.298,-44.412,  9.743
705091.62916, 3,  -1.077,  0.273, -0.153, 4,   0.104, -0.481,  0.035, 5,  19.962,-44.394,  8.292
705091.64903, 3,  -2.824, 13.639, -9.564, 4,   0.035, -0.388,  0.078, 5,  18.648,-43.718, 10.468
705091.66886, 3,  -0.220,  8.487, -2.950, 4,   0.198, -0.195,  0.128, 5,  19.951,-45.113, 10.472
705091.68873, 3,   1.921,  7.887,  0.160, 4,   0.028,  0.050,  0.246, 5,  20.634,-44.382, 10.472
705091.70860, 3,   3.082, 13.445, -1.005, 4,  -0.136,  0.289,  0.290, 5,  17.976,-43.732,  9.013
705091.72846, 3,   1.704, 11.328,  0.538, 4,  -0.013,  0.477,  0.206, 5,  18.010,-42.307,  9.735
705091.74833, 3,   0.206,  5.920, -1.199, 4,  -0.038,  0.654,  0.051, 5,  18.645,-43.715,  9.015
705091.76820, 3,  -1.819,  6.458, -4.104, 4,   0.062,  0.650, -0.089
705091.78806, 3,  -2.335, 12.957, -6.267, 4,   0.142,  0.516, -0.186, 5,  19.284,-45.128, 10.471
705091.80793, 3,  -1.527, 10.863, -1.412, 4,   0.034,  0.314, -0.198, 5,  21.939,-45.779, 11.929
705091.82780, 3,  -1.974,  4.824,  2.130, 4,  -0.098,  0.039, -0.163, 5,  23.256,-46.458, 11.206
705091.84766, 3,  -3.795,  9.107, -4.305, 4,  -0.132, -0.201, -0.181, 5,  20.631,-44.379,  9.019
705091.86753, 3,  -3.857, 10.435, -7.236, 4,   0.007, -0.358, -0.164, 5,  20.683,-42.242, 10.466
705091.88737, 3,  -2.694,  6.839, -0.187, 4,   0.037, -0.438, -0.053, 5,  19.966,-44.400, 11.195
705091.90723, 3,  -0.321, 12.112, -1.919, 4,  -0.132, -0.374,  0.087, 5,  17.313,-43.750, 10.464
705091.92713, 3,   0.964, 10.794, -2.285, 4,  -0.089, -0.259,  0.206, 5,  17.992,-43.016,  8.286
705091.94700, 3,   5.482, 15.848, -4.120, 4,   0.021, -0.154,  0.238, 5,  19.949,-45.111,  9.746
705091.96687, 3,   2.809, -0.433,  2.378, 4,   0.054,  0.015,  0.224, 5,  17.995,-43.019,  9.738
705091.98673, 3,   1.950, 12.790, -4.903, 4,   0.004,  0.249,  0.188, 5,  17.975,-43.730,  8.287
705092.00660, 3,   2.022,  8.102, -4.767, 4,   0.149,  0.349,  0.051, 5,  18.614,-45.143,  9.744
705092.02647, 3,   1.563,  8.856, -5.087, 4,   0.149,  0.441,  0.007, 5,  17.281,-45.178, 11.192
705092.04633, 3,   1.371, 11.196, -2.972, 4,   0.024,  0.397, -0.093, 5,  19.286,-45.131, 11.923
705092.06620, 3,   0.464,  5.752,  0.014, 4,  -0.070,  0.331, -0.162, 5,  19.267,-45.842, 11.197
705092.08604, 3,  -1.161, 17.518, -6.925, 4,  -0.128,  0.218, -0.212, 5,  19.269,-45.844, 11.925
705092.10590, 3,  -1.476, 12.471,  1.024, 4,  -0.022,  0.023, -0.285, 5,  19.983,-43.687, 11.194
705092.12577, 3,  -1.295,  2.493,  4.053, 4,  -0.183, -0.137, -0.235, 5,  19.299,-44.415, 11.194
705092.14564, 3,  -2.625, 10.193, -2.804, 4,  -0.206, -0.351, -0.216, 5,  20.616,-45.093,  9.021
705092.16550, 3,  -4.187, 12.909, -9.239, 4,   0.112, -0.483, -0.214, 5,  20.000,-42.972, 10.468
705092.18537, 3,  -1.586,  7.277, -4.594, 4,   0.145, -0.562, -0.109, 5,  19.284,-45.128, 10.471
705092.20527, 3,  -0.854, 12.179,  0.727, 4,   0.020, -0.581,  0.023, 5,  21.335,-42.937,  9.743
705092.22514, 3,   2.271,  6.377,  1.996, 4,  -0.154, -0.488,  0.201, 5,  21.353,-42.229, 11.919
705092.24500, 3,   1.149,  7.525, -4.556, 4,  -0.118, -0.412,  0.251, 5,  22.003,-42.923, 10.471
705092.26487, 3,  -1.117, 13.314, -5.559, 4,   0.152, -0.245,  0.166, 5,  21.970,-44.351, 11.198
705092.28471, 3,   0.136,  6.858, -0.342, 4,   0.153, -0.025,  0.135, 5,  19.315,-43.700,  9.741
705092.30457, 3,   1.280, 10.225, -0.498, 4,  -0.010,  0.189,  0.163, 5,  18.626,-44.426,  8.290
705092.32444, 3,   0.814,  5.793, -0.766, 4,   0.011,  0.315,  0.153, 5,  18.597,-45.856,  9.746
705092.34431, 3,  -0.507, 13.680, -5.937, 4,   0.049,  0.469,  0.096, 5,  18.594,-45.851,  7.567
705092.36417, 3,  -1.362,  9.976, -2.199, 4,   0.103,  0.590, -0.023, 5,  19.981,-43.684,  9.743
705092.38404, 3,  -3.726,  7.171,  1.816, 4,  -0.001,  0.608, -0.101, 5,  19.965,-44.397,  9.744
705092.40391, 3,  -3.637, 11.514, -2.591, 4,  -0.148,  0.442, -0.123, 5,  18.645,-43.715,  9.015
705092.42377, 3,  -3.412,  7.121, -2.338, 4,  -0.078,  0.107, -0.115, 5,  19.298,-44.412,  9.743
705092.44364, 3,  -3.797, 10.007, -4.199, 4,   0.033, -0.211, -0.053, 5,  19.962,-44.394,  8.292
705092.46351, 3,  -1.232, 11.086, -0.632, 4,   0.026, -0.355, -0.001, 5,  19.328,-42.982,  8.287
705092.48341, 3,  -0.345,  6.619, -1.653, 4,   0.000, -0.396,  0.101, 5,  19.284,-45.128, 10.471
705092.50324, 3,  -0.926, 13.074, -4.853, 4,   0.010, -0.349,  0.183, 5,  19.951,-45.113, 10.472
705092.52311, 3,   1.759,  8.502, -4.030, 4,   0.109, -0.264,  0.228, 5,  19.313,-43.698,  9.015
705092.54298, 3,   3.501,  8.023, -2.998, 4,   0.117, -0.131,  0.298, 5,  20.618,-45.094,  9.747
705092.56284, 3,   2.261,  8.545, -1.929, 4,   0.088,  0.100,  0.265, 5,  18.631,-44.431, 10.469
705092.58271, 3,   2.299, 11.100, -2.855, 4,   0.062,  0.371,  0.175, 5,  17.979,-43.736, 11.191
705092.60258, 3,   2.642,  6.858, -2.771, 4,   0.116,  0.558,  0.087, 5,  17.947,-45.161, 10.469
705092.62244, 3,   0.577, 15.840, -5.623, 4,   0.086,  0.664, -0.018, 5,  14.606,-45.238,  8.284
705092.64231, 3,  -0.404,  5.774,  0.761, 4,   0.108,  0.686, -0.151, 5,  19.299,-44.415, 11.194
705092.66218, 3,  -2.800,  6.028, -1.737, 4,  -0.033,  0.529, -0.262, 5,  18.619,-45.152, 13.376
705092.68205, 3,  -4.013, 12.668, -4.683, 4,  -0.010,  0.273, -0.328, 5,  18.631,-44.432, 11.194
705092.70188, 3,  -3.537,  8.286, -4.762, 4,   0.101,  0.031, -0.312, 5,  19.316,-43.703, 11.192
705092.72175, 3,  -2.536, 11.911, -6.592, 4,   0.016, -0.215, -0.244, 5,  19.983,-43.686, 10.469
705092.74162, 3,  -2.316,  6.008,  1.634, 4,  -0.004, -0.369, -0.128, 5,  18.665,-43.005, 11.191
705092.76087, 3,  -1.163, 10.801, -2.067, 4,  -0.182, -0.455, -0.008, 5,  21.323,-43.660, 13.376
705092.78138, 3,   0.692, 16.254, -4.020, 4,  -0.122, -0.448,  0.063, 5,  19.267,-45.840, 10.472
705092.80125, 3,   2.639,  2.280, -0.469, 4,  -0.016, -0.373,  0.151, 5,  19.316,-43.701, 10.468
705092.82111, 3,   2.556, 15.230, -7.607, 4,  -0.045, -0.211,  0.191, 5,  19.980,-43.683,  9.016
705092.84098, 3,   3.405,  6.870, -1.385, 4,   0.095, -0.007,  0.196, 5,  19.316,-43.703, 11.192
705092.86085, 3,   3.742, 10.268, -0.687, 4,  -0.051,  0.128,  0.161, 5,  19.284,-45.129, 11.195
705092.88071, 3,   3.410, 12.782, -1.194, 4,  -0.085,  0.226,  0.048, 5,  21.257,-46.513, 13.382
705092.90055, 3,   2.938,  7.523, -1.783, 4,  -0.026,  0.283, -0.037, 5,  23.277,-45.752, 14.111
705092.92042, 3,   0.869, 13.338, -6.726, 4,   0.066,  0.268, -0.153, 5,  21.892,-47.925, 13.388
705092.94028, 3,  -2.020,  6.051, -0.182, 4,   0.108,  0.230, -0.249, 5,  20.651,-43.669, 10.471
705092.96015, 3,  -2.115,  5.556, -0.428, 4,  -0.070,  0.177, -0.278, 5,  19.299,-44.414, 10.469
705092.98002, 3,  -2.390, 12.636, -6.087, 4,  -0.070, -0.029, -0.344, 5,  20.636,-44.385, 11.925
705092.99989, 3,  -2.795, 13.534, -4.726, 4,   0.026, -0.228, -0.291, 5,  20.000,-42.972, 10.468
705093.01975, 3,  -1.742, 12.165,  0.416, 4,  -0.015, -0.423, -0.229, 5,  20.650,-43.668,  9.744
705093.03962, 3,  -1.847,  4.807,  3.450, 4,  -0.145, -0.493, -0.092, 5,  21.986,-43.637, 10.472
705093.05952, 3,  -2.534,  7.269, -5.334, 4,  -0.052, -0.510,  0.003, 5,  21.985,-43.636,  9.746
705093.07938, 3,  -2.938, 13.783, -8.071, 4,   0.200, -0.457, -0.019, 5,  19.998,-42.970,  9.741
705093.09925, 3,  -0.196,  1.835, -3.084, 4,   0.286, -0.360,  0.059, 5,  20.631,-44.379,  9.019
705093.11909, 3,   1.084, 11.375, -4.527, 4,   0.062, -0.207,  0.175, 5,  21.288,-45.079, 10.474
705093.13895, 3,   1.847, 10.909, -4.417, 4,   0.062, -0.043,  0.221, 5,  21.338,-42.941, 11.922
705093.15882, 3,   1.685, 10.035, -2.359, 4,  -0.004,  0.086,  0.212, 5,  20.633,-44.380,  9.746
705093.17869, 3,   0.002,  8.868,  2.314, 4,  -0.055,  0.223,  0.141, 5,  19.983,-43.686, 10.469
705093.19856, 3,  -2.725,  3.886,  0.062, 4,  -0.105,  0.312,  0.081, 5,  21.336,-42.938, 10.469
705093.21842, 3,  -4.226, 14.424, -6.645, 4,  -0.028,  0.299,  0.030, 5,  19.966,-44.400, 11.195
705093.23829, 3,  -0.780, 10.909, -4.817, 4,   0.147,  0.188,  0.024, 5,  19.333,-42.989, 11.191
705093.25816, 3,  -0.656,  8.071,  1.170, 4,   0.002,  0.175,  0.102, 5,  19.348,-42.276, 11.188
705093.27802, 3,   0.780,  7.923, -0.227, 4,  -0.128,  0.212,  0.122, 5,  19.981,-43.684,  9.743
705093.29789, 3,  -0.933, 10.306, -2.862, 4,  -0.051,  0.261,  0.054, 5,  20.634,-44.383, 11.197
705093.31776, 3,  -2.716, 11.782, -5.853, 4,   0.066,  0.355,  0.039, 5,  19.286,-45.131, 11.923
705093.33759, 3,   0.964,  9.813, -2.632, 4,   0.087,  0.354,  0.025, 5,  19.287,-45.134, 12.650
705093.35749, 3,   1.065,  6.525, -1.034, 4,   0.004,  0.325,  0.054, 5,  18.648,-43.718, 10.468
705093.37736, 3,   0.648,  8.535, -5.255, 4,  -0.072,  0.312,  0.018, 5,  19.319,-43.709, 13.373
705093.39722, 3,   0.156, 12.888, -5.590, 4,   0.032,  0.249, -0.065, 5,  18.651,-43.724, 12.646
705093.41709, 3,  -0.605,  7.848, -1.254, 4,   0.051,  0.152, -0.095, 5,  18.602,-45.863, 12.651
705093.43696, 3,  -0.773, 15.374, -1.421, 4,  -0.093,  0.015, -0.122, 5,  19.301,-44.417, 11.922
705093.45683, 3,   0.002,  5.085,  1.309, 4,  -0.112, -0.131, -0.120, 5,  19.333,-42.989, 11.191
705093.47669, 3,  -1.728,  9.490, -3.130, 4,  -0.134, -0.307, -0.106, 5,  19.983,-43.687, 11.194
705093.49656, 3,  -2.168, 12.608, -4.403, 4,   0.044, -0.445, -0.118, 5,  20.703,-41.536, 13.370
705093.51643, 3,   0.325,  5.252, -2.292, 4,   0.094, -0.446, -0.045, 5,  19.284,-45.129, 11.195
705093.53626, 3,  -0.108, 11.931, -5.530, 4,   0.017, -0.275,  0.061, 5,  21.338,-42.941, 11.922
705093.55613, 3,   0.627,  7.011, -2.252, 4,   0.028, -0.016,  0.142, 5,  18.665,-43.004, 10.466
705093.57600, 3,   0.368, 11.593, -2.154, 4,  -0.066,  0.201,  0.140, 5,  19.333,-42.987, 10.466
705093.59586, 3,   1.239, 10.770, -0.703, 4,  -0.107,  0.387,  0.061, 5,  19.316,-43.701, 10.468
705093.61573, 3,   0.524,  2.484, -0.723, 4,  -0.115,  0.431, -0.023, 5,  19.934,-45.827, 11.198
705093.63563, 3,  -1.316, 17.922, -6.851, 4,  -0.104,  0.343, -0.118, 5,  19.316,-43.703, 11.192
705093.65549, 3,   0.304, 10.710,  2.039, 4,  -0.034,  0.182, -0.192, 5,  19.983,-43.687, 11.194
705093.67536, 3,   0.211,  3.783,  3.063, 4,  -0.184,  0.028, -0.159, 5,  19.299,-44.415, 11.194
705093.69523, 3,  -2.065, 16.757, -6.145, 4,  -0.115, -0.153, -0.212, 5,  19.299,-44.414, 10.469
705093.71510, 3,  -2.675,  6.336, -2.089, 4,   0.185, -0.345, -0.250, 5,  19.299,-44.414, 10.469
705093.73493, 3,  -1.350,  8.339, -3.218, 4,   0.064, -0.470, -0.192, 5,  19.299,-44.414, 10.469
705093.75480, 3,  -0.754,  8.554, -3.769, 4,   0.031, -0.500, -0.076, 5,  20.667,-42.953,  9.743
705093.77467, 3,  -1.981,  9.892, -6.264, 4,   0.098, -0.474,  0.043, 5,  19.981,-43.684,  9.743
705093.79453, 3,   0.500, 11.332, -3.139, 4,   0.099, -0.462,  0.100, 5,  19.283,-45.126,  9.744
705093.81440, 3,   0.536,  2.323, -1.541, 4,   0.071, -0.390,  0.173, 5,  21.336,-42.938, 10.469
705093.83427, 3,   0.132, 16.587, -7.176, 4,  -0.022, -0.206,  0.212, 5,  21.335,-42.937,  9.743
705093.85413, 3,   2.410, 11.533, -3.077, 4,   0.059, -0.035,  0.210, 5,  19.333,-42.987, 10.466
705093.87400, 3,   3.046,  5.987,  4.142, 4,  -0.079,  0.132,  0.249, 5,  19.966,-44.398, 10.471
705093.89387, 3,   0.974,  5.262, -0.668, 4,  -0.148,  0.218,  0.202, 5,  20.000,-42.973, 11.192
705093.91377, 3,  -1.596, 16.420, -9.837, 4,   0.045,  0.239,  0.064, 5,  19.296,-44.411,  9.016
705093.93363, 3,   0.775,  6.068, -1.137, 4,   0.187,  0.237, -0.001, 5,  19.333,-42.989, 11.191
705093.95347, 3,   0.282,  7.920, -1.302, 4,   0.006,  0.223,  0.007, 5,  19.281,-45.125,  9.018
705093.97334, 3,  -0.940,  8.526, -5.389, 4,  -0.037,  0.201,  0.007, 5,  20.650,-43.668,  9.744
705093.99320, 3,  -3.029,  9.657, -5.633, 4,   0.020,  0.083, -0.048, 5,  18.645,-43.715,  9.015
705094.01307, 3,  -2.393, 18.841, -1.850, 4,  -0.024,  0.031, -0.053, 5,  18.648,-43.719, 11.192
705094.03294, 3,  -1.811,  1.938,  6.152, 4,  -0.180,  0.048, -0.005, 5,  20.015,-42.261, 11.189
705094.05280, 3,  -2.924, 17.341, -1.144, 4,  -0.281,  0.019,  0.018, 5,  19.315,-43.700,  9.741
705094.07267, 3,  -1.720,  6.506, -1.292, 4,  -0.006, -0.093, -0.009, 5,  19.980,-43.683,  9.016
705094.09254, 3,  -1.869,  7.234, -5.614, 4,   0.104, -0.154,  0.059, 5,  19.316,-43.701, 10.468
705094.11240, 3,  -1.003, 11.452, -5.803, 4,   0.208, -0.191,  0.073, 5,  17.993,-43.018,  9.012
705094.13227, 3,   0.828,  5.147, -2.307, 4,   0.139, -0.142,  0.142, 5,  18.631,-44.431, 10.469
705094.15211, 3,   1.850, 11.713, -5.018, 4,   0.010, -0.063,  0.195, 5,  19.298,-44.412,  9.743
705094.17197, 3,   2.474,  8.600, -0.251, 4,   0.022,  0.003,  0.201, 5,  19.983,-43.686, 10.469
705094.19184, 3,   0.883,  9.325, -0.165, 4,  -0.050,  0.155,  0.194, 5,  17.281,-45.178, 11.192
705094.21174, 3,  -0.084, 13.400, -3.446, 4,  -0.034,  0.299,  0.078, 5,  20.621,-45.099, 11.926
705094.23161, 3,   0.048,  4.152, -0.089, 4,   0.027,  0.408,  0.006, 5,  17.978,-43.733,  9.740
705094.25147, 3,  -0.108, 11.253, -5.015, 4,  -0.008,  0.537, -0.041, 5,  20.621,-45.099, 11.926
705094.27134, 3,   0.412,  8.961, -3.986, 4,   0.082,  0.543, -0.122, 5,  17.281,-45.178, 11.192
705094.29121, 3,  -3.003,  6.743, -3.288, 4,   0.082,  0.579, -0.144, 5,  19.949,-45.111,  9.746
705094.31107, 3,  -3.683, 10.966, -3.510, 4,  -0.035,  0.548, -0.231, 5,  19.968,-44.402, 11.923
705094.33094, 3,  -2.718,  5.539, -0.368, 4,  -0.043,  0.360, -0.251, 5,  19.287,-45.134, 12.650
705094.35081, 3,  -2.792, 12.136, -5.695, 4,  -0.115,  0.063, -0.234, 5,  20.001,-42.975, 11.920
705094.37064, 3,  -0.323, 22.184, -3.706, 4,  -0.066, -0.226, -0.205, 5,  18.582,-46.573, 11.198
705094.39051, 3,  -0.507,  1.220,  5.475, 4,  -0.084, -0.399, -0.117, 5,  19.966,-44.398, 10.471
705094.41038, 3,  -0.775,  7.698, -2.273, 4,  -0.211, -0.427, -0.060, 5,  19.934,-45.827, 11.198
705094.43024, 3,  -0.579,  7.389, -7.743, 4,   0.103, -0.457, -0.065, 5,  21.304,-44.368, 11.925
